2146 50
है -0.232452 1.912895 0.753697 0.495530 0.239394 0.933999 0.498415 0.033517 0.329663 0.540786 0.428892 -0.514118 -0.477958 -0.006968 0.756416 0.388228 -0.330028 0.404974 -1.379478 0.852115 -0.606428 0.193766 0.102621 -0.027616 0.217296 0.205958 0.622172 -0.208182 1.472721 -0.400418 0.632611 1.349597 2.090388 1.211576 0.148872 -0.035370 0.190600 0.588220 1.498203 -1.059625 -0.460606 -0.780855 -0.420679 -0.561163 -1.845585 1.151260 0.460673 0.541479 -0.138507 0.021253
। -0.682643 1.934180 -0.029189 -0.762072 0.857318 0.850910 -0.144045 0.723248 0.213364 -0.315606 -0.378671 -0.631710 0.105352 -0.199875 0.475546 -0.914798 0.023408 0.649838 -0.894021 0.030761 -1.211722 0.713826 0.077263 -0.210180 -0.782543 0.950946 0.913807 -0.298286 0.708959 -0.807933 -0.073819 0.616295 1.208668 1.273268 0.535456 0.778814 -0.765007 0.497755 1.149701 -0.797216 0.405098 -0.834123 0.204760 -0.993547 -1.286302 1.673653 0.521182 1.474328 0.827324 -0.367838
के 0.160160 1.646950 -0.190368 -0.217296 -0.003334 0.356133 -0.679881 0.171709 1.045460 -0.062641 -0.378133 -0.175659 -1.251550 1.623823 2.451932 -0.819360 -0.885768 -1.004459 -0.478516 1.066536 -1.712578 -0.645144 -0.204635 0.418703 0.656477 0.988511 0.375292 -0.965642 0.185863 -0.458969 0.266850 0.077545 0.449323 1.212689 0.536902 0.198290 -0.728328 1.021606 -0.085270 -0.311694 -0.403591 -1.365034 0.358479 0.109151 -1.875364 -1.298521 -0.078674 -0.166234 1.312205 -0.661975
में -1.305571 1.534557 0.901106 -1.215680 -0.561907 0.084396 0.312404 0.008863 0.596095 1.509910 -0.534106 -0.400527 -0.377549 -0.939527 0.495202 -0.757026 0.793884 -2.499689 -0.017212 0.652241 -0.677060 0.692902 0.040122 -0.100529 -0.261168 0.216544 0.640181 -0.189653 1.531318 -0.297077 -0.299632 -0.068778 0.699569 1.144760 -0.136401 -0.243331 -0.003663 0.847743 1.286275 -0.124976 -0.813626 -0.167055 -0.037604 -1.134624 -1.792555 -0.240707 1.458584 0.298983 1.721887 0.198054
, -1.833562 0.913561 1.543191 0.748956 0.119021 1.068017 0.045441 0.362027 1.382408 -0.739420 0.484743 -0.812528 0.813722 1.101652 0.335639 1.082660 -0.615132 -0.341975 -0.138852 0.336725 -0.626940 0.196853 -1.402933 0.879097 1.437178 1.872623 0.111574 0.412097 0.864435 -0.636297 -0.752373 0.899314 2.586558 1.239133 -0.076268 -1.306087 -0.025152 1.303315 0.452048 1.421885 0.181435 0.286078 0.008201 -0.735306 -1.456199 1.287130 -0.037270 -0.564436 1.125375 -0.109888
की -0.346534 0.328063 0.857150 -1.237955 -0.678290 0.684419 -1.714488 0.853004 0.095722 1.709709 -0.668986 -0.314714 -0.195216 0.154353 0.872120 -0.280345 -1.093144 0.707379 0.233503 0.978593 -1.150156 0.697402 -1.121844 -0.192966 1.119223 0.607701 0.401526 -0.616802 1.285881 -1.378306 -0.132207 0.886661 0.040774 1.112300 0.052342 -0.589809 0.115539 0.593245 0.430682 -0.893748 -0.011385 -0.138841 0.415299 0.998496 -0.718957 0.183285 0.095642 1.854966 0.772116 0.736958
और -0.987208 1.006381 0.555520 -0.285530 0.209242 1.047381 -0.981725 -0.339956 -0.191996 0.451222 0.135884 -0.071651 0.502941 1.053071 -0.079513 -0.699761 -0.702500 0.151739 -0.665395 1.310998 -0.552455 0.879649 -0.897823 1.502224 0.036366 1.478013 1.876589 -1.035947 0.154979 0.931229 0.126072 0.786579 1.080829 0.789118 -0.020904 -0.851601 -0.760879 1.251155 0.981539 0.597354 -0.060198 -0.193024 -0.378353 0.057661 -1.104231 -0.328100 -0.016869 0.416428 1.111804 0.273206
से -0.907809 1.742498 -0.871577 0.291011 -0.003330 1.309694 -0.589070 0.286081 1.108029 1.451863 0.193079 -0.410731 0.247601 0.959923 0.426609 0.421898 -1.605064 0.043428 1.417458 1.435532 -0.467093 -0.126313 -1.077734 -0.594225 -1.161167 -0.037203 0.858572 0.751621 1.177161 -1.131799 1.509405 -0.150458 0.097003 1.821269 -0.908443 0.214979 -0.239432 0.869519 0.547591 -0.895346 1.022893 0.198869 -0.803162 -0.459941 -1.216338 -0.216359 -1.081579 1.120652 0.432002 -0.989963
का 0.612497 0.368747 -0.168131 -0.453192 0.177382 1.544578 0.333691 0.294904 0.032513 1.190671 0.841633 -0.767564 0.077672 -0.339609 -0.025613 -0.839828 0.421754 0.636831 -0.737757 0.765705 -1.448208 0.382170 -0.862793 -0.506475 0.488403 0.499919 0.380877 0.736749 1.005674 0.243317 0.240288 1.208929 0.286733 1.346235 1.565182 -0.135207 0.068945 0.111185 0.002425 0.707132 0.439656 -1.512663 0.274404 0.166570 -2.400918 -0.208260 1.759774 -0.243442 0.588761 -0.910661
हैं -1.126492 0.634897 0.057836 -0.870221 0.450968 1.464398 -0.637897 0.795912 1.293129 -0.645656 -0.310534 -1.032422 0.064427 0.453686 -0.484099 0.322057 -1.003913 -0.414565 0.397160 -0.182327 -1.098353 1.700907 -0.377891 -0.122203 -0.311529 0.946764 1.347867 -0.394430 -0.212021 0.070444 -0.905196 -0.387148 0.274956 0.646517 1.581029 1.256417 -1.405947 0.946553 0.437198 -0.298670 -0.086127 -0.610520 -0.473497 -1.400900 -0.894758 0.864270 0.352705 1.093001 1.242710 0.042203
भी 0.001837 1.429492 0.323163 0.684712 1.024477 1.651641 -0.627731 -0.191116 0.474987 0.485816 -0.598428 -0.569614 -0.329063 0.050149 0.123058 -0.070360 -0.020219 -0.345892 0.058695 0.443242 0.393925 1.119803 -0.412196 0.203101 0.187561 0.578077 0.803337 -0.459901 0.560251 -0.742058 0.360133 0.034321 0.086353 0.372920 0.339492 0.226347 -0.187020 1.063489 0.741397 -0.489683 0.269448 -0.003664 -0.034515 -0.321554 -1.488479 0.246140 1.066499 0.996083 0.754443 0.188455
को -0.322569 1.327392 -0.538403 -0.590669 1.117866 1.498315 -0.264141 0.309368 0.425545 0.520390 -0.386007 -0.079056 -0.775877 -0.138881 1.427189 0.418803 0.758853 0.087558 0.484151 0.639593 0.677054 0.342190 0.631411 -0.673096 0.802156 1.209704 0.770996 -0.392563 0.611339 0.175299 0.183275 0.302389 0.440646 0.519788 0.876265 -1.032742 -0.100975 0.736249 -0.395254 -0.467668 0.982380 -0.743738 -0.792069 0.774064 -1.620858 -0.227359 -0.176258 1.684755 0.561094 0.432247
यह -0.080291 1.005469 -0.309988 0.759094 -0.556550 0.415874 0.448611 0.717766 0.572580 0.682240 0.291364 -0.563404 -0.208695 0.539625 1.338182 0.586774 -0.162125 0.513592 -0.384445 -0.014269 -0.347141 0.411028 0.440207 0.818324 -0.105359 0.711659 0.247957 -0.003871 1.415895 -1.122522 0.674655 1.107108 0.536793 0.873296 0.546864 0.086968 0.750863 0.724155 0.447862 0.076201 -1.145210 0.414033 -0.074762 -0.459194 -1.572027 0.386175 0.164106 0.384078 1.082125 -0.494903
पर -0.452691 0.743918 -0.826992 -0.186376 0.140501 0.870834 -0.929388 0.138246 1.597898 0.119710 -1.053852 -0.510822 0.540152 0.526090 0.862661 -0.313697 -0.934989 0.102377 -0.526964 -0.277850 0.798739 0.939508 -0.154517 1.771613 0.259225 -0.219443 -0.061168 0.146521 1.152425 -0.452892 0.526013 2.010659 0.620984 1.024271 0.451877 -1.021964 -0.238327 0.446508 -0.473717 0.010745 0.436274 0.329842 0.579877 -1.782902 -1.317440 0.401419 -0.589782 0.591761 0.793451 -0.247869
इस -0.310833 0.458318 0.113958 -0.904272 0.103353 1.109327 0.206875 0.446199 1.008507 0.561814 -0.071968 -0.866767 -0.273471 0.107677 0.782019 -0.232332 0.051066 -0.274347 0.162031 0.170283 -0.231346 0.570137 0.606568 -0.383639 0.292701 0.938195 -0.000345 -0.038095 1.715074 -0.518964 -0.206450 1.142407 0.111402 1.358203 0.845212 -0.009356 -0.062726 0.406135 -0.362636 0.069310 -0.806183 0.176436 0.627170 -0.033936 -1.793904 -0.347092 -0.547501 0.196716 1.107344 -0.136948
नहीं -0.708235 0.280059 -0.184362 0.961111 0.481175 1.359840 -0.789781 0.320718 1.062574 0.446599 -0.205392 -0.905332 -0.570806 -0.271029 0.929880 0.416081 0.371880 0.560178 -0.854558 -0.878627 -0.140620 0.797913 -0.175976 0.198301 0.459754 0.889023 1.325567 -0.308913 0.577719 -0.908721 0.545525 -0.039601 0.208789 -0.045767 -0.103541 0.764704 0.199295 0.623528 1.045077 -0.573738 0.395726 0.060539 0.641769 -0.349602 -1.210232 1.696069 0.897947 1.085571 0.413503 0.083512
एक 0.397720 0.439944 0.097303 -0.137839 -0.789080 0.520916 0.977100 0.969256 -0.717691 0.811779 0.361917 -0.312866 -0.282706 0.685322 0.820744 0.316641 -0.665341 1.079217 0.531469 0.047942 -0.508541 0.358383 0.134509 0.529186 0.336860 0.697097 0.951374 -0.345290 0.854721 -0.219261 -0.014235 0.400510 0.760727 0.852802 0.117710 0.477246 0.519232 1.132452 0.922970 -0.104349 0.152932 0.773853 0.185415 -0.670907 -2.255620 0.227547 -0.096394 0.530871 0.595296 -0.732584
साथ 0.375824 0.663592 0.517850 -0.681246 -0.001370 0.584938 0.123767 0.004471 -0.164438 -0.275484 -0.475408 -0.404503 -0.369023 1.052482 1.125605 -0.689807 0.196802 -0.547709 -0.152302 0.877012 -0.858921 -0.372773 -0.218538 0.817841 -0.054040 0.093204 -0.279051 -0.661723 0.185424 0.312797 0.130166 0.468848 0.940375 1.126029 0.230459 0.066286 -0.653411 1.368796 0.379566 -0.537183 0.625032 -0.671245 0.321689 -0.892748 -2.187936 0.355365 0.117927 0.441322 0.165385 0.770639
लिए 0.327779 0.641317 -0.149393 -0.223723 0.372844 0.168066 0.440636 0.711561 0.467172 -0.114071 -0.287993 -0.013325 -0.813818 0.387398 1.639350 0.456103 -0.187044 -0.094240 0.418818 0.001541 -0.771318 -0.371415 -0.481406 0.843169 0.593132 1.039073 2.041997 -0.024505 0.359483 -0.613195 0.831300 -0.026745 1.074249 0.367839 0.444800 0.246898 -0.856879 0.615060 -0.054640 -0.655999 -0.324126 -0.679793 -0.037325 0.355880 -1.613364 -0.240840 0.318054 0.243478 1.140048 -0.521552
ही -0.516566 0.187666 -0.569588 0.048226 0.121097 0.721549 -0.513855 0.708744 -0.458994 0.538263 -0.245003 -1.141038 -0.347038 -0.178002 0.455274 0.409733 0.316762 -0.228964 -0.684177 0.326879 -0.492357 0.282530 -0.227509 1.234751 -0.861566 0.422048 0.098184 -1.015515 0.381310 -0.064586 0.532996 0.010836 -0.597950 1.071383 -0.098877 1.026986 -0.215184 1.565482 0.693712 -0.172891 0.380223 -0.041774 0.523402 -0.453748 -2.138197 0.500368 0.203174 0.833672 0.886784 0.263223
- -0.366981 1.037337 -1.177520 1.103296 -0.781892 -0.175963 -0.338547 0.530875 0.168907 -0.930747 0.380042 -0.734380 0.745879 2.073329 0.040994 0.311686 0.097082 0.144855 -0.222937 0.513959 -0.498350 0.165060 -0.647882 0.221157 0.220090 0.049230 0.165971 0.493991 0.086270 -0.597369 -0.802411 0.857897 1.170332 1.094384 0.343618 -0.070097 -0.079499 1.810857 0.656458 0.238497 1.093030 0.088981 0.170033 -0.241368 -1.582176 -0.973696 0.547963 0.827672 0.391468 1.607188
जो -0.023730 1.259133 0.469773 0.095059 0.357756 0.802293 0.280567 0.401246 0.121349 0.650345 0.237806 -0.866026 -0.690143 0.198321 0.604387 0.366009 -0.129584 -0.181264 -0.223273 0.335611 -0.253820 0.274890 0.456488 -0.213296 0.318706 0.106362 0.470569 -0.115537 0.562415 0.028199 0.058663 0.500632 0.775357 0.531051 0.871881 -0.471569 -0.360025 0.571146 0.281250 -0.074660 0.305735 0.049957 -0.657550 -0.420702 -1.754826 0.939243 -0.203157 0.409791 0.356000 0.202453
कि -0.758955 0.900474 0.097291 0.556437 -0.076893 0.791590 -0.418676 0.659507 0.634875 0.847669 1.272371 -1.281178 -0.265174 0.244728 0.538895 0.184974 0.275265 0.549584 -0.897625 -0.169336 0.457062 0.576887 0.426253 -0.083040 0.328821 0.426920 0.438852 -0.403907 0.293453 -0.426088 0.052228 0.406203 -0.027052 0.662348 1.068089 0.214893 0.115120 1.272752 0.089265 0.098401 -0.129184 0.893227 -0.116400 -0.098799 -1.056767 0.651019 -0.057657 0.160307 0.640649 -0.132433
बहुत -0.128631 0.265602 0.421515 1.136766 0.507559 1.667565 -0.442619 0.087052 -0.523578 1.023137 -0.154988 -0.441982 0.384038 0.331169 0.014229 0.501555 -0.331350 -0.632815 -0.206915 0.020719 -0.390750 0.092487 0.505124 0.743230 -0.112614 1.365904 0.558112 -0.634952 0.416073 -0.430862 1.124446 -0.205906 0.440584 0.799211 -0.204224 0.392462 -0.174220 0.513651 1.198141 0.050970 -0.053904 0.402642 -0.093885 -0.511319 -1.041837 -0.019659 -0.568465 1.114763 1.037325 -0.524946
तो -0.158113 0.270221 -0.052368 -0.548514 -0.734170 0.570244 -0.235020 1.233853 0.857059 1.151123 0.575457 -1.846263 -0.082144 -0.205661 0.368091 0.963436 0.483248 0.360500 -0.377054 -0.459412 0.103450 0.403183 0.008722 1.373757 0.178632 0.155094 0.818784 -0.498825 0.671784 -0.664928 0.049389 0.050541 0.200134 1.657967 -0.235960 0.458238 -0.722330 1.022738 -0.107506 -0.903803 -0.260632 0.142018 0.019219 0.469761 -0.178965 0.226592 0.224849 0.681080 1.028458 0.450462
इसमें 0.091304 -0.075827 0.701626 0.230004 -0.340232 0.677746 0.125387 -0.118693 0.078306 -0.008089 0.161356 -0.672244 -0.323774 1.573792 0.669749 0.016357 0.080046 0.008559 -0.106676 -0.096294 -0.893101 0.291040 -0.581317 0.013110 1.291612 0.344730 -0.346489 -0.163933 0.419714 -0.353606 0.762489 0.303438 -0.246616 -0.126383 0.733195 -0.332681 -0.440829 0.956837 0.800748 -0.475035 -0.364900 0.718796 0.599312 -0.563182 -1.726390 1.138956 0.885756 -0.293545 0.155349 0.679344
आप -0.403955 0.732898 -0.134392 -0.592366 -0.016729 1.397768 -0.260483 0.975096 1.514960 0.439136 0.798520 -0.874607 -0.146908 0.373670 -0.336160 1.703028 0.117637 -0.181629 0.420516 0.357579 0.676659 1.110069 -0.477232 0.714990 0.503721 -0.037407 0.037292 -0.267352 0.435630 -0.216300 -0.694707 -0.114530 -0.183068 0.754838 0.657261 0.486210 -0.323253 1.470382 -0.880670 0.355988 -0.197527 -0.118084 -0.320036 0.150533 -1.278826 0.043866 0.327118 0.305608 0.721858 -0.268398
इसके 0.395905 -0.069151 0.541758 0.378920 0.466239 1.285368 -0.561502 -0.545424 0.712938 0.010901 0.338856 -0.327252 -0.281318 1.157609 0.801945 -0.226992 -0.711664 -0.857686 0.268324 0.666387 -0.349192 -0.047882 -0.199862 0.695665 0.625365 0.603924 -0.300338 -0.715129 -0.149667 -0.545924 0.159939 0.124988 -0.499739 0.792708 0.516756 0.226868 -1.079042 0.924519 0.576714 -0.308211 -0.856355 -0.215411 0.897603 -0.090670 -1.860856 0.334575 0.248529 -0.628776 0.983218 0.250306
लेकिन -0.677376 0.578754 0.547140 1.075437 0.322769 1.279376 -0.474459 -0.179075 0.883459 0.520529 0.381887 -0.939053 0.191628 0.096831 0.151474 0.716347 -0.163267 -0.470460 -0.357356 0.244116 0.185441 0.556074 -0.243621 0.686870 0.167652 0.820858 0.125821 -0.578185 0.856498 -0.760910 0.398671 0.119923 0.455748 0.591919 0.124603 0.057713 -0.273510 1.155960 0.640884 0.115981 -0.625068 0.447848 0.291213 -0.117055 -0.851190 0.416903 0.108391 0.181612 1.098445 -0.089756
कर -0.355271 0.420708 -0.191239 -0.253431 0.880521 1.000992 -0.467272 0.721221 1.293006 0.080667 -0.025953 -0.163273 -0.150256 -0.928324 0.020507 0.206908 0.219301 0.150802 0.237064 0.123217 0.875999 0.523021 -0.696558 0.433732 -0.208134 -0.482309 0.839970 0.164203 -0.145755 -0.139144 0.169302 0.090438 0.281148 0.298270 0.710379 0.560432 -0.110167 1.394442 -0.258579 -0.661778 0.390446 -0.951407 -0.280948 -0.509773 -1.347294 0.482136 0.806033 1.487223 0.397407 0.517810
' -0.098744 1.469485 -0.695868 -0.757419 0.527255 -1.044970 0.095225 0.258933 -0.195443 0.055855 0.614563 0.612837 -0.118145 0.332495 0.339266 0.046143 0.373973 1.015678 -0.772773 0.379314 -0.102267 0.754850 -1.530356 -0.076739 -0.313305 0.169450 0.084762 0.026981 0.886558 -0.061121 -1.484825 0.523205 -1.121837 -0.398103 -0.928536 -0.479380 1.553760 1.691357 0.064945 0.825005 0.029337 -0.504335 0.364040 0.693388 -0.870324 -0.296003 -0.108517 0.423267 0.733175 -0.075912
गया -0.322498 0.336791 0.570103 0.046212 1.343747 0.591852 0.552803 -0.891505 0.401711 0.027063 0.409558 -0.269833 -0.277488 -0.646234 0.369327 -1.024897 0.824271 0.391976 -0.262355 0.199862 0.155742 -0.606936 -1.130885 -0.921922 -0.109425 0.335254 0.652097 0.027774 0.760789 -0.694094 0.597821 0.565816 0.332479 0.747248 -0.105527 0.071071 -0.186801 1.606212 0.788234 -0.384804 0.435854 -0.374516 0.834035 0.047288 -1.696733 0.941001 0.348888 -0.409167 0.285695 0.634825
कैमरा 0.416016 -0.353539 1.398169 0.041374 0.455062 1.619838 0.707105 -0.428124 -0.285464 0.554164 0.120791 0.093290 -0.212064 0.714711 -0.298827 -0.580213 -0.005933 0.245884 0.418152 0.339942 -1.007274 -0.089950 -0.434406 0.407647 -1.021691 0.159314 1.460685 -0.263873 0.846169 -0.438815 0.978711 0.995350 0.069122 0.362565 -0.092753 -0.261193 -1.003807 0.259153 0.323071 0.834513 0.258839 -0.706747 0.508934 0.475441 -1.363458 0.454644 1.420970 -0.389949 -0.298760 0.358455
काफी 0.738100 0.494682 0.596121 0.864042 0.245133 1.001172 0.016272 -0.081542 -0.590379 1.140005 0.190765 -0.154991 0.362975 -0.100557 0.225924 -0.124165 -0.351607 -0.247207 -0.501829 0.544589 -0.394854 0.576511 0.909937 0.760628 -0.386105 0.598542 0.660843 -0.718620 0.620929 0.160478 0.509824 -0.074025 1.379188 0.665700 -0.108902 0.024319 -0.270115 -0.086539 0.742662 0.165124 -0.391127 -0.191666 -0.459853 -0.085559 -0.565580 -0.249095 0.086170 1.198618 0.899749 -0.686473
फोन -0.187526 0.506577 0.130048 -0.358104 -0.405449 0.654394 0.176877 0.401554 0.569030 0.733766 0.378461 -0.471658 -0.138228 0.151179 0.637858 -0.221578 -0.044888 -0.061478 0.027645 0.466181 -0.075409 0.225271 0.500656 0.563837 -0.333588 0.170731 0.782503 -0.088688 0.747937 -0.134911 0.124197 0.698325 0.391977 1.077874 0.582496 -0.040487 -0.224754 0.838009 -0.039489 -0.141052 -0.479400 -0.252879 -0.154693 -0.186194 -1.328654 -0.471037 0.279251 0.520366 0.803406 -0.040654
फिल्म -0.385682 1.424155 -0.409045 -0.517335 0.126427 -0.334095 -0.272893 0.413121 0.055670 0.587957 0.325718 -0.589790 -0.653013 0.048314 0.539219 0.015170 -0.077512 0.403126 -0.815594 0.232813 0.015138 0.619302 -0.146985 -0.474064 -0.019156 0.445989 0.312264 -0.089101 0.932670 -0.605820 -0.854843 0.776270 -0.614195 0.397300 0.280830 -0.403468 0.272443 0.603540 0.386427 0.029656 -0.404621 -0.158462 0.196593 0.797052 -0.709902 0.065842 -0.357136 0.541663 0.740942 0.516085
सकते -0.724423 0.440603 0.057023 -0.772907 0.894502 1.312667 -0.876257 0.594253 1.652670 -0.046094 0.129603 -0.088584 0.237370 -0.035665 -0.720254 0.288485 -0.188666 0.317652 0.762183 0.200255 0.901996 1.301721 -0.857122 -0.083884 0.162220 -0.277063 0.668057 -0.105336 -0.668476 0.169624 -0.458337 -0.399334 -0.486643 0.213517 1.136258 1.241756 -0.240183 1.556395 -0.833961 -0.603844 0.286460 -0.076132 -0.549863 -0.723145 -1.051063 0.194725 0.683767 0.994746 0.214464 -0.183093
जा -0.902361 0.567617 1.017406 0.082686 0.908308 0.657551 -0.915568 0.453373 1.403059 0.836205 0.036609 0.634578 0.207458 -0.642845 0.788183 -1.416697 -0.285642 0.841569 0.278529 0.602205 0.969278 0.198349 -0.205421 -0.469949 0.731029 -0.384810 0.939354 -0.311821 -0.417628 -0.544141 0.454481 -0.568286 0.881343 0.961315 0.190617 1.418013 -0.100548 1.373370 -0.581066 -1.327451 -0.144715 0.372262 -0.092457 -0.634377 -0.779718 0.600842 0.188561 0.324412 0.129317 -0.621631
ने -0.207321 1.223626 -0.226139 -0.895847 0.515315 0.150678 0.304630 -0.106328 -0.278944 0.529138 -0.281353 -0.527502 -0.653442 -0.115883 -0.087682 -0.525052 0.510355 -0.261722 0.328084 -0.045846 0.437890 -0.056022 -0.691764 -0.453609 0.314912 0.969286 0.337139 -0.285932 0.205558 -0.122343 -0.186654 1.050670 -1.051661 0.838366 0.600984 -0.823869 -0.265389 1.618442 0.052360 -0.082608 0.784707 0.947458 0.431638 1.037694 -1.044132 -0.364634 -0.911038 -0.259010 0.585281 0.294198
करने 0.454072 -0.051420 -0.108883 -0.216988 0.183250 0.288360 -0.523446 0.651160 0.868125 0.831912 -0.645400 0.949658 -0.030751 -0.521633 1.140778 0.175257 0.155212 -0.692156 0.605148 0.333988 0.191992 -0.456522 -0.392122 0.642475 0.480978 -0.190291 0.922104 0.237255 0.463673 -0.721608 0.456276 -0.136179 1.204385 -0.615984 -0.072926 -0.124524 -0.115625 0.822381 0.174258 0.131390 0.211781 -0.690201 -0.107506 0.081309 -1.465557 -0.142422 0.173698 1.704551 1.463510 -0.399987
अच्छा 0.771042 0.284202 0.315265 1.208037 0.407079 1.245983 0.464700 0.096074 0.043898 1.060202 0.106138 -0.559622 0.278169 -0.721841 0.349342 -0.428495 0.115433 0.230311 -0.537475 -0.142221 -0.000290 0.279609 0.804209 1.009644 -0.144058 0.597265 0.989316 -0.083550 0.696736 -0.338264 0.481775 0.532153 1.373721 1.035554 0.452166 0.168810 0.184396 0.367503 0.128301 0.492982 0.257256 -0.215349 0.017987 -0.320324 -1.294614 -0.109655 0.596928 0.361469 0.816164 -0.847492
सकता -0.764115 0.924763 0.495001 0.531248 0.978404 0.607848 -0.320793 0.234283 1.000498 0.927131 0.389344 0.200773 0.195914 -0.597068 0.736661 -0.794876 0.083265 0.551016 -0.254990 0.650960 0.992802 0.029367 -0.162788 -0.181239 0.540409 -0.281484 0.668661 -0.238686 -0.080017 -0.405156 0.929335 -0.435525 0.930030 0.870411 0.432816 0.677777 0.311061 1.458149 -0.437383 -0.634877 0.180912 0.309735 -0.183624 -0.605182 -1.107298 0.434916 0.277926 0.273521 0.042817 -0.782296
किया -0.443744 0.675798 0.233570 -0.034329 1.382245 0.648835 -0.124126 -0.404162 0.899256 1.381528 0.153743 0.434970 -0.096586 -0.916886 0.686317 -1.353505 0.540069 0.365769 -0.117165 0.299239 0.959142 -0.644685 -0.920409 -0.884623 0.282787 -0.047054 0.690160 0.220598 0.318725 -0.445814 1.076838 -0.046469 0.041720 0.620936 0.230164 0.307419 0.395598 1.581089 -0.345589 -0.271689 0.646713 0.149320 0.397959 0.243783 -1.623895 0.489141 -0.124642 -0.249004 0.272524 -0.880679
हो -0.610353 0.674827 0.112775 0.590471 0.645904 -0.212832 -0.464433 1.307930 0.743546 0.501765 0.443796 -1.144388 -0.314072 -1.034920 0.422708 -0.018773 -0.054734 0.224089 -0.560376 -0.063767 0.579805 -0.392485 0.054998 0.544194 -0.061430 -0.707510 1.107067 -0.439799 -0.183865 -0.951039 0.222611 -0.676929 0.981448 1.266641 0.041063 0.921502 -0.484145 1.121944 0.429041 -1.072886 -0.365594 -0.434548 -0.192663 -0.071695 -0.115496 0.702949 0.214262 0.555419 0.603370 0.557954
टैबलेट 0.108628 0.688468 -0.001559 0.253172 -0.474244 0.490056 0.119422 -0.071286 0.324756 0.327435 -0.276373 -0.439293 -0.167846 0.491305 0.556323 0.030866 -0.134705 -0.405059 -0.120373 0.160289 -0.108174 0.300107 0.038615 -0.302897 0.504056 0.546845 -0.212654 0.227689 0.830534 -0.701793 -0.122387 0.945745 0.305302 0.882649 0.625991 -0.360269 0.495597 0.195726 0.207280 0.167824 -0.290536 0.277905 0.237036 -0.402418 -0.882058 -0.380953 -0.048511 0.117472 0.793183 -0.006767
तक -0.105991 1.367454 0.539064 -0.406550 0.017897 0.217311 -0.488064 0.564253 0.253440 1.586311 0.341342 0.516407 0.499927 0.439340 -0.031978 -0.241617 -0.289478 0.363319 -0.470626 0.703880 -0.151899 1.350479 -0.498033 0.069309 0.251770 -1.330897 -0.559733 -0.638789 0.186927 0.150472 1.308987 -0.156819 -0.186602 0.430339 0.657394 0.111178 0.928881 1.224459 -0.907775 0.301981 0.336323 0.997166 -1.039214 -1.383255 -0.823143 0.604540 0.403210 0.932439 0.179421 -1.558207
इसका 0.444904 -0.358253 0.517153 1.394830 0.149195 1.462207 -0.160272 -0.608879 0.390669 1.089964 0.911682 -0.792276 0.801972 0.262750 0.049818 -0.500280 0.172731 -0.122457 -0.592570 0.257484 -0.124229 -0.269663 0.237980 0.559579 -0.042467 0.505489 -0.163802 0.047135 0.677078 -0.447354 0.510846 0.339586 0.842863 0.706745 0.409241 -0.242005 -0.252734 0.479432 0.386983 0.901333 0.009413 -0.185118 0.309230 0.154239 -1.054953 -0.041720 0.766540 0.156881 0.696092 -0.307768
अच्छी -0.040534 -0.087924 1.212276 0.765481 0.472948 1.316446 -1.362573 0.123909 -0.504273 0.723186 -0.326356 -0.183730 0.299615 0.168522 -0.101743 0.197652 -1.237336 0.325797 -0.536456 0.926468 -0.599925 1.195439 0.360483 0.036287 0.236026 0.415335 0.286602 -0.916276 0.492138 -0.440045 -0.071665 0.726982 0.550931 0.205278 -0.090576 0.638274 -0.796328 -0.013112 0.780535 -0.291088 -0.623525 0.614828 0.335722 0.564434 -0.503994 0.451895 -0.466812 1.488649 0.733112 0.660802
कुछ -0.617230 1.259915 0.079580 0.681666 0.304657 0.661186 0.005202 0.277219 0.194871 0.640532 0.178827 -0.826612 -0.509803 0.446675 0.202673 0.634654 0.091370 -1.129955 -0.351685 -0.163316 0.159092 0.418553 -0.051470 0.366368 0.116201 0.429843 0.472195 -0.739945 -0.148306 -0.137931 0.963074 -0.765917 -0.421586 0.483474 0.344776 -0.033939 -0.127773 1.165517 0.809907 -0.114708 -0.104775 0.582167 -0.367483 -0.703234 -0.815056 0.148474 0.143395 0.357223 0.582909 -0.087365
इसे -0.200903 0.532857 0.166097 -0.163272 0.431119 0.561642 0.243553 0.470871 0.450733 1.138371 0.495385 0.168811 -0.126479 -0.280028 0.326639 0.933751 0.170541 -0.174263 -0.194318 0.301532 0.341687 -0.091709 -0.599428 0.350146 0.746740 0.208922 0.232638 -0.054240 0.376142 -0.390953 0.199968 -0.413827 0.410625 0.036887 0.016953 0.241336 0.410312 1.316483 -0.094538 0.139970 0.071125 0.073176 -0.203776 0.065092 -1.293777 0.289068 -0.074359 0.465680 0.841070 -1.135340
स्क्रीन 0.359045 -0.019885 0.241644 0.371270 -0.247144 0.567429 -0.958969 0.159834 0.278694 0.771363 0.378691 -0.892940 0.201157 0.700141 0.676217 -0.801219 -0.168396 0.126755 -0.230382 0.652095 -0.031573 -0.397073 0.699887 -0.036711 0.538823 0.070817 -0.338989 0.513766 0.729150 -0.350136 -0.716482 0.562692 0.710824 0.390569 0.115562 -0.943598 -1.388108 -0.098854 0.612829 0.145823 0.611117 -0.415229 0.428936 0.503057 -1.204354 0.698093 -0.184056 0.466871 0.172046 0.985307
आपको -0.022959 -0.158731 -0.135977 -0.160874 -0.022286 0.742791 0.083791 1.036619 0.445937 0.226433 0.519340 -0.781498 -0.258995 -0.120097 0.487348 0.765814 0.605279 -0.032895 0.020721 -0.276446 0.251190 0.137804 0.397834 0.898710 0.239939 0.601777 0.390206 -0.441782 0.223925 -0.382468 -0.182039 -0.174203 0.387725 0.579740 0.463357 0.410513 -0.551771 1.019671 -0.106302 0.157761 0.183957 0.003953 0.272922 0.074024 -1.205609 0.553989 0.272999 0.313833 0.768658 -0.070132
डिवाइस -0.124578 0.373657 0.289384 -0.414281 0.080267 0.814245 0.370278 0.361413 0.258502 0.299196 0.256679 -0.328565 -0.162593 0.234536 0.393308 0.462239 0.116599 -0.016561 -0.024327 0.203126 0.059646 0.282485 0.189563 0.408147 0.045263 0.486684 0.292510 -0.341377 0.582359 -0.243024 0.059967 0.720091 0.242124 0.845190 0.509515 0.140442 -0.135794 0.626409 -0.225186 -0.013987 -0.376518 -0.110523 0.083322 0.062177 -1.178842 -0.208083 0.216660 0.349822 0.568674 -0.177025
कीमत -0.681544 1.460241 -0.163013 -0.089747 0.439188 -0.046156 -0.601243 0.342103 0.088303 0.528971 -0.329040 -1.023359 -0.614175 -0.315044 0.013907 0.879933 -0.780967 -1.318354 -0.218651 0.737033 -0.451068 0.063089 -0.012751 -0.091532 -0.684698 -0.336116 -0.780182 -0.395103 1.343540 -1.019175 0.176177 0.823114 0.400725 0.304843 0.421740 -0.393651 -1.139725 0.039913 0.282761 0.204805 -0.318378 0.081729 -0.564064 0.518437 -0.116789 0.373918 -0.897205 0.368877 0.629407 0.074555
तरह -0.002845 0.225198 -0.764330 0.528833 0.457055 0.966183 -1.035957 0.130811 0.144091 0.666072 -0.614132 0.030404 -0.523792 -0.333708 0.306716 0.441459 -0.870050 -0.050874 0.052628 0.576382 -0.089393 0.858472 -0.399424 -0.431806 -0.262260 0.060079 0.051581 0.263655 1.049095 -0.702763 0.815833 1.047043 0.025427 0.209994 0.231269 0.609832 0.241789 -0.071770 0.531472 0.093812 0.114119 0.142854 0.417711 0.307746 -1.502389 -0.168904 -0.594502 0.877401 0.802236 -0.149836
बैटरी 0.842599 0.178990 1.727463 -0.218717 -0.000736 0.085709 -0.403097 0.302008 -1.083491 1.296094 -0.227618 -0.081804 0.696656 -0.072405 -0.320570 0.101374 -0.415323 -0.054741 -0.725113 0.331255 -0.755860 1.534153 -0.219251 -0.133990 0.537882 -0.759052 -0.522104 -0.347712 0.628468 -0.456543 -0.543857 0.597861 0.322727 0.467971 0.075462 -0.063989 0.303319 0.480121 0.004468 -0.017482 -0.020098 1.265691 -0.262388 -0.248980 -0.441808 1.258995 0.011577 1.724888 0.550088 0.296070
टेबलेट 0.025796 -0.309353 0.535583 -0.733243 -0.547123 0.759800 0.557515 0.115691 0.575995 0.615470 0.094575 -0.022945 0.275513 -0.107874 -0.099579 -0.388641 0.155972 -0.466317 0.120262 0.231217 -0.314812 0.093150 0.716259 -0.077396 0.182579 1.250061 0.204056 -0.111120 0.954443 -0.130175 -0.375996 0.623668 0.863852 1.366690 0.303385 0.122519 0.142858 -0.005836 0.136680 0.216358 -0.593210 0.077551 0.225030 0.036591 -0.462949 -0.356948 -0.280134 -0.346648 1.396219 -0.710095
इसकी 0.003161 0.385119 1.063006 0.341444 0.174869 0.440469 -1.117708 0.244202 -0.707434 1.020804 0.148679 -0.587717 0.018235 0.204713 0.193339 0.699094 -0.769327 0.171258 -0.953378 1.048056 -0.389380 0.916441 0.161443 0.298588 0.688325 0.164279 -0.721675 -0.859255 0.666196 -0.444267 -0.407372 0.495127 0.436772 0.171394 0.148739 -0.267829 -0.616566 0.451568 0.126856 0.237643 -0.457530 0.670330 0.063491 1.013301 -0.582324 0.716266 -0.604249 0.850441 0.560817 0.128190
करता -0.015960 0.538523 -0.645743 1.354187 0.615955 1.080921 -0.300936 -0.423987 0.527226 0.395397 -0.883823 0.051143 -0.342493 -0.513753 0.692003 -0.312402 -0.119754 0.621383 -0.568351 0.147968 0.482376 0.427891 0.450811 0.638164 -0.179483 0.089385 0.378008 0.262844 0.683934 0.111311 0.628523 0.672971 1.514922 -0.413031 0.215534 -0.479760 0.426354 0.138488 0.042864 0.131950 0.696581 -0.472939 -0.320014 -0.498896 -1.180045 0.519498 -0.403783 0.545689 -0.191506 0.285196
दिया -0.119792 -0.100696 0.504736 -0.006753 0.931975 0.696961 0.558516 -0.900719 0.397930 -0.452964 -0.013380 -0.105656 -0.271799 -0.172405 0.303184 -0.885933 0.568339 0.486472 -0.096726 0.268162 -0.155902 -0.509911 -1.125139 -0.450588 0.066078 0.374718 0.694823 -0.252192 0.402211 -0.224339 0.439693 0.885114 0.358498 0.490752 0.045000 -0.320948 -0.167310 1.127363 0.493273 -0.533926 0.492061 -0.722716 0.789103 0.125717 -1.443825 0.717438 0.648357 -0.207574 -0.201393 1.086433
बात -0.237049 0.075440 0.967353 0.181812 -0.974671 0.899592 -0.689100 0.487499 0.539120 1.577207 0.710203 -1.423318 -0.360856 0.455211 0.701955 0.409344 -0.069201 0.722066 -1.211640 -0.043904 -0.041546 1.085628 0.639076 0.332300 0.603503 0.245171 0.903038 -0.741461 0.844388 -0.755022 0.319436 0.840682 -0.035850 0.925264 0.089338 0.186973 -0.268270 0.474783 -0.000486 -0.751535 -1.052548 1.133346 -0.015200 0.923743 -0.162747 0.434675 0.175048 0.383431 0.459181 0.786700
काम -0.094912 0.543611 -1.113162 0.683624 0.458050 0.981607 -0.204384 0.140921 0.971992 0.017655 -1.111655 -0.126375 -0.310830 -0.422482 0.583746 -0.350285 -0.203572 -0.109898 -0.293024 -0.364853 0.277881 0.364908 0.102241 1.068804 -0.606001 -0.201377 0.449684 0.029711 0.534501 -0.079678 0.487475 1.077968 1.143193 0.065630 0.510451 0.274442 0.376279 0.593711 0.001947 0.047133 0.823723 -0.338695 0.018327 -1.570472 -1.485588 0.318748 -0.098015 0.803985 0.567985 0.258231
ये -0.216834 -0.053070 0.029727 -0.118354 -0.715486 0.827711 -0.081190 0.267891 0.739183 0.974081 0.516893 -0.806370 -0.458304 0.265977 0.745789 -0.175898 -0.070740 0.076153 -0.492727 -0.091471 -0.046287 0.397319 0.789455 0.461103 -0.187749 0.061516 0.726963 -0.386726 0.372965 -0.017579 0.680733 0.966154 -0.143864 0.709851 0.471682 0.132071 -0.375417 0.175765 -0.435996 -0.272724 -0.769848 0.420465 -0.223624 -0.001996 -0.730017 -0.328667 0.183199 -0.148832 0.589180 0.089293
अपने -0.456794 1.036291 -0.453893 -0.830641 0.138682 0.436081 0.043616 0.189251 0.858886 0.273697 -0.009389 -0.148659 -0.520548 0.207884 0.389132 0.406234 0.158413 -0.659931 0.582425 0.422208 0.450719 0.093253 -0.073365 0.339855 -0.030313 0.474941 0.507193 -0.231069 0.020691 0.221448 -0.177218 0.070525 -0.543335 0.664850 0.489294 -0.158539 -0.136494 1.109908 -0.547971 -0.203300 -0.054860 -0.355250 -0.343404 0.448475 -1.208982 -0.968004 -0.213417 0.433600 0.744007 -0.287658
डिस्प्ले 0.863323 -0.580340 0.294064 0.747839 -0.110455 1.195612 -0.529780 -0.328689 0.200231 1.110555 0.652268 -0.827892 0.539974 0.311027 0.310743 -1.095920 -0.108844 -0.114859 0.052296 0.270068 0.018418 -0.523205 0.827931 0.328736 0.334323 0.387025 -0.260626 0.166990 0.413235 -0.269582 -0.267816 0.157682 0.678506 0.450304 0.321654 -0.349749 -1.076042 -0.319642 1.111076 0.761931 0.216864 -0.625210 0.973983 0.258605 -0.951278 0.684578 0.258410 0.051234 0.510121 0.223297
सबसे 0.445786 0.137057 0.615819 0.380100 -0.729918 0.431626 0.108043 0.408733 -0.664272 1.677585 0.820997 -0.439926 -0.152601 0.531461 0.515185 -0.345746 -0.396061 0.658721 -0.779887 0.152778 -0.968941 0.922135 0.781445 -0.096706 -0.029562 0.356366 1.027102 -0.482499 0.645148 -0.334153 0.935777 0.290690 -0.250339 0.715671 0.182453 0.468232 0.198087 -0.187561 0.100905 -0.206128 -0.978353 0.837051 -0.325340 0.042807 -0.243743 -0.071003 0.567803 0.036136 0.418056 -0.809609
कम -0.396701 0.582836 0.041942 0.348935 0.374008 0.364587 -0.479320 0.244440 0.125971 0.888749 0.221246 -1.319899 0.055107 -0.353231 0.083712 0.374649 0.011055 -1.192264 -0.776855 0.333645 -0.787897 -0.285209 -0.296301 0.455094 -0.600730 -0.062790 -0.303005 -0.505526 0.976072 -0.929350 0.617742 -0.296595 0.203616 0.281630 -0.051715 -0.270545 -1.140121 0.192946 0.986126 0.312774 -0.339850 -0.531166 0.056453 0.186951 -0.460398 0.472710 0.523968 0.449799 0.871502 -0.090530
इस्तेमाल -0.099299 -0.316463 -0.152941 0.048794 0.456217 0.996241 -0.416496 0.337892 0.970091 0.922557 -0.075323 0.325851 0.487073 -0.413880 0.454679 -0.044176 -0.242909 -0.158130 0.086133 0.136149 0.052723 -0.179707 -0.642259 0.523459 0.478990 0.136946 0.440444 0.159660 0.214881 -0.219956 0.341465 -0.070384 0.821814 0.141305 0.176984 0.466295 0.373064 1.118310 -0.228010 0.372373 0.303913 -0.170395 0.028833 -0.386056 -1.675306 -0.073318 0.196013 0.756091 0.992867 -0.911723
बेहतर 0.232485 0.483751 0.453966 0.796074 0.304698 0.803411 0.058179 0.123058 -0.021407 0.647328 -0.102449 -0.272950 0.023102 -0.253073 0.433988 -0.176418 -0.276737 0.001590 0.014429 0.272719 -0.084766 0.079268 0.538397 0.476717 -0.219440 0.398434 0.812804 -0.284093 0.559722 -0.477290 0.616977 -0.206117 1.017453 0.536820 -0.208142 0.167487 -0.483923 0.069513 0.595097 -0.181750 -0.008926 -0.101589 -0.170423 -0.160698 -0.420351 0.126240 0.339255 0.688598 0.547772 -0.404696
प्रोसेसर -0.213810 -0.277736 0.321966 0.398592 0.375208 0.616308 0.154772 -0.960815 -0.304304 -1.102753 0.228498 -0.211838 0.926545 1.009487 -0.284772 -0.353667 0.495654 -0.381880 -0.906533 0.453042 -1.077133 -0.424411 -0.726931 -0.911625 -0.467806 0.381362 -0.854374 0.144534 0.352998 0.250484 0.626667 0.910761 0.789558 0.217072 0.671970 -0.346031 0.125760 0.620501 0.128405 -0.277265 -0.162901 -0.276964 0.111691 -0.595663 -0.925916 -0.600840 0.254617 0.342421 0.350027 1.164811
ज्यादा -0.141602 -0.009321 -0.096050 0.846529 0.540284 0.821755 -0.655747 0.230112 0.059614 0.666482 0.019782 -0.586647 0.332893 0.274127 0.234050 0.274961 -0.144130 -0.462492 -0.705884 0.114104 -0.445261 -0.284955 0.069177 0.147788 -0.206826 0.115962 0.159347 -0.292364 0.054196 -0.320802 1.082412 -0.603416 0.450867 -0.042957 -0.091849 0.366696 -0.336944 0.439283 0.610064 -0.132150 0.140744 -0.083556 -0.403917 -0.424468 -0.486590 0.257402 0.104481 1.193952 0.608352 -0.154848
गई -0.325395 1.052865 1.524664 -0.527093 0.447021 -0.473820 -0.421421 0.471727 -0.036084 0.292036 -0.081134 -0.807364 -0.509738 -0.408005 0.277872 -0.224340 -0.786946 0.226369 -0.076103 0.850541 -0.006363 0.171994 -0.350290 -0.457407 0.435485 -0.688798 0.148861 -0.270681 0.625401 -0.566970 -1.135990 -0.236233 0.750381 0.696451 -0.170486 -0.301157 -0.722344 0.411350 0.924018 -1.201650 -0.082821 -0.264996 0.028799 0.437253 -0.000449 1.618239 -0.295360 0.851258 -0.518022 1.424340
कोई -0.145333 -0.027993 0.012947 0.733058 0.014618 0.658239 -0.359231 0.219630 0.980317 0.145476 -0.197306 -0.966911 -0.802996 0.362057 0.515365 0.747956 0.045490 -0.071666 -0.420614 -0.437309 0.015780 0.686581 -0.592258 0.495381 0.819416 0.199724 1.086198 -0.315611 0.563770 -0.944624 0.681509 0.160024 -0.498986 0.014233 -0.324424 0.299373 -0.175252 0.097557 0.565192 -0.704857 -0.327878 0.388588 0.592849 0.186147 -0.383887 0.787597 1.163088 -0.060699 0.091084 0.252647
होने 0.353315 -0.050902 -0.627597 0.630692 0.066069 0.201704 -0.788590 0.562630 0.400530 0.270673 0.263623 -0.589963 -0.333213 0.314396 0.997104 0.029722 -0.667014 -0.065236 -0.734118 -0.099646 -0.850773 -0.395097 -0.122414 0.175615 -0.223873 -0.328317 -0.294908 -0.341028 0.470724 -1.236770 0.915661 0.769030 -0.354483 0.025434 0.474519 0.262724 -0.543893 0.064218 0.183150 -0.282759 -0.683230 -0.248154 0.390255 0.086234 -0.861124 0.017994 -0.367635 0.505979 0.942728 -0.082389
वाले 0.364277 -0.098349 -0.080727 -0.957570 -0.247963 0.411658 -0.706969 0.027056 0.558399 0.530601 -0.686625 0.144104 0.049666 0.153178 0.755544 -0.941686 -0.288327 -0.757200 0.957922 0.586717 -0.179773 0.009535 0.487727 -0.391065 -0.027508 -0.042408 0.064139 -0.055911 0.752266 -0.681994 0.082471 0.440388 0.162399 0.024690 1.002308 -0.453120 -1.078343 -0.092127 -0.177003 0.516769 0.015284 -0.247493 0.093188 -0.222120 -0.740107 -0.370714 -0.489295 0.776800 1.150820 -0.030054
या -0.170712 0.961246 -0.325232 0.080201 -0.034992 0.460159 -0.267185 0.541079 1.008629 0.105150 -0.475162 -0.859676 -0.275505 0.284759 0.520548 0.716345 -0.036097 -0.832224 0.451309 -0.093284 0.556588 0.119634 -0.572731 0.923160 0.828009 0.090078 0.621712 -0.011984 0.280443 -0.649836 0.136843 -0.520044 0.469863 0.357456 -0.052161 -0.203789 -0.361222 0.148726 0.189892 0.155155 0.478504 0.007747 -0.263049 -0.393148 -0.002133 0.066833 0.559165 0.070436 0.366792 -0.226026
इंच 0.679588 -0.281919 0.505173 -0.877034 -1.161380 0.119049 -0.170920 0.037465 0.094801 1.033711 0.196841 -0.773766 -0.197496 0.929202 0.764381 -0.996396 -0.496470 -0.009248 0.788336 0.469072 -0.428612 -0.355133 0.260742 -0.495565 0.628776 -0.338673 -0.520290 0.616092 0.865193 -0.628843 -1.060799 0.299064 0.058626 0.461816 0.065465 -1.143539 -0.972213 -0.398745 1.014808 0.602510 0.403220 -0.529192 0.642503 0.050080 -0.563837 0.905485 -0.115235 0.091429 0.061282 1.217260
अगर -0.322784 -0.045056 0.242380 -0.445051 -0.523780 0.671950 -0.266085 0.735441 0.776764 0.717437 0.972658 -1.148011 0.083532 0.191825 -0.136018 1.375585 0.294639 -0.212553 0.021087 0.188270 0.474401 0.552983 -0.054712 1.067421 0.408830 0.195523 -0.053998 -0.361919 0.545327 -0.541138 -0.435413 0.101044 0.057034 0.910572 0.242972 0.251667 -0.537853 1.167909 -0.418847 0.039668 -0.475248 0.501770 0.071047 0.781004 -0.438920 0.015032 0.047359 0.179083 0.883865 0.089256
करते -0.608302 0.103673 -0.713133 -0.345528 0.452931 1.004648 -0.628897 0.644453 1.282872 0.430861 -0.721559 -0.562951 -0.566648 -0.615304 0.167269 0.822283 -0.219828 -0.050086 0.215037 -0.413229 -0.197362 0.866458 -0.296507 0.190842 -0.000931 0.135061 0.619224 -0.172909 0.068198 -0.101006 0.274182 -0.711419 0.158793 -0.130441 0.678261 0.562604 -0.025562 0.208207 -0.358626 -0.053258 0.604115 -0.337322 -0.581515 -0.569090 -0.520966 0.406172 -0.081306 0.961200 0.668110 -0.014671
जीबी -0.718899 0.798142 1.284228 -0.719832 0.058057 -0.530771 0.148691 -0.201346 -0.228711 -0.016860 0.197224 0.939490 0.519261 1.049750 0.351454 -0.410131 0.342131 0.562021 -0.032817 1.406848 -1.184633 0.238665 -1.698858 -0.656034 0.828069 -0.033643 -0.751231 -0.172822 -0.040089 0.237991 0.738963 -0.349703 0.374629 0.471934 0.370103 -0.437321 0.333403 1.073375 -0.308271 -0.667112 0.316791 -0.045259 -0.312326 -0.568488 -0.452595 0.370407 0.862117 -0.111873 -0.330169 -0.518971
था -0.724777 0.470607 -0.107697 0.168779 1.043178 0.438775 0.249684 0.202310 0.274720 -0.010877 0.455665 -0.598329 -0.138154 -0.940180 0.144343 -0.928639 0.495344 0.700354 -0.498617 -0.249553 0.563908 -0.441449 -0.226056 -0.141598 -0.542140 0.457157 0.631749 -0.047880 0.115474 -0.472186 0.378402 0.067833 0.311151 0.956929 0.268750 0.504460 -0.054364 1.350440 0.115552 -0.219347 0.528166 0.077130 0.470322 -0.178639 -0.964641 0.969391 -0.019908 -0.222720 0.248263 -0.346873
जाता -0.729640 0.756013 0.033405 1.063624 0.992000 -0.119316 0.274359 0.365531 0.565632 0.106065 0.759998 -0.281426 -0.058280 -0.645635 0.392739 -0.561552 0.338049 0.621390 -0.620553 0.132763 0.471034 -0.882431 -0.217263 -0.131020 -0.210474 -0.351417 1.211329 0.145305 -0.353251 -0.466698 0.837125 -0.711532 0.731752 0.763646 0.291180 0.741684 0.003105 1.273004 0.004111 -0.775964 0.083949 -0.255571 -0.328236 -0.220955 -0.636555 0.129474 0.652222 -0.271425 -0.044084 -0.327509
यहां -0.202266 0.713758 -0.240028 -0.771036 -0.234208 0.055044 -0.436770 0.375279 0.601547 0.078722 -0.155767 0.108834 0.218045 0.714612 0.279450 -0.409673 -0.148883 -0.165572 0.108621 0.206851 -0.445665 0.886508 -0.215414 -0.114988 0.386357 -0.196329 -0.039643 -0.122669 -0.099700 0.014484 0.213301 0.050610 -0.124847 0.297839 0.999413 0.053255 0.041204 0.348415 -0.564789 0.277141 0.198525 0.429341 -0.343568 -1.050639 -0.403328 -0.129684 0.053010 0.211752 0.384391 -0.787969
2 0.315509 0.817476 0.792483 -1.145542 -0.471585 0.435301 0.688343 -0.552585 -0.422019 0.364341 0.162423 0.166138 0.117658 1.163976 0.174385 -0.137789 0.431955 0.409456 0.532170 0.244129 -0.792174 0.311617 -1.249212 -0.149821 0.156603 0.695247 0.111419 0.009977 0.774894 -0.548707 0.542570 0.729429 -0.766306 0.706387 -0.153435 -0.838039 0.422860 0.678276 0.418619 0.109353 0.126370 -0.020224 0.286676 -0.041850 -0.320651 -0.269070 1.056196 -0.033684 -0.063422 -0.302823
तथा -0.129139 0.377105 0.595061 0.367445 0.192577 0.489082 -0.049087 -0.160264 -0.031257 -0.536436 0.041189 0.106834 0.359346 0.938694 -0.007307 0.172292 -0.161387 0.207797 0.198508 0.414156 -0.565787 0.257614 -0.532434 -0.155122 0.464975 0.568442 -0.064615 0.151195 0.106325 0.046510 -0.185213 0.278577 0.678214 0.185697 0.418538 -0.451317 -0.117666 0.249952 0.213632 0.176616 0.293699 -0.170176 -0.154581 -0.234667 -0.667695 0.185229 0.254085 0.230032 -0.014962 0.284105
अपनी -0.493759 0.785391 -0.489593 -0.618833 0.339783 0.242332 -0.500614 0.313096 0.536343 0.272491 -0.410449 -0.414797 -0.621167 -0.084281 0.180793 0.398607 -0.151299 -0.114442 0.231808 0.281961 0.253115 0.352771 -0.432487 0.038121 0.065989 0.266487 0.196983 -0.227076 0.314717 -0.191168 -0.269825 0.288488 -0.372666 0.482994 0.267636 -0.213211 -0.456423 0.553315 -0.316357 -0.464018 0.239138 -0.166065 -0.138549 0.641121 -0.526316 -0.154437 -0.487464 0.598367 0.351820 0.355348
देता 0.538021 -0.173605 0.612285 1.042027 0.796693 0.739055 -0.241475 0.343588 -0.061277 0.312682 -0.195988 0.444231 0.043841 -1.013418 0.444329 0.059939 -0.355056 0.784685 -0.391502 0.296678 -0.032674 0.133609 0.012244 0.226442 0.075977 0.109356 0.911716 -0.067575 -0.184265 -0.289474 0.314189 0.052925 0.836084 -0.096121 0.218583 -0.011641 0.347762 -0.122148 0.321055 -0.646833 0.152218 -0.992181 -0.170512 0.108480 -0.548413 0.464573 0.550866 1.429622 0.015806 0.053259
हालांकि -0.155073 0.094252 0.016194 0.597081 -0.094045 0.594988 -0.246316 0.044351 0.405611 0.431448 0.408021 -0.533641 -0.113942 0.414123 0.427044 0.643305 0.228692 -0.187427 -0.185576 0.059449 0.259576 0.158632 -0.151031 0.138908 0.778052 0.439155 -0.099541 0.042821 0.321482 -0.584314 0.150618 0.247993 -0.129137 -0.042646 0.285801 -0.396851 0.088824 0.573003 0.232654 0.206334 -0.246858 0.375402 0.281444 0.430488 -0.833299 0.079389 0.106227 0.065681 0.532713 0.201278
स्मार्टफोन 0.359842 0.437003 0.098537 -0.186227 -0.049969 0.367908 0.532262 0.199206 0.004039 0.598496 -0.112790 -0.344209 -0.462933 0.003261 0.498258 -0.047145 0.138561 -0.260302 0.445417 0.085052 -0.105744 0.070596 0.331300 -0.007564 -0.347056 0.213840 0.454516 -0.003535 0.889449 -0.692096 0.346113 0.394018 -0.182407 0.451944 0.425223 -0.066473 -0.321442 0.288205 -0.055141 0.390786 -0.183417 0.136097 0.072322 0.069807 -0.988378 -0.052643 0.153466 0.016120 0.662823 -0.217206
समय -0.458047 0.911297 -0.460157 -0.012132 0.403644 0.733044 -0.215189 0.689341 0.533310 0.770622 -0.161692 -0.621400 -0.436762 -0.357338 0.039163 0.902426 0.085147 -0.655681 -0.560290 -0.088456 -0.106247 0.914815 -0.098179 0.452959 0.110779 -0.326753 -0.208200 -0.781876 0.233274 0.165272 0.599463 -0.768370 -0.021298 -0.038602 0.643984 0.471490 0.069646 0.271973 -0.399622 0.792956 0.195838 0.134625 -0.667443 -0.681521 -0.501748 0.415157 0.216381 0.583964 0.541337 -0.981313
होता -0.223918 0.004984 -0.282218 0.613695 0.295182 0.374960 0.176833 0.742461 0.150700 0.477614 0.552447 -0.713542 -0.068112 -0.919600 0.239914 0.529656 0.366132 0.558686 -0.797874 -0.557473 0.272504 -0.189999 0.275104 0.501167 -0.420910 -0.071617 0.559939 0.088851 0.443400 -0.638009 0.571801 0.147677 0.514510 0.287289 -0.443761 0.662373 0.291119 0.197053 0.293716 -0.223449 -0.043098 0.051760 0.165373 -0.118179 -0.486547 0.818368 0.279889 0.263214 0.064137 -0.515761
रहे -0.748086 0.094292 -0.197220 -0.829899 0.182356 0.249795 -0.401714 0.874406 1.062003 -0.206282 -0.081807 -0.564251 0.000082 -0.669469 -0.277247 0.228374 -0.183346 0.282342 0.449112 0.037278 0.571531 0.605144 -0.279981 0.890226 0.178385 -0.349545 1.006996 -0.354995 -0.472914 0.292520 -0.410485 -0.373381 0.581794 0.799400 0.642921 0.581518 -0.292468 0.878801 -0.789522 -0.595099 0.306843 -0.315581 -0.658886 -0.826965 0.111682 0.263486 0.231198 0.752040 0.300429 0.325499
वीडियो 0.447257 0.155786 0.412646 0.276777 0.444761 0.581421 -0.863230 0.397204 0.561610 0.275001 -0.352878 0.688824 0.264763 0.350905 0.255522 -0.766380 -0.612514 -0.299778 0.658258 0.715239 0.563064 -0.123670 0.143478 0.631748 0.876860 -0.297043 0.484379 0.076119 -0.261745 0.314674 -0.329832 -0.142327 0.975886 -0.590737 0.116033 -0.136594 -1.046187 -0.054115 -0.227979 0.394527 0.473838 -0.681678 -0.063585 0.260600 -0.930699 -0.122472 0.071787 0.472275 -0.014319 0.110092
जैसे -0.769397 0.759331 0.125466 0.195777 -0.238624 0.616361 -0.291459 -0.110878 0.218850 -0.788868 -0.016121 -0.405845 0.106475 1.240542 -0.132606 0.487666 -0.092625 -0.498183 0.266509 -0.014790 0.017905 0.758341 -0.151286 0.320507 0.385932 1.128262 0.220158 -0.250563 -0.454939 0.151109 0.058402 0.005107 -0.034149 0.240438 0.625370 -0.226382 -0.256259 0.717548 0.445693 0.145572 -0.068710 0.672107 -0.267929 -0.837672 -0.396287 -0.035316 -0.224039 0.202757 0.391028 0.374151
लगता -0.471786 0.671273 -0.548122 1.079706 0.199023 0.583644 0.090214 0.580196 -0.252885 0.748562 0.505305 -0.573002 -0.445179 -0.652004 0.364255 0.476437 0.047823 0.448980 -1.156062 -0.182254 -0.056862 0.535605 0.774575 0.323258 -0.429889 0.365950 0.382980 -0.350565 0.698799 -0.133751 0.653662 0.059098 0.512514 0.140737 0.065970 0.473299 0.546953 0.137429 0.585638 0.330879 -0.327719 0.132361 -0.091604 -0.317200 -0.691439 0.364654 0.039417 0.425562 0.179790 -0.802186
कई 0.316930 0.357420 -0.402044 -0.081114 -0.465561 0.309288 -0.050920 0.373679 0.077508 -0.173399 -0.520536 -0.293052 -0.302261 0.805228 0.130851 0.458546 -0.215743 -0.696505 0.810557 -0.180938 0.106632 0.655058 0.195666 0.246175 0.160750 0.306094 0.402832 -0.336304 -0.323252 -0.174722 0.213597 0.169129 -0.232838 0.004648 0.718415 0.282618 -0.024469 0.757660 0.452334 -0.293863 -0.130421 0.581509 -0.146700 -0.901489 -0.825130 -0.546495 -0.248508 0.851109 0.820618 0.480464
शानदार 0.415845 -0.195785 1.203758 0.359328 0.299000 0.823656 0.024463 -0.041368 -0.632629 0.351171 -0.132469 0.151799 0.056394 0.163230 0.117022 -0.259724 -0.529998 0.048932 -0.002899 0.274402 -0.724822 0.304411 0.408611 0.213650 -0.037389 0.692413 0.725926 -0.506865 0.090448 -0.165307 0.105809 0.079996 0.523302 0.277925 0.152509 0.260709 -0.513058 0.008670 0.313025 0.296699 -0.277184 -0.106900 0.015503 0.090583 -0.581010 0.253242 0.323231 0.353456 0.417513 -0.221877
क्वालिटी 0.246446 0.019657 1.241618 0.683059 0.286358 1.027986 -0.881289 -0.203439 -0.434745 0.350092 -0.270308 0.155237 0.384183 0.210630 -0.135218 -0.161428 -0.648350 0.097677 -0.244693 0.706862 -0.465995 0.413230 0.442805 0.197914 0.153292 0.467133 0.258705 -0.653145 0.234204 -0.147672 -0.056762 0.243484 0.814846 -0.058258 -0.390912 -0.076382 -0.807138 -0.305699 0.564654 0.425817 -0.141622 -0.190077 0.046121 0.409889 -0.310012 0.234861 0.161904 0.798783 0.207396 0.330240
किसी 0.249862 0.629885 -0.732939 0.630559 0.709604 0.900422 -0.694459 -0.039332 0.534186 0.381391 -0.658178 -0.473922 -0.868052 0.060472 0.329915 0.543551 -0.097076 -0.245097 0.095822 0.292130 0.645614 0.961458 -0.388848 -0.238127 0.620265 -0.157004 0.221590 0.100622 0.528117 -0.760061 0.514647 0.664368 -0.615233 -0.027358 0.609668 0.244696 0.010346 0.057677 -0.040773 0.039167 0.177835 0.263026 0.181819 0.615067 -1.010004 -0.307019 0.133330 0.103066 0.389254 0.040022
गए -0.444385 0.010454 0.574997 -0.371721 0.593468 0.362513 -0.644839 0.009774 0.298081 -1.147635 -0.662442 0.008836 0.013324 0.634113 -0.125894 0.029140 -0.253082 -0.666480 0.684604 -0.010132 -0.700869 0.547000 -0.894980 -0.553872 0.244618 0.291611 0.525484 -0.440153 -1.045164 -0.021311 0.079394 -0.804991 -0.202384 0.049417 0.715082 1.020884 -0.999906 0.759558 0.290251 -1.075127 0.099895 0.045859 -0.158775 -1.110626 -0.229368 0.628311 0.334348 0.598666 0.548428 0.552772
देखने 0.100974 0.535783 -0.336642 0.112913 0.368270 0.885062 -0.229944 0.261366 0.265470 0.458834 -0.005528 -0.301110 0.226115 0.136747 0.244695 0.040224 0.079593 -0.161169 -0.138114 0.184149 0.137820 0.331388 0.369707 0.417366 0.416366 0.591005 0.344150 0.103065 0.394333 0.251036 -0.008846 0.238797 0.556242 0.340846 0.490271 -0.270992 -0.325617 0.051308 0.005793 0.422396 0.312837 -0.376024 -0.093873 0.061668 -0.878226 -0.404440 0.172505 0.479549 0.563333 -0.436202
दी 0.007164 0.886413 1.527878 -0.765093 0.445523 -0.567702 -0.549361 0.251781 -0.167184 0.006906 -0.580897 -0.419563 -0.594511 -0.150644 0.438942 -0.633987 -0.587891 0.329404 0.014680 0.655625 -0.063166 0.223573 -0.411640 -0.557755 0.789150 -0.465763 -0.128845 -0.299747 0.208757 -0.327772 -1.248106 0.237669 0.676895 0.478936 0.076708 -0.677251 -0.624435 0.487516 0.567355 -1.160688 0.231992 -0.342349 0.163515 0.336765 -0.282935 1.474341 -0.336707 0.772326 -0.520078 1.558210
रूप -0.328632 0.845716 -0.626040 0.354998 0.168104 0.198240 0.183527 0.070058 0.344828 0.647478 0.072417 0.253797 -0.074981 0.180448 0.351945 -0.008229 -0.070992 -0.013661 0.201096 0.329414 0.225367 0.015558 -0.412858 -0.455428 -0.375998 -0.323409 0.428185 0.481042 0.620557 -0.362732 0.532903 -0.003146 -0.133808 0.380809 -0.380163 0.406915 0.515935 0.572726 -0.151215 -0.106469 0.426708 0.252687 -0.200854 -0.269250 -1.090896 -0.016426 -0.220580 -0.028610 0.374914 -0.703852
अन्य 0.259297 0.788096 -0.008821 0.097694 -0.306874 0.346455 -0.028825 -0.323837 -0.134465 0.268020 -0.934699 -0.075412 -0.363307 0.376439 0.177192 0.215525 -0.302876 -1.152981 0.869157 0.201734 -0.068468 0.716687 0.234573 -0.225389 0.020592 0.620431 0.467837 -0.249085 0.158844 -0.425603 0.359490 0.096351 -0.404456 0.166078 0.545731 -0.028891 -0.067923 0.236193 0.737302 -0.116600 -0.310224 0.631025 -0.226196 -0.558847 -0.745558 -0.590939 -0.228777 0.674998 1.011290 0.138392
अलावा 0.073790 0.095523 0.434245 0.081233 -0.007398 0.740163 -0.421276 -0.308257 0.438198 0.170179 0.252658 -0.157828 -0.246208 1.014520 0.261073 0.085257 -0.178628 -0.430700 0.488012 0.394712 0.014896 0.420860 -0.345448 -0.106089 0.793752 0.522772 -0.179319 -0.349295 -0.156470 -0.417307 0.122608 0.114782 -0.700682 0.281759 0.455634 -0.164331 -0.592126 0.525181 0.310930 -0.299402 -0.705650 0.319195 0.506873 0.176291 -0.844237 0.069392 0.424916 -0.461310 0.419457 0.458014
वाला 0.646476 -0.379816 0.685641 -0.449911 -0.347143 0.427460 0.578216 0.317927 -0.152898 0.854954 -0.256002 0.527825 0.002370 -0.657461 0.526257 -0.745034 0.110193 0.270886 0.361917 0.148286 -0.470302 -0.128422 1.002971 0.236994 -0.562498 0.341446 1.097169 -0.114512 0.991153 -0.628411 0.346704 0.660564 0.924094 0.442516 0.152356 0.031802 -0.429790 -0.371727 -0.064665 0.162176 -0.600882 -0.396268 0.109502 0.143442 -0.316152 0.042391 0.196758 0.395747 0.607053 -0.174399
रहा -0.670455 0.030150 0.042662 0.308748 1.121493 0.541420 -0.145850 0.179503 0.437013 -0.181952 0.180009 -0.447946 -0.183995 -1.211492 0.099229 -0.834421 0.178977 0.344827 -0.531624 0.028680 0.501706 -0.430281 -0.007044 0.459386 -0.663394 -0.181631 0.470306 -0.350335 -0.155039 -0.031699 0.310057 0.286723 0.595734 0.810609 0.356201 0.795791 -0.094987 1.123785 -0.294637 -0.334343 0.318636 -0.512325 0.321954 -0.483168 -0.804684 0.739965 0.084029 -0.247824 -0.075118 -0.106971
इन -0.205784 0.150684 -0.231583 -0.541693 -0.494681 0.395748 -0.456178 0.272628 0.466941 0.527011 0.292257 -0.312107 -0.115202 0.522870 0.113270 0.224324 0.143004 -0.383931 0.090847 0.211256 -0.007669 0.473346 -0.063986 -0.023011 0.352380 0.120503 0.126250 -0.014423 -0.147945 0.042165 -0.097869 0.263511 -0.622793 0.526674 0.407705 -0.020008 -0.102894 0.451614 -0.045969 -0.085752 -0.174285 -0.038223 -0.160843 0.212637 -0.583913 -0.724723 0.289188 0.300095 0.483480 0.307241
तरफ -0.262594 -0.887668 0.770719 -0.865534 -0.259506 0.360700 0.140573 -0.696135 0.217514 -0.579896 -0.647532 0.207877 -0.284571 0.264487 -0.007512 -0.228476 -0.553908 0.348325 0.612895 0.380724 -1.145624 0.213854 -1.230339 -0.400916 0.425137 0.947896 0.921385 -0.626570 -0.063994 -0.003129 -0.015895 0.039235 -0.322142 0.678604 -0.051311 0.058585 -0.279035 -0.028101 0.562067 -1.112843 -0.278623 -0.282370 0.608570 -0.022885 -0.164443 0.371903 0.375116 -0.611515 -0.034315 0.572550
कार्ड -1.186624 0.290568 -0.345107 -0.509675 0.200493 0.269343 -0.136309 0.511201 0.088693 -0.223875 0.118532 0.517409 0.221058 0.340878 0.289992 -0.246331 -0.463218 1.134045 -0.189239 0.399919 -0.772524 0.537449 -0.312667 -0.347062 1.389937 0.699342 0.557358 -0.176091 -0.451035 1.542221 0.018010 -1.370518 1.165330 0.065533 0.125490 0.392631 0.736097 0.334799 -0.244151 -0.019186 0.554547 -0.038143 -0.384842 -0.294380 -0.581304 0.118075 0.185675 0.018374 -0.798716 -1.192948
टीवी -0.186771 0.155955 -0.433773 -1.035475 -0.564562 -0.038253 -0.349458 0.230250 0.616705 0.190246 0.022146 -0.312884 -0.360743 0.104282 0.518093 -0.262208 -0.121882 -0.124690 0.283526 0.177375 0.430693 -0.163028 0.401240 0.094981 -0.087322 -0.278215 -0.083087 0.185426 0.097167 0.403422 -0.579612 0.659228 -0.149688 0.293150 0.375509 -0.271246 -0.787047 -0.204752 -0.763437 0.116388 0.075121 -0.322521 -0.075388 0.373514 -0.134115 -0.460051 -0.489427 -0.136085 0.022930 0.298000
बार 0.458465 0.841222 -0.906371 -0.591646 -0.628084 0.045393 0.404566 0.879949 0.004246 0.564277 0.049471 -0.464306 -0.312850 0.135147 0.109030 0.357100 0.305255 -0.408033 0.334902 -0.297642 0.987117 0.412135 0.500182 0.294373 0.155446 -0.246477 0.515397 0.068994 0.251545 -0.288950 -0.110027 0.561949 -0.073694 -0.139985 0.414929 0.267039 0.397609 1.247309 0.566494 -0.111918 -0.065706 0.679665 0.218462 -0.828524 -1.139303 -0.590682 -0.244485 1.109802 0.725520 0.194790
हुए -0.712611 0.414690 -0.789157 -0.422290 0.279987 0.691964 -0.311382 0.453137 0.649849 -0.044254 -0.820127 -0.480278 -0.615617 -0.247838 0.093978 0.585072 0.054265 -0.354938 0.105404 -0.502362 -0.043940 1.013933 0.020959 0.051533 -0.009912 0.244275 0.110651 -0.442521 -0.037768 0.297499 0.085597 -0.353687 -0.298382 -0.142842 0.858059 0.407487 -0.015816 0.239538 -0.365562 0.179238 0.422781 -0.017965 -0.507877 -0.759922 -0.286340 0.122902 0.026240 0.835060 0.489926 0.106120
खास -0.083344 0.081821 -0.039760 0.634340 -0.574810 0.554502 -0.359421 0.298406 0.352602 0.811982 0.181073 -0.838206 -0.697780 0.776661 0.907265 0.236237 -0.424986 0.341302 -0.913698 -0.307972 -0.292579 0.995645 0.494596 0.239837 0.517780 0.172752 1.062879 -0.559380 0.376696 -0.394509 1.197942 0.435258 -0.780979 0.092070 0.246716 0.284864 -0.154160 0.004697 0.118099 -0.771399 -0.734116 1.152021 -0.001665 0.028499 -0.309778 0.321185 0.279562 -0.015097 0.159139 -0.028249
सकती -0.598713 0.361757 0.863234 0.051311 0.569857 -0.001215 -0.763167 0.721641 0.659788 0.409888 0.013130 -0.030961 0.045003 -0.644699 0.347030 -0.653467 -0.502112 0.695936 -0.314592 0.385484 0.511587 0.244974 -0.023656 0.236078 0.378831 -0.632210 0.708698 -0.528060 -0.144684 -0.511270 0.085412 -0.308875 0.798266 0.715824 0.039001 0.974097 -0.307339 0.840026 -0.149459 -1.275487 -0.315511 0.303613 -0.101954 -0.385502 0.055104 0.858901 -0.127396 0.642545 -0.067302 0.216252
कारण -0.085394 0.235059 -0.134217 0.638595 0.073467 0.526473 -0.545006 0.288116 0.278153 0.418717 0.624918 -0.693174 -0.214319 0.484086 0.763837 0.027484 -0.409965 0.170608 -0.821709 0.117501 -0.577790 -0.175665 0.168316 -0.034519 0.026937 0.218188 0.105295 -0.373090 0.137679 -0.443513 0.718395 0.323066 0.006021 0.165736 0.525349 0.163314 -0.443850 0.301905 0.185784 -0.198889 -0.660644 0.100782 -0.010507 0.105507 -0.743553 -0.102151 -0.203084 0.020349 0.587096 -0.167247
करती -0.092086 0.455736 -0.490849 0.519067 0.842987 0.189528 -0.291863 0.062380 0.436712 0.165550 -0.474395 -0.012163 -0.666402 -0.922484 0.612247 -0.512926 -0.092591 0.852085 -0.370135 -0.023490 0.319139 0.058110 0.139786 -0.369315 -0.284475 -0.051066 0.596025 0.236258 0.372230 0.045032 -0.232821 0.090311 0.825087 -0.422172 0.128195 -0.027212 0.293604 0.189939 0.174707 -0.147857 0.659660 -0.824510 -0.118159 0.081613 -0.763633 0.808312 -0.360359 0.618817 -0.106493 0.516148
दो 0.081895 0.071484 0.057104 -1.011720 -0.834358 0.104586 -0.007667 0.319064 -0.125948 0.173499 -0.031798 -0.118988 -0.109201 1.117154 0.174784 -0.122606 -0.322560 -0.154868 0.477189 0.018964 -1.073434 0.986764 -0.200698 -0.069787 0.617986 0.238435 0.388514 -0.543505 -0.196563 0.455195 0.031242 -0.063658 -0.478175 0.422709 0.736968 0.259686 -0.016616 0.663484 0.151582 -0.166719 -0.162143 0.615509 -0.035872 -0.840468 -0.999747 -0.200138 0.409614 0.300416 0.290155 -0.133864
दिए -0.546360 0.076802 0.929863 -0.424516 0.503208 0.321172 -0.597764 -0.200425 -0.070066 -1.309124 -0.699211 -0.007696 0.230502 0.995862 -0.170673 -0.194690 -0.202064 -0.632698 0.535316 0.087456 -0.873781 0.768433 -0.777644 -0.494667 0.391107 0.523788 0.301226 -0.612759 -0.973682 0.012247 -0.093089 -0.606592 0.005507 0.133503 0.755714 0.668160 -0.991923 0.812538 0.408541 -0.980066 -0.018844 0.233506 -0.164837 -1.223298 -0.168223 0.696091 0.111385 0.628773 0.543993 0.776150
बाद 0.067361 0.601295 -0.430609 -0.343102 -0.031048 0.212084 -0.248916 0.469009 0.632221 0.398125 0.063357 -0.211050 -0.379002 0.222797 0.539443 0.114444 -0.060400 -0.685739 0.273532 0.090306 0.323348 0.050764 0.000135 0.468273 0.231196 0.095066 0.090476 -0.199290 -0.000379 -0.285569 0.065075 -0.027833 -0.422421 0.255777 0.442458 0.050281 -0.196864 0.584257 -0.131061 0.219552 -0.249018 0.081280 0.100249 -0.154492 -0.776636 -0.345330 -0.237885 -0.009708 0.826496 -0.488430
कोर -0.214530 -0.300623 -0.456226 0.234208 -0.062081 0.288887 0.307720 -0.853116 -0.272841 -1.222508 0.090237 -0.177686 0.869554 0.979265 -0.511534 -0.365019 0.516321 -0.394880 -0.651008 0.126448 -0.969809 -0.275906 -0.429185 -0.826110 -0.675922 0.071519 -0.631756 0.454854 0.135332 0.261761 0.417839 0.794624 0.487382 0.117033 0.414246 -0.203779 0.191633 0.471823 0.240342 0.047229 0.106738 -0.270939 0.118789 -0.711090 -0.857957 -0.889804 0.511026 0.121859 0.313280 1.314474
रैम -0.237685 0.286127 1.231420 -0.291663 -0.006479 -0.252417 0.075264 -0.385878 -0.503806 -0.838970 0.146456 0.385591 0.438529 1.124737 0.361307 0.017016 0.233736 0.283323 -0.246969 0.752240 -1.195089 -0.208659 -1.305867 -0.547121 0.547153 0.578511 -0.652033 -0.220380 -0.022565 0.014936 0.084276 0.216944 0.402724 0.272516 0.265704 -0.583377 0.074299 0.724684 0.227875 -0.790110 -0.112283 -0.340607 0.035895 -0.173994 -0.216970 0.122809 0.379953 0.120013 0.102391 0.528805
करना -0.173441 -0.401335 -0.610856 0.236563 0.869567 0.731094 0.174343 0.751927 0.556546 0.244259 0.126947 0.107281 0.221019 -1.377684 0.013483 0.602598 0.403281 -0.013827 -0.345480 -0.602959 0.623224 -0.444607 0.404272 0.668380 -0.213198 0.203958 0.774360 0.244800 -0.166840 0.098842 0.543109 -0.598152 0.900272 -0.340185 -0.153010 1.020766 0.255578 0.450454 -0.218931 -0.010407 0.190642 -0.384231 -0.186284 -0.150934 -0.653195 0.282240 0.120675 0.792240 0.436455 -1.042306
कैमरे -0.065873 0.043954 0.885631 -0.710252 0.141128 0.657055 -0.294513 -0.231970 0.231049 0.508805 0.114643 -0.026509 -0.072602 0.463827 -0.161676 -0.487147 -0.395648 -0.547527 0.810699 0.570331 -0.306884 0.165126 -0.334296 -0.212050 -0.011189 0.038804 0.335246 -0.203764 0.310915 -0.171107 -0.043562 0.191412 -0.396965 0.640688 0.068970 -0.025950 -0.781108 0.431599 0.098321 -0.104356 -0.223409 -0.153561 0.201869 0.402804 -0.830654 -0.059454 0.296707 -0.071773 0.155833 0.421623
पोर्ट -0.019015 -0.317666 0.726736 -0.240672 -0.428303 0.471564 0.964282 -0.521285 -0.769404 -1.024576 0.050427 0.256208 0.289735 1.120488 0.049862 -0.365637 -0.085419 0.172961 0.570680 -0.134089 -0.547576 -0.217819 -0.238597 0.076003 0.163456 1.246243 0.448731 -0.281668 -0.140718 0.563739 -0.816115 0.193637 0.757956 0.160781 -0.201031 -0.651830 -0.404970 -0.179546 0.480422 0.846330 0.479861 0.022639 0.489336 -0.243071 -0.581663 0.295356 0.043702 -0.399016 -0.184312 0.412932
7 0.787641 0.151823 0.021040 -0.597865 -1.109633 -0.046315 0.226570 -0.176958 0.167326 0.978311 0.135602 -0.701459 -0.191417 0.258269 0.612391 -0.444166 -0.010943 -0.211661 0.606344 -0.203047 0.082801 0.003019 0.250737 0.146991 0.142074 -0.008456 -0.022899 0.456732 0.958582 -0.479982 -0.754331 0.374500 -0.251254 0.809767 -0.386672 -0.768336 -0.029238 -0.481126 1.003634 0.408132 -0.038238 -0.079373 0.602383 -0.251015 -0.035831 0.203708 -0.106463 -0.243356 0.638036 0.283299
आपके 0.063003 0.133172 -0.632202 -0.250387 -0.428635 -0.022131 0.043327 0.853631 0.511104 0.296963 0.121351 -0.525561 -0.560307 -0.038463 0.918633 0.735565 -0.088868 0.184641 0.303218 -0.246186 0.180656 -0.123355 0.169152 0.871848 0.082021 0.150769 0.928732 0.042305 0.332817 -0.456171 0.310770 0.174206 0.018003 0.480287 0.184073 0.266017 -0.127581 0.294781 -0.438476 -0.292408 -0.395102 -0.043879 -0.194530 0.469196 -0.499287 -0.387688 -0.182223 0.089937 0.638040 -0.213801
उपलब्ध -0.159615 0.590415 0.149256 -0.374616 -0.057023 -0.302574 0.068338 -0.020722 -0.096158 -0.064638 -0.800668 -0.145908 -0.446618 -0.348213 0.279752 -0.350594 -0.095338 -0.978155 0.210862 0.077868 -0.372788 0.272957 0.044090 0.211640 -0.373422 0.012107 0.269269 -0.380471 0.303487 -0.221370 0.142411 0.101226 0.175630 0.356099 0.152148 0.216197 -0.229774 -0.021988 0.519220 -0.426653 -0.382684 0.046453 -0.067161 -0.752315 -0.361390 0.175292 0.067205 0.231020 0.584671 0.140445
जबकि -0.493598 0.467957 0.356639 0.098996 0.143993 0.352400 0.247501 -0.182455 0.420586 0.175581 0.135345 -0.577369 -0.247707 -0.061271 -0.038004 0.291813 -0.012944 -0.509921 -0.162181 0.204868 -0.210109 -0.086348 -0.408844 -0.026464 -0.041632 0.134714 -0.003841 -0.098344 0.638172 -0.540949 0.141394 0.324113 0.104625 0.452466 0.153425 -0.385067 -0.170994 0.408027 0.306075 0.175214 -0.254281 -0.113377 0.092149 0.072002 -0.504270 0.320155 0.227755 -0.403585 0.229355 0.162456
जाती -0.529300 0.536531 0.345559 0.062458 0.458442 -0.431424 -0.523115 0.698205 0.286885 0.181010 0.131081 -0.264108 -0.075057 -0.453779 -0.056516 -0.192002 -0.245524 0.403478 -0.430558 0.238338 0.019026 0.048293 -0.258583 0.022928 -0.244845 -0.766115 0.614493 -0.440257 -0.290501 -0.378634 0.065609 -0.668991 0.430942 0.464392 -0.119197 0.660997 -0.225713 0.807314 0.189273 -1.007660 0.026281 -0.016427 -0.281824 -0.328796 0.339339 0.758436 0.050473 0.631500 -0.105303 0.499651
टैब 0.201845 0.993757 -0.145964 -1.671722 -1.283263 -0.113469 0.567566 -0.175566 0.111509 0.399430 0.074530 -0.653068 0.122819 0.756600 0.113283 -0.031684 0.449815 -0.509276 0.745337 -0.199228 -0.137381 0.143444 -0.584828 0.079135 0.450464 0.384294 0.023091 0.568868 0.841973 -0.524629 -0.467640 0.573330 -0.321683 0.864480 -0.433025 -1.170600 0.282368 0.301269 0.953987 0.030760 0.275345 -0.158407 0.254969 -0.377151 0.350823 -0.623483 0.707153 0.106335 0.263044 0.374360
परफॉरमेंस 0.860642 -0.184070 1.144872 0.913066 0.052871 0.662553 0.304891 -0.264115 -0.816027 0.951517 0.189026 0.046274 0.451151 -0.285611 -0.026896 -0.087576 -0.401594 -0.135254 -0.352191 0.089461 -0.495362 0.369818 0.684186 0.266894 -0.166454 0.537533 0.289485 -0.178539 0.452480 -0.285644 0.192661 0.019267 0.745873 0.481486 -0.177907 -0.057873 0.066699 -0.396208 0.596886 0.258625 -0.337990 0.070421 -0.040044 0.040031 -0.233056 0.203301 0.466409 0.552303 0.556578 -0.638254
पीछे 0.311707 -0.293173 0.916389 -0.226412 0.355276 0.538655 0.136112 -0.369751 0.360792 0.268362 -0.213904 0.147144 -0.253413 -0.122311 0.454750 -0.614246 -0.216107 0.298814 0.250625 0.510933 -0.545290 0.018107 -0.533641 -0.203348 0.306545 0.313477 0.464243 -0.336266 0.154842 -0.515009 0.454033 0.352617 -0.373802 0.633001 0.201052 -0.148888 -0.132042 0.019741 0.233984 -0.842382 -0.415796 -0.701364 0.421147 0.224259 -0.560581 0.378064 0.759365 -0.131264 0.149044 0.194956
बटन -0.319592 -0.104212 0.025926 -0.070859 -0.088305 0.019512 -0.281326 -0.274680 0.660046 -1.066422 -0.665542 0.034288 -0.222775 0.688422 0.057324 0.177953 0.055516 -0.404301 0.155075 0.183001 -0.366371 0.376913 -0.913302 0.104033 0.301562 0.408254 0.960447 -0.212782 -0.256840 0.047854 0.072004 0.209038 -0.387389 -0.035954 -0.009057 -0.089362 -0.389781 -0.148012 0.568738 -0.999902 -0.142343 -0.078298 0.351076 -0.482880 0.096889 -0.085370 0.701628 -0.224057 0.239511 0.561646
थी -0.903955 0.786772 0.583007 -0.399156 0.576271 -0.197546 -0.905207 0.855067 0.364523 -0.184339 -0.302294 -0.768735 -0.284009 -0.765509 0.314384 0.064127 -0.235456 0.583462 -0.455114 -0.006044 0.208185 0.361918 -0.226372 -0.018656 0.086476 0.205470 0.573385 -0.489537 0.246942 -0.685538 -0.596306 -0.143873 0.371275 0.637036 -0.243184 -0.042000 -0.439205 0.498309 0.299239 -0.911379 0.164940 0.131615 0.083323 0.297044 0.541619 1.447829 -0.546543 0.944321 0.104649 0.786079
फ्रंट 0.155145 -0.571081 1.250893 -0.293206 0.534002 1.168161 0.782650 -0.562478 -0.176651 -0.077003 0.573689 0.081281 -0.042899 0.555640 -0.421811 -0.468105 0.088315 0.224568 0.348364 0.046514 -0.759785 -0.196740 -0.573405 0.328495 -0.609304 0.375503 1.030427 -0.288170 0.422972 -0.231822 0.425618 0.717699 -0.335533 0.374995 -0.122305 -0.131584 -0.856422 0.353662 0.004933 0.768695 -0.193134 -0.684264 0.632931 0.761890 -0.992225 0.378353 1.248838 -1.044351 -0.611208 0.217822
सपोर्ट -0.425971 0.496567 -0.000047 0.625753 0.820173 0.439616 -0.166562 -0.170808 0.042768 -0.221015 -0.731529 0.190057 -0.678396 -0.434980 0.782038 -0.562982 0.028056 0.757429 -0.314368 0.266298 -0.060429 0.078259 0.238143 -0.218590 0.404717 0.410449 0.579487 0.168585 0.218686 0.636338 -0.090856 0.001765 1.571477 -0.672487 0.177649 -0.605340 0.220368 -0.027984 0.412184 -0.129047 0.698789 -0.721187 -0.280132 0.037320 -0.793162 0.891036 -0.213961 0.331282 -0.632899 0.591301
हुआ -0.229452 -0.237149 0.042141 0.369918 0.623008 0.694077 0.246331 -0.080643 0.041927 0.351563 0.433538 -0.114327 0.112521 -0.578063 -0.191179 -0.546815 0.285854 0.727090 -0.469333 0.161559 -0.083727 -0.356516 -0.461517 -0.463533 -0.450909 -0.319181 0.382138 0.253649 0.158955 -0.134308 1.114945 0.154632 0.199690 0.488835 0.176622 0.509927 0.443975 0.767950 0.038047 -0.603480 0.264386 -0.082113 0.143541 -0.330690 -0.892650 0.740628 0.812940 -0.053411 -0.413306 -0.042989
अधिक -0.273434 0.537459 -0.295005 0.837299 0.265220 0.486719 -0.566364 0.060490 0.120041 0.321142 -0.368655 -0.465019 -0.246337 -0.000278 0.331897 0.424617 -0.374396 -0.444640 -0.561902 -0.014898 -0.351690 0.118845 0.297052 0.383895 -0.064558 0.464589 0.285825 -0.425487 0.379837 -0.348079 0.738218 0.073299 0.183508 -0.003292 -0.136293 -0.011652 -0.236737 -0.261488 0.753493 -0.106934 -0.109555 0.006790 -0.189454 -0.213856 -0.190364 0.252321 -0.185989 0.590282 0.506901 -0.303530
ओर -0.306249 -0.259763 0.058713 -0.908257 -0.184369 0.021780 -0.217343 0.102909 0.349955 -0.317997 -0.443968 -0.113227 -0.359154 0.099474 -0.127268 0.298093 -0.285254 0.887120 0.479405 0.155259 -0.154103 0.318338 -1.016727 -0.058884 0.146988 -0.160330 0.609921 -0.106834 -0.128740 -0.311351 0.100101 0.206609 -0.532408 0.356432 -0.040364 0.008044 -0.247943 0.199923 -0.116261 -1.314757 0.152901 -0.338279 -0.021103 0.236120 0.464109 0.257080 0.299635 0.169565 -0.561215 1.044118
डिजाइन 0.166296 0.106294 0.361302 0.281299 0.103835 0.308155 -0.260292 -0.014357 -0.511466 0.775066 0.293614 -0.215626 0.069280 -0.281795 0.183996 0.035461 -0.025694 0.301682 -0.486449 0.278843 -0.273019 0.108756 0.000828 -0.048499 -0.040372 0.211819 0.117535 -0.264004 0.498076 -0.370909 0.390277 0.408470 0.202073 0.482822 -0.163563 0.110537 0.058433 0.380486 0.279896 -0.129932 -0.172718 0.223547 0.141482 0.695432 -0.423231 0.075412 -0.133629 0.362149 0.349506 0.016953
लगा -0.227556 -0.143128 0.459487 0.103891 0.505427 0.856460 0.369885 -0.417518 0.059179 -0.238263 0.205919 -0.357053 0.070761 0.168098 -0.200453 -0.544621 0.226081 0.506898 -0.500834 0.149804 -0.700392 -0.196635 -0.656384 -0.529925 -0.396707 0.072289 0.319550 0.129857 0.305853 -0.317608 0.769187 0.653432 0.175192 0.444735 0.428911 0.076959 0.015006 0.650271 0.238786 -0.569931 0.163584 -0.259538 0.250199 -0.437362 -1.077890 0.726287 1.004887 -0.164479 -0.373805 0.537011
कंपनी 0.014441 0.672910 0.012209 -0.711258 0.258505 -0.101205 0.378105 0.038342 0.147460 0.318216 -0.018183 -0.302612 -0.749167 -0.160038 0.511544 0.001449 0.277292 -0.127948 0.107971 -0.136634 0.173104 -0.290418 -0.313802 -0.419199 0.359474 0.429670 0.011992 -0.128712 0.509974 -0.587848 -0.181871 0.870977 -0.607095 0.503578 0.458159 -0.435507 -0.139995 0.762820 -0.234069 -0.139577 -0.082138 0.308728 0.423762 0.901335 -0.836104 0.155046 -0.539111 -0.379455 0.385618 0.019498
5 0.564154 -0.336932 0.723193 -0.374001 -0.463621 0.772539 0.416593 -0.351791 -0.306001 0.515659 0.459659 -0.326604 0.000261 1.019386 0.081365 -0.640639 0.118806 0.199345 0.493118 0.231027 -0.663276 -0.396914 -0.104961 -0.020313 -0.241764 0.041840 -0.033918 0.245420 0.756610 -0.341281 0.118603 0.547808 -0.449937 0.418180 0.071221 -0.714199 -0.637143 0.134165 0.453792 0.997607 0.296317 -0.360522 0.580195 0.098060 -1.046196 0.501933 0.698520 -0.522639 -0.296275 0.446619
फीचर 0.121437 0.045463 0.302975 0.243282 0.186324 0.675379 0.624671 -0.474758 -0.478939 -0.146864 0.067134 -0.077586 -0.154810 0.395823 0.135061 -0.040102 0.133505 0.030013 0.187462 0.151613 -0.137569 0.358772 -0.165310 -0.129694 0.067343 0.627755 0.625057 -0.331504 0.033403 0.047979 0.395400 0.127220 -0.016995 0.096503 0.305582 0.141205 -0.143510 0.646970 0.575648 -0.070875 -0.087894 0.358250 0.123910 -0.350574 -0.978383 0.141136 0.213107 0.207734 0.296930 0.324770
मामले 0.025630 0.551691 0.188784 0.328703 0.075094 0.348770 -0.023843 0.018737 0.263063 0.500000 -0.146458 -0.355847 -0.517406 -0.221005 0.666619 -0.196076 0.049235 -0.878168 -0.205107 0.103065 -0.137984 0.101872 0.581656 0.209363 -0.068229 0.394802 0.418895 -0.363612 0.329383 -0.303685 0.261774 -0.090508 0.204715 0.313834 0.137966 0.140795 -0.266111 0.002887 0.312593 0.142739 -0.618318 -0.083769 0.062209 0.079467 -0.376389 -0.408473 0.137934 0.026546 0.853931 -0.385041
सभी -0.560788 0.615226 -0.125335 -0.329224 -0.117245 0.253669 -0.135580 0.081906 0.449767 -0.021664 -0.154732 -0.104152 -0.275149 0.158762 0.109195 0.227232 -0.248290 -0.275644 0.095091 0.097117 0.021809 0.585271 0.194977 -0.039925 -0.244523 0.172853 0.201083 -0.261510 -0.041514 0.146911 0.231963 0.273231 -0.077814 0.355244 0.575599 -0.060247 -0.212483 0.151411 -0.421865 -0.130063 -0.153412 0.357738 -0.523221 -0.390856 -0.164308 -0.181439 -0.417615 0.064201 0.407310 -0.164540
होती -0.301103 0.232875 0.290680 0.405713 0.294609 -0.013197 -0.735311 0.459970 0.116028 0.184193 -0.270947 -0.165516 -0.220919 -0.483666 0.261901 0.387238 -0.262858 0.161943 -0.502999 0.027948 -0.471578 0.231782 -0.119212 -0.165721 -0.060866 -0.088978 0.464426 -0.364835 0.216556 -0.637112 0.131016 -0.250625 0.423924 -0.029664 -0.465461 0.433385 -0.088009 0.020922 0.596906 -0.839607 -0.130463 -0.184078 -0.052234 0.185176 0.123553 0.931841 -0.081142 1.000066 0.162100 0.316706
अब 0.002214 0.497427 0.366382 -0.366110 -0.158724 0.226973 0.208105 0.207459 0.048148 0.876281 0.595803 -0.149364 -0.032803 0.402191 0.224470 -0.137864 0.010004 0.257751 -0.253602 0.271888 -0.348085 0.676023 -0.202280 -0.062498 0.082307 -0.101771 0.035076 -0.368304 0.242235 -0.205907 0.385229 0.147528 -0.505875 0.647180 0.547008 0.016916 0.404284 0.801197 -0.328642 0.340709 -0.100359 0.520602 -0.121429 -0.466829 -0.748729 0.475126 0.307649 -0.081345 0.294932 -0.655418
8 0.118338 0.275575 0.661696 -0.243790 0.015223 0.192453 0.384869 -0.504334 -0.385255 -0.006581 -0.029404 0.184695 0.342197 0.897213 -0.155273 -0.520351 0.157447 0.276645 -0.048691 0.469456 -0.723115 0.151833 -0.533247 -0.120172 -0.020712 -0.190777 -0.682378 0.068731 0.474315 0.041899 0.552544 0.591306 -0.257739 0.201670 0.334286 -0.594113 0.077603 0.246455 0.061407 0.205298 0.150869 -0.006735 0.099015 -0.774550 -0.649356 0.352805 0.711190 -0.361227 -0.442931 -0.017582
आता 0.085981 0.240452 -0.067672 0.259792 0.141890 0.177125 0.148030 0.101013 0.437033 -0.318602 -0.306408 -0.544363 -0.390050 -0.130483 0.820188 -0.597557 0.534494 -0.336943 -0.536040 -0.396108 0.088935 -0.474249 0.566740 0.586966 -0.154023 -0.246779 0.048537 -0.399352 -0.007316 -0.011131 0.172578 0.199207 0.650494 0.246031 -0.136910 0.466685 -0.209570 0.388129 0.410989 -0.545573 0.202002 -0.274115 0.571314 -0.982878 -0.766101 0.764624 0.107518 -0.019844 0.080964 0.307615
गेम -0.372716 0.803138 -0.172689 -0.062217 -0.162622 0.166204 0.227816 0.211333 0.479403 -0.253749 -0.066376 -0.057528 -0.009255 0.617540 -0.051373 0.821453 0.097808 -0.535948 0.065533 -0.091999 0.408653 0.638845 0.113258 0.577896 0.511925 0.332625 0.129321 -0.056897 0.180056 0.234148 0.077071 -0.362426 0.041976 -0.214795 0.311205 -0.107592 0.122249 0.118085 -0.278036 0.462936 -0.339678 0.411531 -0.572997 -0.547404 0.169382 -0.333080 0.098602 0.063735 0.260378 -0.538774
जगह 0.188468 0.161220 -0.359422 0.395448 -0.178399 -0.258067 -0.202232 0.786137 -0.082531 0.079374 -0.101718 -0.330079 -0.330196 -0.054190 0.783643 0.465178 -0.400539 0.443648 -0.129016 -0.098673 -0.230630 -0.085893 0.171101 0.580738 0.004267 0.159493 0.852529 -0.082635 0.233288 -0.759671 0.523036 0.254293 0.361506 0.308915 -0.101264 0.435456 -0.101836 0.115551 0.279578 -0.717362 -0.481849 0.077416 -0.015290 0.184290 -0.255617 -0.114676 -0.104205 0.702916 0.538071 0.091477
दोनों -0.401463 -0.049282 -0.415245 -0.598418 -0.329352 0.395406 -0.347804 0.069456 0.184324 0.114625 -0.405781 -0.018508 -0.269585 0.132875 0.181581 -0.158321 -0.207999 -0.176461 0.187458 0.152576 -0.103113 0.265898 -0.177583 0.695786 -0.318401 0.344618 0.502230 -0.334548 -0.121760 0.401220 0.177642 0.546528 -0.464952 0.561564 0.064217 0.208480 -0.259358 0.469609 -0.087561 -0.159659 -0.043481 0.027743 0.129767 -0.130818 -0.729253 -0.509522 -0.166591 0.028074 0.363641 0.257143
अच्छे -0.011350 0.125374 0.406612 0.401825 0.231230 0.830270 -0.154105 -0.160118 -0.251879 -0.064999 -0.426874 0.046162 -0.124469 0.315251 -0.121476 -0.123108 -0.567212 -0.656806 0.353358 0.048707 -0.558228 0.690857 0.550438 0.207272 -0.353546 0.739114 0.818942 -0.691474 -0.317434 0.124925 0.481582 -0.555901 0.062793 0.099623 0.300702 0.586025 -0.610326 -0.121794 0.503059 -0.091924 -0.465168 0.090291 -0.259599 -0.621995 -0.314358 -0.126861 0.236112 0.394393 0.606796 -0.331929
अलग -0.352852 0.244298 -1.164512 0.868211 -0.097632 0.201731 -0.290530 0.467948 -0.013389 -0.616905 -0.064365 -0.098168 0.205208 0.516760 -0.302692 0.651750 -0.266553 0.025371 0.282366 0.169542 -0.501751 0.002551 -0.543895 -0.062983 -0.470812 0.211150 0.337426 0.687776 -0.137463 -0.185952 0.470200 0.065230 0.554050 0.390988 0.103204 0.603178 0.205941 0.538786 0.401558 -0.044788 0.814750 -0.046300 -0.178821 -0.230092 -0.964432 -0.730776 0.303274 0.732416 0.226719 0.170255
आसानी -0.697683 0.567705 -0.223935 0.326429 0.678266 0.740794 -0.542201 0.046504 0.765090 0.432442 -0.193770 0.286897 0.369081 0.050445 -0.113491 -0.012355 -0.411813 -0.296472 0.466502 0.279042 0.443834 0.091002 -0.160549 0.095736 -0.158984 0.084233 0.349564 0.011101 -0.096105 0.043749 0.714711 -0.422006 0.170613 0.527578 0.062343 0.431810 0.131474 0.513198 -0.122743 -0.200267 0.305545 0.202839 -0.534176 -0.639070 -0.583496 -0.222653 -0.418678 0.550646 0.392967 -0.834548
एचडी 0.628920 -0.060397 -0.010602 -0.226084 -0.462952 0.255842 -0.781318 0.451628 0.361483 0.607764 0.060392 0.076329 0.459886 0.707447 0.154597 -1.222945 -0.646480 0.076123 0.680671 0.718006 0.486264 -0.495498 0.406659 0.088305 0.907885 -0.424776 -0.307155 0.613119 -0.043932 0.073049 -1.150421 0.185505 0.782581 -0.196445 0.346743 -0.594402 -0.947442 -0.101920 0.519421 0.704515 0.747695 -0.651938 0.567778 -0.029342 -0.916248 0.414893 -0.053884 0.406625 -0.095325 0.528696
तुलना 0.075345 0.536313 0.460326 0.042266 -0.632878 0.273253 -0.331826 -0.074917 -0.101193 1.155589 -0.198087 -0.469142 0.032192 0.158204 0.187512 0.453696 -0.287031 -0.651904 0.280811 0.243665 -0.235590 0.501002 -0.004054 0.269734 0.184578 0.399361 0.207654 -0.270366 0.620264 -0.876674 0.245849 -0.140064 -0.250215 0.417347 -0.416012 -0.361599 -0.028291 -0.043549 0.913871 -0.118742 -0.418830 0.495157 -0.076693 0.197405 0.287731 -0.128575 0.192188 0.689630 0.762029 -0.147946
फीचर्स -0.445273 0.346184 0.201949 -0.028723 0.001631 0.791152 -0.317301 -0.247939 0.097797 -0.909258 -0.599229 -0.217270 -0.176106 1.237290 -0.137338 0.267188 -0.361322 -1.168657 0.716001 -0.035590 -0.655717 0.769225 0.038335 -0.062417 -0.095054 0.959088 0.454645 -0.715893 -0.554264 -0.046995 0.369343 -0.257578 -0.285873 -0.033620 0.747792 0.285144 -0.990621 0.253232 0.646582 -0.130233 -0.298886 0.285836 -0.239035 -0.877417 -0.310534 -0.016634 0.018548 0.315197 0.757135 0.474028
होगा -0.188227 -0.061503 -0.631142 0.477768 0.651561 0.511818 0.120424 0.783474 0.160737 -0.060439 0.240200 -0.486494 -0.091992 -0.913235 0.388780 0.155980 0.483142 0.271451 -0.465079 -0.559453 0.089130 -0.415295 0.638956 0.489323 -0.779978 0.399382 0.884017 0.155819 0.105881 -0.262514 0.553285 -0.253841 0.582930 0.309746 -0.017427 0.946204 -0.128887 0.299402 -0.002479 -0.225617 0.291606 -0.428518 0.155405 -0.309585 -0.725462 0.579614 0.262508 0.508841 0.382836 -0.627622
एंड्रायड 0.073323 -0.292711 -0.429663 0.164583 -0.471796 -0.056026 0.507361 0.118437 0.297707 -0.141015 0.159863 0.088984 0.332062 -0.185517 0.239907 0.041563 -0.001093 0.354147 -0.192277 -0.396460 0.302261 -0.338152 0.764008 0.510493 -0.205125 0.237617 -0.155802 0.420924 0.468369 0.028816 -0.241788 1.049138 0.845325 0.196556 0.173063 -0.082527 0.461074 -0.372299 -0.496657 0.448369 -0.265930 0.138612 -0.013656 -0.425757 -0.421200 -0.040661 -0.773083 -0.463583 0.164710 -0.361496
ऐसा -0.251112 0.552757 -0.372578 0.752294 0.172073 0.720444 0.651181 0.642581 -0.039622 0.467428 0.791557 -0.798598 -0.354242 -0.270384 0.067584 0.570313 0.443216 0.224314 -0.455429 -0.283387 0.612022 0.238782 0.282584 0.221546 -0.179823 0.262653 0.516253 0.024364 0.167724 -0.085920 0.545341 0.008657 0.180309 0.242508 0.410354 0.340965 0.493560 0.914918 0.415439 0.208052 0.065982 0.364049 -0.031150 -0.297258 -1.110722 0.140801 0.328866 0.067298 -0.013148 -0.352772
जिसमें -0.116364 0.153760 0.644377 -0.074667 0.052863 0.448450 0.284392 -0.013364 0.108332 -0.065002 0.277529 -0.376447 -0.141613 0.412424 0.022393 0.041627 0.032650 0.267828 0.089012 0.090925 -0.049345 -0.149386 -0.436734 0.047262 0.118960 0.140836 0.342072 0.069669 0.227263 -0.330122 0.043325 0.149567 0.111275 0.395179 0.007064 -0.194925 -0.287976 0.609347 0.318514 -0.006311 0.184927 -0.034437 0.218300 0.031293 -0.599717 0.627376 0.498671 -0.295729 -0.271232 0.376930
इससे -0.520294 0.541323 0.227021 0.581181 0.485926 0.648402 -0.493347 0.057806 0.622161 0.457208 -0.130503 -0.576257 0.034333 -0.216343 -0.242056 0.681749 -0.195322 -0.768361 0.015570 0.163663 0.579718 0.496079 -0.026595 0.336867 -0.023524 -0.098560 0.311932 -0.362536 0.253487 -0.404483 0.330158 -0.466792 -0.006901 0.027233 -0.060258 0.120851 -0.438800 0.292271 0.384574 -0.091918 -0.217815 0.353308 -0.270181 -0.083366 0.049417 0.202760 0.096104 0.642921 0.332756 0.084237
जब -0.472693 0.542341 0.068221 0.039670 -0.153880 0.518139 -0.201534 0.507527 0.961503 0.655201 0.601513 -0.734438 -0.257102 0.005121 0.095565 1.030018 0.155424 -0.106082 -0.198606 0.046081 1.098831 0.545082 0.119840 0.563375 0.802479 -0.057269 -0.013919 -0.124939 0.200489 -0.338859 -0.291553 0.055334 0.008661 0.290771 0.208816 0.015115 0.227515 0.844230 -0.439089 -0.026541 -0.540847 0.574076 -0.121842 0.284031 -0.345248 0.086783 -0.345292 0.102740 0.385433 -0.013339
बेहतरीन 0.335435 0.248238 0.500441 0.303563 -0.292332 0.229118 0.451428 0.138263 -0.581204 0.434811 0.156446 0.000300 0.134166 0.073453 0.235825 -0.109046 -0.405176 0.310454 -0.166606 0.112540 -0.539316 0.095540 0.405927 0.218476 0.004796 0.585414 0.438270 -0.223235 0.405245 -0.141149 -0.001530 0.224697 0.801982 0.604108 -0.021135 0.095119 0.064686 0.096249 0.398479 0.132510 -0.181746 0.232277 0.007727 -0.086620 -0.543099 0.211910 -0.101733 0.133110 0.368042 -0.510663
मंदिर 0.326216 -0.003199 0.103262 -0.288249 -0.556979 0.165023 0.437019 -0.173693 -0.220204 -0.232098 0.218441 0.124734 0.274489 0.930300 0.083782 -0.383253 -0.079025 0.059545 0.270939 0.119493 -0.718203 0.021449 -0.127069 -0.277674 0.082887 0.643049 -0.018968 0.350012 0.234316 -0.030113 -0.135173 0.435103 -0.006285 0.416104 0.253299 -0.325055 -0.009741 -0.101191 0.160872 0.380882 -0.073255 -0.205244 0.321519 -0.091845 -0.549990 -0.529023 0.463188 -0.376448 0.302294 -0.005772
गैलेक्सी 0.221578 1.417279 -0.429906 -1.413611 -1.576308 -0.196021 0.760394 -0.145086 -0.168298 0.538172 0.350954 -0.726870 0.126315 0.911452 0.322369 0.206249 0.327711 -0.526486 0.547073 -0.263076 -0.352715 0.242758 -0.229835 0.221436 0.360985 0.680349 -0.205020 0.423750 0.821771 -0.342581 -0.301608 0.275456 -0.406300 0.745326 -0.560970 -1.095951 0.520016 -0.157188 1.172151 -0.018862 -0.024211 -0.054438 0.100727 -0.467104 0.773734 -0.820722 0.554750 -0.084800 0.254428 -0.152657
पिक्सल 0.221372 -0.374905 0.563295 -0.158082 -0.021585 0.100564 0.059366 -0.498031 -0.232208 -0.026189 0.264209 0.163632 0.208216 0.464799 0.092055 -0.999931 -0.145824 0.579742 -0.207138 0.447250 -0.711481 -0.951343 -0.178767 -0.580155 -0.162531 -0.137298 -0.253426 0.633355 0.413186 0.047164 -0.034589 0.414920 0.254762 0.076116 -0.253033 -0.720147 -0.419500 -0.453929 -0.002327 0.234061 0.572142 -0.834962 0.404619 0.295078 -0.485778 0.512630 0.225980 -0.832654 -0.751880 0.272273
सैमसंग 0.002772 1.137855 -0.405210 -1.194118 -1.141882 -0.192071 0.450448 -0.035984 -0.021275 0.224383 0.087286 -0.537855 -0.162611 0.823451 0.388510 0.416514 0.244131 -0.364186 0.381596 -0.204337 -0.021330 0.155618 -0.140738 0.193384 0.632691 0.778754 -0.164881 0.172520 0.478395 -0.238937 -0.289794 0.392952 -0.512796 0.505543 -0.143410 -0.935262 0.367198 0.139490 0.537391 -0.018128 -0.091784 0.268511 0.066190 -0.023554 0.488139 -0.685866 -0.048448 -0.177311 0.255946 -0.164095
फिर -0.184386 0.693422 -0.224018 0.599554 0.176949 0.384866 0.021192 0.173801 0.711159 0.167942 -0.097626 -0.943965 -0.299715 0.010842 0.017595 0.616508 0.206524 -0.520899 0.111070 -0.228282 0.900346 0.213884 -0.388258 0.562263 0.398855 0.115255 0.501237 -0.012427 0.345076 -0.719083 0.288560 -0.167417 0.094148 0.175049 -0.123339 0.024823 -0.092154 0.520019 0.501623 -0.078387 0.032704 0.353406 0.011656 -0.143861 -0.158534 0.081881 0.454763 0.015979 0.289374 0.177807
फुल 0.626955 0.019906 -0.254014 -0.315005 -0.733786 0.038140 -0.248006 0.363335 0.022752 0.423767 0.161814 0.045268 0.300145 0.797243 0.416456 -0.953161 -0.426138 0.205709 0.534168 0.484967 0.417229 -0.448839 0.365817 0.163737 0.780435 -0.395484 -0.388152 0.662693 -0.037733 0.133386 -0.903019 0.404834 0.614117 -0.289115 0.316079 -0.579381 -0.525119 0.037683 0.536637 0.582435 0.570979 -0.299709 0.481161 -0.210386 -1.038600 0.182047 -0.212766 0.285784 -0.067250 0.340862
वह -0.571033 0.436641 -0.038103 0.353498 0.012209 0.220340 -0.157578 0.490794 0.578358 0.121716 0.100671 -0.616014 -0.295255 -0.251515 0.182430 0.543116 0.095581 -0.045554 -0.157173 -0.127848 0.633255 0.191833 0.076945 0.363980 0.051849 0.016191 0.317651 -0.193234 -0.036422 -0.304193 0.050686 -0.099774 0.203388 0.215050 0.051415 0.151157 0.135830 0.677980 0.084875 -0.276025 -0.074945 0.241102 -0.086002 -0.193747 -0.282777 0.259330 -0.164334 0.289080 0.268423 0.229107
घंटे 0.181848 0.438218 0.549469 -0.810737 -0.171846 -0.375156 -0.065079 -0.051182 -0.724486 0.660607 -0.170418 0.430131 0.547931 0.454070 -0.132984 -0.538876 -0.486761 0.128175 -0.280730 0.714801 -0.948448 0.725461 -0.700768 0.095976 -0.207142 -0.974104 -0.907616 -0.194867 0.234242 0.364796 0.381294 0.523683 -0.148294 0.363593 0.168981 -0.188173 0.268739 0.294293 -0.275883 0.431182 0.450487 0.284480 -0.329828 -1.153767 -0.526929 0.649293 0.214166 0.218729 -0.278643 -0.676715
मेगापिक्सल 0.414844 -0.181477 1.121301 -0.702501 -0.148831 0.528066 1.041032 -0.709153 -0.647532 0.125065 0.353012 0.252697 0.022783 0.827282 -0.206321 -0.852230 0.397903 0.160009 0.336004 0.215427 -1.207796 -0.366137 -0.588665 -0.283842 -0.559487 0.237009 0.150720 0.076445 0.721559 -0.201475 0.495448 0.678731 -0.565417 0.331167 -0.035703 -0.571598 -0.267292 0.144493 0.313227 0.652311 0.195679 -0.471278 0.580820 0.076422 -0.699411 0.306895 1.263619 -1.003617 -0.681766 0.008621
आईपैड 0.096954 0.480250 0.771456 -0.635580 -0.906393 0.353193 0.381623 -0.282555 -0.083482 0.594351 0.191399 -0.257039 0.019334 0.979396 0.538375 0.204909 0.025616 -0.115763 0.612788 0.124849 -0.530919 0.337002 -0.485971 -0.156899 0.553421 1.029434 -0.460258 0.005739 0.441781 -0.625148 0.137743 -0.134023 -0.416605 0.826011 0.077044 -0.940573 0.374507 -0.134308 0.166776 0.179317 0.085098 0.249247 0.019286 0.148321 0.441165 -0.219852 0.370771 -0.424421 0.269018 -0.672018
हर 0.012623 0.521220 -0.830752 0.018018 -0.194622 0.099637 -0.566374 0.291125 0.229831 0.208980 -0.424247 -0.273235 -0.608199 0.212411 0.323425 0.385922 -0.349278 -0.432745 0.109784 0.228249 -0.028226 0.850001 0.002946 -0.150928 0.111884 -0.139347 0.008581 0.038071 0.558502 -0.436833 0.046767 0.705192 -0.400694 0.085741 0.429784 0.116560 0.036486 -0.064307 -0.007177 0.355417 -0.194753 0.378316 0.249879 0.298023 -0.645261 -0.565603 -0.480264 0.123576 0.701252 -0.051513
क्योंकि -0.246575 -0.142586 0.160396 0.472306 -0.010076 0.593684 0.190276 0.207902 0.633406 0.217905 0.482431 -0.614045 -0.104529 0.176085 0.277395 0.480743 0.060120 0.067832 -0.195816 -0.233000 -0.002355 0.118812 0.148264 0.397524 0.236576 0.453708 0.439999 -0.226524 0.291825 -0.469932 0.337467 0.094823 0.149575 0.415246 0.350743 0.279765 -0.232578 0.560913 0.093931 -0.049615 -0.556859 0.275426 0.167091 -0.052111 -0.576190 0.409497 0.245466 -0.144486 0.427173 0.071921
रही -0.595512 0.206089 0.459316 -0.198163 0.735869 -0.099578 -0.743022 0.519732 0.552430 -0.170951 -0.168166 -0.422654 -0.221377 -0.777932 0.167760 -0.448931 -0.072975 0.463934 -0.314493 0.218997 0.422678 -0.051029 -0.245302 0.000416 0.002009 -0.611876 0.390642 -0.341463 -0.219073 -0.335722 -0.353103 -0.196717 0.406808 0.522526 0.047373 0.352405 -0.340722 0.639678 -0.083972 -0.978729 0.224299 -0.352272 0.051401 -0.066201 0.273965 0.986226 0.029558 0.534117 -0.293507 0.910019
कभी -0.408245 0.256084 -0.812445 1.467645 -0.317597 -0.131672 -0.155795 0.269256 0.385101 -0.586981 0.299839 -0.766764 0.421114 0.333557 -0.339852 0.452006 0.637754 -0.013399 -0.382257 -0.223954 0.448776 -0.186488 -0.220327 0.536586 -0.023703 -0.266393 0.455370 0.495712 -0.294522 -0.515588 0.078328 0.044207 0.739551 0.244204 0.194711 0.103078 0.086738 0.862765 0.458969 -0.344088 0.083686 0.023397 0.047361 -0.022972 -0.309664 -0.534604 0.683648 0.337163 0.049709 1.150374
जिससे -0.413406 0.345925 0.573802 -0.147600 0.281259 0.420858 0.087751 0.393741 0.523533 0.180590 0.303424 -0.179208 -0.049248 -0.397790 -0.038709 0.674037 -0.085857 0.199374 -0.096234 0.209642 0.355529 0.111746 -0.246100 0.212472 0.274115 -0.032442 0.189341 -0.123665 0.313765 -0.310542 -0.261352 -0.072926 0.391544 0.287463 0.079209 0.134608 0.095591 0.696442 -0.142578 -0.288971 -0.176871 -0.039934 -0.148422 0.045544 -0.462133 0.594259 -0.022023 0.364630 0.174940 -0.063463
पहले -0.302870 0.113768 0.052846 -0.073886 -0.253256 0.303994 -0.358129 0.255532 0.272672 0.675567 0.344899 -0.494212 -0.110457 0.149351 0.250393 -0.019528 -0.080471 0.063267 0.068856 0.073889 0.067182 0.166090 -0.091696 0.028588 -0.010660 0.145726 -0.076154 -0.118071 0.062300 -0.389134 0.291763 0.028767 -0.652867 0.564013 0.155783 0.134235 0.134476 0.487273 -0.195139 0.033623 -0.165602 0.422749 0.057350 0.019484 -0.311508 -0.060237 -0.041730 -0.148844 0.348465 -0.363672
3 0.343472 0.250467 0.265096 -1.163627 -0.707576 -0.053903 0.170670 -0.332286 -0.188776 -0.164959 0.073674 -0.370006 0.320951 0.891307 -0.091859 -0.672853 0.182159 -0.170181 0.185277 0.108213 -0.731519 -0.141682 -0.483830 -0.457095 0.056064 -0.061107 -0.521198 0.363934 0.489531 -0.163798 -0.331663 0.731086 -0.034117 0.780914 0.014590 -0.773944 -0.085863 0.133004 0.371034 0.092811 0.328760 -0.482119 0.406620 -0.378189 -0.118099 -0.258451 0.363970 -0.043372 -0.051049 0.811029
दिन 0.223312 0.370935 -0.092017 -0.638890 -0.237672 -0.515293 0.085965 0.473948 -0.215911 0.524461 -0.228143 0.570655 0.286448 0.356621 0.358401 -0.173419 -0.424442 0.059582 0.108642 0.233804 -0.586094 0.396879 -0.383492 0.044778 0.289428 -0.900682 -0.287566 -0.146118 0.022385 0.082999 0.496898 0.060803 0.138950 0.160206 0.129826 0.322275 0.763553 0.455972 -0.515153 0.087462 0.215037 0.431938 -0.359020 -0.951656 -0.719137 0.052617 -0.109338 0.532131 0.093628 -1.038205
यूजर 0.162988 0.325585 0.079367 0.132038 0.218434 0.484802 -0.152824 0.074896 0.221352 0.167946 -0.003142 -0.167192 -0.347655 0.199207 0.328784 0.355903 -0.158231 -0.029387 0.036852 0.338896 0.186040 0.081762 -0.081681 0.115162 0.334560 0.380691 0.161513 -0.152347 -0.057294 -0.053866 -0.091451 0.069709 -0.142087 0.126782 0.228021 -0.166165 -0.177710 0.213989 -0.166747 -0.157510 -0.059150 -0.242535 -0.105269 0.555351 -0.500397 -0.175969 -0.120927 0.205242 0.294769 0.069850
खूबसूरत -0.064087 0.429255 -0.271184 0.082911 0.005202 -0.008922 -0.106758 0.127914 -0.678096 0.169502 0.154367 0.214777 0.119622 0.229332 0.183172 0.033095 -0.030169 0.479646 -0.398844 0.348539 -0.461222 0.412128 -0.226677 0.235695 -0.251432 0.400455 0.163912 -0.259313 0.180776 0.354872 -0.043832 0.100680 0.038574 0.064481 -0.259856 0.154904 0.530225 0.565962 0.116128 0.152974 -0.012374 -0.117603 -0.092499 0.218253 -0.627949 -0.442871 0.040094 0.576438 0.323916 -0.245062
रंग -0.428489 0.295340 -0.027418 0.179039 -0.153608 0.114660 -0.125581 -0.350855 -0.262668 -0.835921 -0.216785 0.107177 0.470844 0.772452 -0.347013 0.108205 -0.240540 -0.420115 0.133224 0.419696 -0.487549 0.421435 -0.432419 0.146493 -0.115438 0.730140 0.025028 -0.193893 -0.192942 0.584433 -0.378039 0.064438 0.587083 0.102632 -0.001792 -0.365497 -0.278348 0.033682 0.400217 0.133815 0.158201 -0.096479 -0.142385 -0.123537 -0.288969 -0.483196 0.109648 0.282451 0.327879 0.533912
लैपटॉप 0.122899 0.258656 0.081367 -0.317146 -0.346341 0.361284 0.745960 -0.000739 -0.186471 0.361483 0.144156 -0.025689 -0.258736 0.130667 0.299206 0.045522 -0.029153 -0.083645 0.508460 -0.000365 0.014559 -0.123553 0.278506 -0.087598 0.002533 0.437754 0.293436 -0.037009 0.394188 -0.065635 -0.002243 0.203239 0.238513 0.516040 -0.041490 0.118472 0.145638 0.218336 0.162710 -0.028590 -0.231444 0.160885 0.041559 -0.130286 -0.517450 -0.399577 -0.024093 -0.118870 0.364111 -0.209227
सिस्टम 0.121881 0.115479 -0.666493 0.236641 0.096166 -0.162563 0.074157 -0.144640 0.368670 -0.395274 -0.424060 0.097762 -0.109651 -0.543948 0.495033 -0.579686 -0.036079 0.391935 -0.657353 -0.403216 0.062448 -0.250958 0.525234 0.872052 -0.359092 -0.549550 -0.407219 0.314575 0.388160 0.140418 -0.031573 1.651845 0.651267 -0.341317 0.202998 -0.259539 0.415877 -0.265718 -0.522552 0.321875 0.087212 -0.507591 0.074078 -0.750267 -0.842788 0.203703 -0.298970 -0.410432 -0.288895 0.136162
कमी -0.063669 -0.137641 0.681941 0.373338 -0.356705 0.150510 0.027600 0.467914 -0.357442 0.648832 0.507731 -0.694317 -0.379180 0.168069 0.486187 0.357457 -0.001473 0.676323 -0.540849 -0.230330 -0.143758 0.473719 0.175926 -0.048368 0.703325 0.344141 0.155996 -0.581602 0.305055 -0.811435 0.191076 -0.123538 -0.309306 0.192340 -0.020032 0.386959 -0.014316 0.517977 0.598706 -0.698224 -0.700488 1.006027 0.393566 0.090571 -0.366581 1.207696 0.421554 0.135458 -0.004392 0.251538
लगभग -0.551532 0.980996 0.252023 -0.156641 -0.115206 -0.349743 -0.487004 -0.043853 -0.205933 0.279415 -0.187453 -0.121845 -0.076990 0.246895 -0.119423 0.459996 -0.544879 -0.423364 -0.311726 0.664688 -0.558316 0.470026 -0.328883 -0.157891 -0.164476 -0.573369 -0.885987 -0.288789 0.410229 -0.216808 0.229591 0.368905 -0.008800 0.079894 0.228253 -0.436332 -0.149558 0.082923 -0.200251 0.384220 0.047790 0.517870 -0.649038 -0.085053 0.145683 0.353004 -0.518924 0.090830 -0.092584 -0.375133
वाली 0.255087 0.210592 -0.071012 -0.634284 -0.205385 -0.268540 -0.485680 0.351318 0.020432 0.564208 -0.317912 0.179360 -0.106015 -0.258504 0.644994 -0.146972 -0.275967 -0.398047 0.091817 0.337798 -0.299443 -0.064651 0.108655 -0.166171 0.220896 -0.204016 -0.227388 0.107899 0.685848 -0.695594 -0.135660 0.760893 0.238219 0.036326 0.409097 -0.662414 -0.225644 -0.393744 -0.352478 0.201249 -0.309780 -0.066999 0.004150 0.545152 -0.141122 -0.254609 -0.619210 0.418942 0.660068 -0.166623
वे -0.740380 0.354997 -0.237286 -0.285501 -0.062792 0.460338 -0.307273 0.236454 0.561148 -0.209759 -0.077287 -0.657520 -0.164269 0.138622 -0.278421 0.571442 0.004283 -0.309244 0.179528 -0.326337 0.291588 0.797676 0.106878 0.045798 -0.013167 0.407271 0.386141 -0.273818 -0.135056 0.139647 -0.302530 -0.252192 -0.311646 0.311463 0.418587 0.235791 -0.394387 0.426050 -0.038500 -0.273528 -0.094362 0.487373 -0.240956 -0.307338 -0.101625 0.070077 -0.248004 0.351822 0.408846 0.252336
कहा -0.479884 0.197510 0.445036 0.803104 1.004851 0.458679 -0.039728 0.352485 0.632334 0.787591 0.651499 -0.143322 0.028182 -1.261983 0.484141 -0.713069 0.378640 0.951958 -0.591882 -0.086448 1.019903 -0.200590 0.188167 0.037125 0.038540 -0.136195 0.983748 -0.117484 -0.049277 -0.405745 0.564265 -0.320291 0.511661 0.602442 -0.006083 0.820710 0.437195 0.834233 -0.409770 -0.674144 -0.183136 0.091371 -0.015696 -0.036089 -0.410242 0.503520 0.382163 -0.154735 -0.038438 -0.587258
न -0.141524 -0.147288 -0.064923 -0.167824 0.025202 0.259367 -0.037817 0.589610 0.085214 0.130235 0.443680 -0.841859 -0.139953 -0.328706 0.156808 0.463853 0.663949 0.070512 -0.324465 -0.334726 -0.023467 -0.233565 -0.231897 0.943353 -0.106016 0.321125 0.410805 -0.264120 -0.026399 -0.198709 0.130853 -0.314641 -0.152324 0.755695 0.186067 0.469317 -0.317732 0.679269 0.071358 -0.190362 -0.092300 -0.275739 0.329342 0.065126 -0.273176 0.203326 0.446901 -0.316791 0.603593 -0.183573
पूरी 0.110376 0.176867 -0.601136 -0.063289 0.040226 0.478554 -0.959126 0.322623 0.106695 0.751863 -0.353338 0.083829 -0.419122 -0.109185 0.452640 0.440606 -0.790749 -0.089087 0.221070 0.618233 -0.147709 0.561983 -0.181247 -0.274000 -0.053725 -0.265816 -0.198536 0.239712 0.802436 -0.725577 0.412363 0.901671 -0.188895 0.009003 0.184580 0.116785 0.052945 -0.101886 0.075106 -0.009518 0.034467 0.101479 0.146895 0.648948 -0.825981 -0.290609 -0.701027 0.899541 0.690538 -0.077145
व -0.066446 0.228075 0.204330 -0.150583 0.025492 0.171957 0.150961 -0.217508 -0.106732 -0.393636 -0.057907 0.315580 0.229192 0.599321 -0.111725 -0.129150 0.156886 -0.026100 0.276352 0.227909 -0.370826 -0.026146 -0.485661 -0.199961 0.024448 0.276916 -0.026540 0.113836 0.029760 -0.061315 0.076548 0.155491 0.081884 0.059439 0.073004 -0.355728 0.082805 0.309937 0.044277 0.158601 0.261940 -0.181796 -0.005396 -0.106161 -0.187955 -0.330282 0.373691 0.032818 -0.043409 0.121275
हम -0.554917 0.408773 -0.329504 -0.000492 0.019645 0.442528 -0.447685 0.355302 0.740285 -0.017689 0.246003 -0.488638 -0.246004 0.307453 -0.018163 0.845598 -0.027921 0.132358 -0.171094 -0.088581 0.425944 0.861816 -0.189604 0.252997 0.315017 0.318272 0.076170 -0.307393 0.032160 -0.106455 -0.115015 -0.144663 -0.583847 -0.005561 0.481807 0.107148 0.196771 0.580574 -0.399217 0.055343 -0.370794 0.395032 -0.155539 0.057370 -0.127701 -0.002008 -0.108009 0.323826 0.484441 0.022801
मेमोरी -0.841182 0.551669 0.832953 -0.474772 0.210774 -0.521139 -0.436493 0.277219 -0.040251 -0.093860 -0.199028 0.417794 -0.044641 0.350434 0.434163 -0.267554 -0.353754 0.602618 -0.069058 0.849561 -0.728865 0.439460 -0.898136 -0.455223 1.094736 -0.155391 -0.355475 -0.281709 -0.180184 0.433977 -0.043603 -0.642265 0.446176 0.367729 0.154638 -0.118991 0.101763 0.216835 -0.193818 -0.852691 0.018198 -0.027407 -0.330397 -0.202809 0.052084 0.593027 0.112701 0.017997 -0.555962 -0.339504
सिम -0.592182 -0.026899 -0.619959 -0.356586 -0.133858 0.201946 0.171586 0.208071 -0.089007 -0.561958 -0.053029 0.301485 -0.112400 0.602733 0.430635 -0.306126 -0.205603 0.554378 -0.002480 0.035160 -0.856346 0.281367 0.053154 -0.073188 0.888240 0.923120 0.798391 -0.160545 -0.493176 1.324974 0.033828 -0.691190 0.798462 -0.159247 0.308427 0.305284 0.382133 0.176097 -0.008058 0.038752 0.029789 -0.120920 -0.255572 -0.371054 -0.805926 -0.477595 0.177875 -0.088554 -0.317191 -0.517100
स्थित 0.270576 0.373837 -0.663869 -0.310702 -0.467496 -0.537513 -0.080101 0.137461 -0.168624 0.123822 -0.458450 0.069636 -0.054270 0.093062 0.437139 -0.459598 -0.322374 -0.176955 -0.054236 0.104250 -0.434326 -0.086110 0.433451 0.241124 -0.369021 -0.368623 -0.306537 0.168655 0.587964 -0.245858 0.057064 0.780535 0.001343 0.199336 -0.067434 -0.180390 0.052868 -0.487354 0.197736 -0.095986 -0.238397 -0.108995 0.136152 -0.424904 -0.081077 -0.469266 -0.308484 0.326895 0.272326 -0.025120
हमें -0.360376 0.278387 0.026186 0.653061 0.397571 0.505157 -0.114193 0.044765 0.448886 0.415724 0.339244 -0.764488 -0.359242 -0.168197 0.186623 0.385196 0.089337 0.163186 -0.404434 -0.376896 0.451598 0.100421 0.094911 0.020636 0.103443 0.271684 0.421649 -0.147700 0.138955 -0.374624 0.272173 -0.051918 -0.177239 0.049301 0.110539 0.016715 -0.203575 0.308528 0.219087 -0.228974 0.034360 0.453032 0.126845 0.146825 -0.280994 0.790504 -0.115425 -0.089860 0.099308 0.093763
10 0.548922 0.288005 -0.268322 -0.649184 -0.331637 -0.544620 -0.182062 -0.177530 -0.039234 0.592542 -0.012448 0.005208 -0.108410 0.247230 0.291950 -0.457280 -0.395796 0.107867 -0.057472 0.299475 -0.285591 0.078685 -0.335935 -0.090841 -0.447982 -0.676259 -0.812858 0.255175 0.804943 -0.260283 -0.464390 0.777499 -0.437470 -0.166319 -0.480619 -0.609465 0.462718 -0.142071 -0.004898 0.908694 0.212406 -0.377490 0.201777 0.315066 -0.148642 0.085131 -0.511065 0.101605 -0.010634 0.254378
4 0.098893 0.725419 0.694872 -0.643887 -0.646558 -0.187974 0.305556 -0.123644 -0.190252 0.409390 0.213525 -0.102452 0.098900 0.747464 0.523553 0.153320 0.203900 -0.056379 0.204948 0.309316 -0.604367 0.224603 -0.540713 -0.142217 0.600683 0.333918 -0.685258 -0.044231 0.345254 -0.225528 0.246179 -0.220674 -0.099924 0.635407 0.143481 -0.706357 0.373800 -0.008550 0.065563 -0.164671 0.220894 0.122222 -0.179591 -0.332749 0.356204 0.161398 0.428570 -0.316194 0.005737 -0.718413
3जी -0.224998 0.403748 -0.424341 -0.562942 0.035814 0.101003 -0.065949 -0.191920 0.475217 -0.428461 -0.316493 0.245983 -0.145484 0.182495 0.117691 -0.095368 -0.045496 -0.153527 0.236201 0.099761 0.360818 0.288818 -0.258723 0.483073 0.318783 0.187686 -0.172326 0.298074 0.075264 0.589257 -0.176950 0.286948 0.056073 -0.141397 0.181763 -0.466561 0.305425 0.219285 -0.241965 0.203902 0.153793 -0.228110 -0.110568 -0.529061 -0.368564 -0.412555 0.019196 -0.263994 0.057831 -0.163043
आते -0.500879 0.366582 -0.308845 -0.447715 0.445178 0.153707 -0.520479 0.237628 0.702772 -0.870812 -0.651739 0.061081 0.168008 0.215325 -0.202044 -0.177117 -0.222024 -0.426318 0.137384 -0.311295 -0.239369 0.674014 -0.113853 0.101218 -0.105426 -0.029158 0.363370 -0.196684 -0.426455 0.266409 0.077894 -0.367331 0.203433 0.031393 0.571675 0.598124 -0.462118 0.122667 -0.157864 -0.421833 0.236351 0.023597 -0.243776 -1.386939 0.103162 0.253422 0.025457 0.451066 0.333397 -0.152482
जिसे -0.934015 0.779724 0.311206 -0.449450 0.183805 0.246623 0.224866 0.463989 0.438721 0.184512 0.450501 0.295181 0.019695 0.081755 0.065610 0.475367 -0.017599 0.587241 0.102204 0.597401 -0.077675 0.296286 -0.507714 -0.201728 1.102352 0.102015 0.023353 -0.041843 0.015281 0.470311 0.065511 -0.836518 0.762527 0.282429 0.199737 0.157532 0.413490 0.513541 -0.573219 -0.166824 0.130682 0.011767 -0.571472 -0.052142 -0.371506 0.328660 0.238363 -0.114321 -0.527438 -0.967071
देती 0.113207 -0.037899 0.512261 0.076293 0.758893 0.149054 -0.299681 0.167760 -0.208673 0.070970 -0.105477 0.394163 0.428560 -0.683602 -0.389104 -0.447258 0.038063 0.720139 -0.572253 0.335565 -0.193355 0.420870 -0.358209 -0.027045 -0.171091 -0.634991 0.082193 0.073248 -0.279283 0.419644 0.050361 0.347196 0.599039 0.027090 0.257023 0.219485 0.308877 0.282264 -0.283749 -0.279921 0.567717 -0.530458 -0.265679 -0.345695 -0.392097 0.570676 0.597742 0.820840 -0.416489 0.202662
