1582 50
the -1.013675 0.676245 -0.366893 0.831705 0.518664 -0.385815 0.058876 0.007656 -1.706080 0.126073 0.251476 0.126736 -0.693215 -0.155955 0.204287 0.131054 -0.111121 -0.418700 2.413979 -1.619873 0.089340 1.060717 -0.364661 -0.345466 -1.634582 -1.777009 1.223255 -0.308325 0.292387 0.516613 0.955680 -1.594522 -0.284304 0.502876 -1.306391 0.393667 0.486937 0.479824 -0.034627 1.073210 -0.093963 -0.410896 1.061110 1.061228 -1.817639 0.049933 -0.784143 0.596396 -0.971267 0.243869
. 0.085602 -0.384497 0.446628 1.568334 0.649353 0.288139 1.376741 -0.428980 -1.329279 1.845887 -0.196564 -1.107482 0.807939 1.075025 -0.435722 0.589625 0.187554 0.398423 0.984853 -0.734873 0.056005 -0.026966 0.147673 -0.058901 -0.256899 -1.236513 0.005679 0.551352 0.672810 0.204291 0.751254 -1.822617 0.152127 -0.755253 0.474534 -0.090027 0.119408 0.500473 -1.546511 -0.007779 0.529813 -0.092746 0.678234 -0.546934 -0.145657 -1.503145 0.584852 0.405177 -0.338067 0.864337
and -0.678999 -0.717427 0.566714 1.830058 0.107666 -1.169557 0.775759 -0.649303 -0.995048 0.566314 -0.816271 1.480777 -0.428813 0.707961 -0.544144 1.785589 0.750165 0.732883 1.174983 -0.921838 -0.880826 0.711173 -0.152920 0.216108 -1.250025 -0.315064 -0.709837 0.885522 0.760338 0.977635 1.176884 -1.980969 0.350767 0.978760 -0.194064 0.854007 -0.544759 -0.051755 -0.090721 -0.271289 -0.406245 -0.317083 0.868843 -0.260609 -0.059538 0.062317 0.111867 -0.656840 -0.563199 0.050254
I -0.816946 -0.316945 -1.394875 1.428321 -0.572573 -0.560378 -0.450543 -1.068837 -0.896479 0.355522 0.767995 1.712612 0.347546 0.341336 1.044248 -0.455604 0.684927 0.078148 1.975270 0.199215 0.447418 0.766267 -0.688872 -0.055773 -0.722403 -0.616096 0.694510 1.174289 0.244725 -0.611090 1.331262 -1.453659 0.400047 0.322344 -0.132412 1.005330 0.048667 -1.103425 0.551907 0.708400 0.927639 -0.225596 -0.026593 -1.199916 0.391725 -0.192388 -0.415743 0.465662 1.094757 0.630904
a -0.891660 0.450824 -0.375678 1.492944 0.086274 0.304249 -0.173801 0.117955 -0.476086 0.065894 -0.323572 0.564043 0.191519 -0.445771 -0.439551 -0.926393 0.702605 1.444053 1.873561 -0.899913 0.377295 -0.583612 -0.269042 0.447211 -0.482467 -0.754341 -0.575862 0.044664 1.549940 -0.558251 2.130659 -1.308489 1.939157 -1.321081 -0.199563 -0.700968 -0.136023 0.357938 -0.968315 0.061310 -0.062829 -0.403558 1.533606 -0.099993 1.398328 1.331480 -0.534611 0.239802 0.745991 0.041153
to -0.144875 -0.495020 0.883110 0.596198 -0.801467 -0.665935 -0.032479 -0.910490 -0.715658 0.819572 1.633461 0.100070 0.660369 0.033601 -0.556450 0.939129 0.539495 2.400259 1.073801 0.078659 -0.107157 0.126490 -0.076307 1.124118 -1.390144 -1.243048 -0.499767 1.528400 0.245052 0.131774 1.031859 -0.940524 0.571736 0.166518 -1.070626 -0.228761 0.300389 0.376882 0.344746 1.605150 -1.124729 -0.517967 -0.026751 -0.527295 -0.835374 1.353288 -1.744008 1.094138 -0.974604 -0.154650
is -1.509282 -0.707078 -0.177436 1.312044 0.472000 -0.218576 1.206353 -0.749201 -0.755309 -0.910144 -0.252720 0.211267 -0.198754 -0.180598 -0.568940 1.217607 -0.148413 -0.686030 0.679144 -0.136167 -0.571508 0.903703 -0.269690 0.359524 -0.753007 -1.160072 -0.068524 0.890595 -0.014712 -1.092516 0.671428 -0.742803 0.753716 0.029293 -1.394849 0.347240 0.302840 -0.309355 -1.491721 0.990211 -0.439158 -0.116501 1.032950 0.620939 0.584143 0.551647 0.663035 1.287920 -0.085846 -0.842586
, -0.394266 -1.192160 -1.126562 1.456017 0.579740 -0.354637 1.055630 0.124960 -0.445830 1.335673 -0.640131 0.624410 0.285727 0.255148 -0.750280 0.038957 0.077484 -0.417808 1.706909 0.397716 -0.425879 0.904597 0.370529 0.526562 0.035069 -0.863185 -0.383453 0.426722 0.383636 -0.017078 -0.260671 -1.284542 0.126620 -0.674362 -0.533302 0.024630 -0.831362 1.284584 -0.423454 0.192222 0.404744 -2.285640 0.617064 1.439986 0.550720 -0.831147 0.171892 0.773507 -0.409660 1.121621
it -1.029237 1.057529 -0.855685 0.835952 -0.498664 -1.116872 1.126783 -1.107339 -0.136896 0.349756 0.269855 0.803888 -0.232822 -0.142527 0.268717 0.698339 0.270846 0.036901 1.101387 -0.531329 0.383030 -0.380842 0.157748 -0.183058 -0.846397 -0.879933 -1.057415 0.163689 0.963909 -0.104321 1.123266 -1.580486 0.279925 -0.687133 -0.413393 1.499083 0.063903 -0.660158 0.371391 1.799216 -0.334669 -0.775581 -0.119577 -0.818998 -0.065138 0.897376 -0.549534 0.064566 -0.101985 -0.391700
of 0.517203 -0.200300 -0.995165 0.105163 0.766900 -0.416263 0.959534 -0.800684 -0.266298 -0.308784 -0.011870 1.597694 0.070673 -0.027830 -0.363445 -0.818401 0.096922 0.523266 1.665013 -2.227569 -1.142947 -0.120705 -0.067823 1.566120 0.246807 -0.791668 -0.000448 -0.214664 1.691421 -0.407835 0.601679 -0.769085 -0.483477 0.224422 -1.713966 -0.237257 0.066493 0.412292 -0.589484 0.629907 -0.238055 0.162407 1.933960 -0.623812 -0.605837 -0.333166 -1.452703 0.059878 -0.298533 0.782708
for -0.989925 0.328662 -0.429250 1.161509 -0.397248 0.567687 1.492319 -1.274600 -0.740100 0.333868 1.542285 0.209366 -0.006514 1.074818 -0.361833 0.335434 0.732620 1.769274 0.282465 -1.123848 0.749311 -0.322807 -0.211678 0.594171 -1.552541 -0.265994 -0.264870 -0.379840 1.349128 0.536117 1.032564 0.032364 0.962061 0.420728 -1.057774 -0.324968 -0.198197 -0.576632 -0.348131 -0.222318 0.085468 -0.906441 0.164375 -0.004857 1.104431 0.059132 0.890149 0.558387 -0.727295 0.211479
was -0.431960 -0.680340 -1.152115 0.769764 -0.596107 0.192906 0.837893 -0.880048 -1.133885 1.090077 -0.050355 0.197201 0.385696 0.587202 -0.345234 0.684209 0.289352 -1.355962 1.039716 0.305300 -0.535509 0.096410 0.371549 -0.189338 -0.589690 -1.522704 -0.893275 0.261339 0.523165 -0.296476 0.632938 -0.603256 0.212658 0.528682 0.356044 -0.634005 1.242454 0.042926 -0.558354 1.145606 0.595197 -1.452094 1.503039 0.114541 -0.667232 0.237406 0.974559 -0.362892 0.524599 0.631943
The -0.712402 -1.082270 -0.033705 1.314297 0.471842 0.082216 -0.181731 0.114549 -0.972554 -0.779895 -0.587512 0.009627 0.084607 0.340864 -0.466212 0.576543 -0.987667 -1.226950 0.678021 -0.778847 -0.451963 0.933427 -0.048214 -0.054171 -1.255895 -0.841065 0.210560 0.789198 0.327286 -0.622046 0.837922 -0.226324 0.720516 1.349017 -0.914472 -0.115779 0.663216 0.617129 -1.388834 0.651676 0.399441 -0.800416 1.602861 1.100689 -0.580249 0.218389 0.795662 0.565942 0.175444 0.198298
this -0.946812 -0.343777 -0.445716 0.581735 0.310257 1.441030 -0.433841 -0.784954 -1.388350 0.096363 0.730673 0.512783 0.109180 -0.052885 0.116413 -0.505641 0.683684 0.211004 1.362103 -0.265273 0.364391 0.325630 0.040560 0.309592 -0.023735 -0.934765 -0.387803 -0.439354 0.436156 -0.148162 -0.058799 -1.408330 0.550763 -0.597244 -1.542835 0.518243 0.795713 -1.065123 -0.392908 1.245073 0.347301 0.453881 0.237370 -0.960832 0.927660 0.266857 -0.185787 1.311153 0.271281 -0.010578
in 0.349978 -0.183357 -1.223601 0.743147 0.249005 0.225486 0.606406 -0.448232 -0.243759 -0.011725 0.640138 0.099093 0.474592 1.006380 -0.393639 -0.654219 -0.412742 0.850065 0.497452 -1.707673 -0.409168 0.324465 0.869296 0.225541 0.054488 -0.743131 0.644461 0.366060 0.848073 -0.621322 0.211493 -1.873519 -0.073351 -0.929859 -0.841155 0.366614 0.493014 1.158653 -0.106964 0.518248 0.561049 0.575527 0.137306 -0.322371 0.158938 -0.727567 -0.646471 0.851381 0.006050 0.780944
with -0.592674 -1.086134 -0.168823 1.115359 -0.913294 -0.030188 0.371306 -0.603886 0.205701 0.101846 0.403963 1.249509 -0.011631 0.706075 -0.619242 -0.021921 -0.214963 -0.163788 1.102211 -0.437476 -1.547760 -0.441212 0.666809 -0.308165 -0.124415 -0.640945 0.725407 0.346436 1.148966 0.077259 -0.188138 -1.146651 1.061265 -0.842734 -0.296757 -0.778004 0.622048 -0.756646 -0.336101 0.426730 -0.228142 0.352304 0.123692 0.328458 0.688992 -0.324501 -1.173559 0.278514 -0.130621 0.012244
that -0.390262 -0.082142 -0.926340 0.594093 -0.013396 -0.248287 0.497554 -1.159902 -0.664546 -0.323960 0.469761 0.421486 0.673461 -0.572483 0.308155 -0.276983 -0.237901 -0.547595 1.094588 -0.743693 -0.130077 0.199124 -0.560090 -0.259639 -0.817188 -0.717598 -0.345625 0.082351 0.109589 -0.251058 0.525677 -1.173531 0.543646 -0.100151 -0.519060 0.481642 0.472683 -0.084903 0.148726 1.133316 0.508939 -0.917893 0.473329 0.235790 0.044505 0.322947 -0.442879 0.561591 -0.112420 -0.170827
you 0.255878 0.469627 -0.170940 0.062703 0.788062 0.178437 0.491382 -0.938442 0.058108 -0.704664 0.783421 0.969854 1.350322 -0.295520 -0.369960 0.040070 0.391629 0.597912 1.506973 0.402511 0.212310 0.512655 -0.614311 0.123657 -1.416255 -0.879456 -0.539041 0.725623 -0.103766 -0.280886 0.993443 -0.913511 0.329878 -0.659538 -0.756933 1.395363 -0.114807 0.799284 -0.143167 0.269642 0.544890 0.056475 -0.980823 0.349059 0.881735 -0.118240 -1.291556 0.947312 -0.441345 0.049006
have 0.259114 -0.160049 -0.420369 1.387062 -0.849614 -1.217601 -0.270350 0.172331 -0.365434 0.107280 0.693211 0.870269 0.152705 -0.272942 0.609076 -0.290093 -0.580096 -0.071608 0.681721 -0.498348 0.204545 0.983887 -0.386016 0.164795 -0.804726 -0.463063 0.493750 0.788014 0.787285 -0.469334 0.136377 -1.820114 1.319280 -0.400524 -0.177745 0.506143 -0.697639 -0.618928 -0.195527 0.908709 0.842929 0.062193 -0.394248 -0.531871 0.159880 0.092308 -0.798728 0.568189 -0.410153 0.470890
but -0.471437 -0.216155 -1.128347 0.557666 -0.796120 -0.318795 0.386964 -0.323216 -0.421927 0.263716 -0.239768 0.404720 0.176136 -0.577423 -0.477847 0.191279 -0.115994 -0.586740 1.503627 0.045915 -0.311166 0.464477 0.049832 0.077409 -0.403557 -0.784136 -0.419026 0.162974 0.466567 -0.328193 1.060777 -0.929826 0.676624 -0.837625 -0.403390 -0.219334 -0.736801 -0.208754 -0.391407 0.859377 0.281328 -0.911980 0.217073 0.309798 0.611605 0.701360 -0.148394 -0.031718 -0.170619 0.042535
not -0.638117 -0.051514 -0.471357 0.102719 -0.472614 0.037455 0.725514 -0.492033 -0.599159 -0.013079 0.245841 0.434890 0.291697 -0.529155 -0.280832 0.810512 -0.092896 -0.491989 0.864154 0.301067 -0.065518 0.173954 0.341461 -0.333393 -1.188204 -1.037736 -0.184041 0.335092 0.097331 -0.378815 0.539983 -1.500029 0.728607 -0.879382 -0.547845 -0.572904 -0.417374 -0.467202 0.132623 1.237378 0.427527 -0.481464 -0.868076 -0.085112 0.766868 -0.254647 -0.454756 0.043457 -0.296832 0.070459
my -1.031881 -0.802678 -1.334363 1.190902 -0.053990 0.120042 0.571308 -1.198357 -0.326079 0.117832 0.170202 1.328566 -0.372221 1.325756 0.162081 0.727602 0.068662 1.059439 0.313454 -0.441389 0.122287 -1.031995 -0.094868 -0.057797 0.135529 0.138750 0.464627 -0.009540 0.462364 -0.094104 -0.455976 -0.993844 0.404869 0.103489 -1.088557 -0.129656 0.708375 -0.629317 0.482134 0.441425 0.094799 0.000981 0.310082 -0.876787 -0.290598 0.020240 -0.066295 0.954908 0.615313 0.169502
on -0.609054 0.121183 -0.127234 0.535583 -0.133880 0.287822 0.600403 -0.497404 -0.611471 0.118346 0.266039 0.790130 0.007086 0.123945 -0.216409 0.090734 0.830573 0.802877 1.210476 -0.957656 -0.196465 -0.712317 -0.227024 -0.224600 -0.034026 -0.445999 0.354818 0.369564 0.623950 0.648794 1.116491 -0.375647 0.246088 -0.105105 -0.917031 -0.384521 0.343057 0.689303 0.052376 0.361463 0.131216 -0.389072 0.322301 0.089088 -0.533939 0.227043 -0.932474 0.802427 -0.220576 0.770747
food 0.305397 -0.513517 -0.243753 0.932232 0.103008 -0.100381 0.878754 -0.218728 -0.744897 0.454241 0.424094 -0.027016 0.524705 1.107747 -0.737612 0.751588 -0.250749 -0.620123 0.951171 0.071291 -0.479343 0.562406 0.294457 0.381415 -0.471005 -0.690321 -0.627379 0.591541 0.691325 -0.291205 0.035518 -0.913540 0.202834 0.337087 -0.239997 -0.286920 0.078925 0.521967 -1.443156 0.258120 0.796145 -0.473856 0.607633 0.606050 0.030884 -0.484219 0.664623 0.387518 -0.329773 0.432346
had 0.132469 -0.733671 -0.629832 1.579476 -0.994523 -0.537812 -0.536492 0.038181 -0.299169 0.964894 0.454899 0.858104 -0.039760 0.421552 0.642000 -0.557583 -0.850340 0.111617 0.235513 -0.723716 0.060082 0.118572 0.041718 0.373585 -0.440539 -0.586741 -0.162801 0.037614 1.228232 -0.193294 -0.173500 -1.211805 1.231413 0.163920 0.203070 0.133697 -0.115807 -0.589536 -0.120580 0.756684 0.428627 -0.759039 0.516705 -0.545443 -0.126578 0.231190 -0.348257 -0.116415 -0.468728 0.464266
great -0.240761 0.025955 0.131847 0.934723 0.153015 0.268520 0.522135 0.101046 -0.709842 0.130314 0.169797 -0.598766 -0.005313 0.035386 -0.652522 -0.164887 0.348052 0.089198 0.672759 -0.320844 0.305645 0.380464 0.358975 0.357459 -0.598314 -0.698070 -0.823578 -0.070250 1.067136 -0.511802 0.255136 -0.736467 0.889610 -0.229139 -0.232757 -0.620804 0.130385 0.153478 -1.382485 0.356507 0.455312 -0.339481 1.070856 0.243849 0.627158 0.278815 0.865056 0.692052 -0.109093 0.107923
very -0.212744 -0.775517 -0.014345 0.747954 -1.188764 -0.431152 0.570698 -0.075795 -0.262473 -0.520979 -0.740072 -0.038703 -0.291057 0.480192 -1.581358 1.202689 0.663978 -0.153055 0.434293 0.309801 -1.201233 0.210366 0.996704 -0.933146 -1.122928 -0.659306 0.355252 0.555826 0.631203 -0.417336 0.123595 -1.408094 1.168423 -0.456240 0.233302 -0.620894 0.541663 -0.400133 -0.073513 0.065467 -0.073511 0.097334 0.281898 0.361035 0.394260 -0.006414 0.265916 -0.283681 0.055846 -0.464507
are 0.194465 -0.530800 -0.270862 0.582843 0.745221 -0.256500 0.961492 -0.610048 -0.132184 -1.282259 -0.865367 -0.056220 0.828400 -0.133273 -1.094982 0.579879 -0.609923 0.134831 -0.078015 -0.647122 -0.788806 0.687156 0.078694 -0.594454 -1.367917 -0.346396 -0.080885 0.502302 0.231069 -0.518379 0.106395 -0.744085 0.812440 -0.214007 -0.668808 0.335976 -0.420986 1.126151 -0.203750 0.142976 0.643382 -0.484427 -0.242642 1.198513 0.119873 -0.196201 -0.065983 0.515554 -0.441933 -0.373241
so -0.534094 -0.459764 -0.956859 0.468979 -0.919666 -0.222577 0.599215 -0.551871 -0.452606 -0.562117 -0.191544 0.547598 0.653680 -0.146701 -0.458980 -0.118561 0.765708 0.411378 0.614926 0.103526 -0.560740 0.030933 -0.069430 -0.327558 -0.883220 -0.528345 -0.256331 0.200530 0.144351 -0.376402 0.192104 -1.249078 0.964944 -0.500883 -0.083007 -0.524740 0.249246 -0.583052 0.044449 0.336900 0.575679 -0.472469 0.205138 0.629768 0.173385 0.341467 -0.023872 0.403040 -0.343613 0.133720
good -0.105187 -0.347264 -0.584764 0.460506 -0.245395 0.279369 0.967912 -0.381910 -0.841838 -0.007180 -0.256397 -0.177838 0.420581 0.527943 -0.889196 0.742322 0.166604 -0.538692 0.910023 -0.037249 -0.370674 0.399329 0.529991 -0.188717 -0.561035 -0.730637 -0.586984 0.039077 0.665999 -0.315405 0.243211 -0.975198 0.430496 -0.282631 -0.286200 -0.165602 0.323712 -0.208059 -0.878169 0.590370 0.707070 -0.214853 0.351433 0.448286 0.276061 0.103653 0.647715 0.123808 -0.023718 -0.140803
It -0.452743 0.428515 -0.257266 0.138220 -0.620780 -1.048587 0.981973 -0.454253 0.069159 -0.667466 0.006530 0.060711 -0.595918 -0.927072 -0.427860 0.625825 0.615152 -0.207955 0.071220 -0.028214 0.254915 0.013478 0.286061 -0.168060 -0.703686 -0.855816 -0.753773 0.269288 0.831931 -0.806568 0.299924 -1.240881 0.836836 -0.474397 -0.137735 0.128359 0.730819 -0.539465 0.396055 1.249993 -0.091729 -0.058615 0.337712 -0.643865 0.464078 1.161929 0.083897 -0.075196 0.056548 -0.555067
be -0.257505 -0.465980 0.083160 0.062240 0.046306 0.447221 -0.194584 -0.748816 -0.082049 0.440819 0.256235 -0.203205 0.477249 -0.658040 -0.360844 0.159041 -0.308382 -0.100074 1.048845 0.742212 -0.176518 -0.268755 -0.373861 -0.164860 -1.019740 -0.636458 -0.185008 0.713611 -0.701193 -0.345207 0.995858 -1.277411 0.517074 -0.965985 -0.649705 0.072651 -0.153134 -0.631380 0.411882 0.781334 -0.132862 -0.584788 -0.528833 -0.331680 0.665043 -0.751976 -0.630926 0.195799 -0.447369 -0.255068
! -0.203945 0.023231 0.308246 0.736130 0.484137 0.346178 0.614528 -0.101314 -0.570161 0.835532 0.228744 -0.966482 0.143680 0.453348 -0.551841 0.370464 -0.084113 0.128369 0.201293 -0.140996 0.136113 0.056030 0.342839 0.144115 -0.188171 -0.714620 -0.479129 0.297490 0.382183 -0.267526 0.290028 -0.535152 0.001772 -0.259869 0.054762 -0.305884 0.141186 0.375898 -0.952996 0.333326 0.107467 -0.300859 0.443584 0.198983 0.183076 -0.436023 0.697069 0.475699 -0.270077 0.187532
at 0.778037 0.957910 -0.048410 0.362734 0.234017 0.014030 0.323360 -0.448584 -0.471168 0.093305 0.636271 -0.118693 0.580111 0.796235 -1.022488 -0.082698 0.359497 0.381435 0.809182 -0.466225 0.001574 0.215459 0.858639 -0.645902 -0.636538 -0.434499 0.123464 -0.057788 1.186790 -0.081722 -0.317365 -0.749145 0.353675 -0.137655 -0.403828 0.284991 -0.058435 0.333028 -0.464671 0.411392 0.486822 -0.109571 0.085955 -0.255831 -0.634275 -0.851802 -0.209173 0.571960 -0.498671 0.583046
place -0.336540 -0.279689 0.568550 0.637542 0.388192 0.672642 0.294397 -0.233959 -0.860123 0.261086 0.335748 -0.442201 0.019898 -0.287095 -0.650270 0.193371 0.491919 0.106327 0.672535 0.146202 0.216128 0.275730 0.048081 0.487093 -0.285155 -0.814324 -0.670616 0.399083 0.409258 -0.327091 0.151168 -1.036531 0.447982 -0.228837 -0.904534 -0.060523 0.534850 -0.069418 -1.030340 0.954129 0.058174 -0.061464 0.657892 -0.474124 0.450135 0.185177 0.332394 0.986937 -0.095177 0.252710
they 0.263647 0.293883 -0.871241 0.088213 0.169118 -0.319437 0.517822 -0.733372 -0.148225 -0.206663 0.089179 0.532203 0.896996 -0.481438 0.080043 0.420454 -0.423567 -0.077140 0.688729 -0.357704 0.046530 0.368987 -0.189091 -0.144514 -1.173009 -0.352206 -0.676045 0.454914 0.356191 -0.136699 0.416546 -1.024998 0.523833 0.235591 -0.435443 0.595556 -0.429538 0.654145 0.456443 0.938213 0.951221 -0.958895 -0.938450 0.111083 -0.381584 0.261483 -0.510184 0.030232 -0.204258 -0.030131
we 0.083761 -0.119895 -0.910353 0.421842 -0.803782 0.357269 -0.685301 -0.301185 -0.445465 0.822636 0.018414 0.031679 0.593511 0.008249 0.150023 -0.571484 -0.032616 0.213824 0.850604 -0.473580 0.413888 0.033708 -0.195314 -0.238585 -1.371266 -0.300792 -0.318459 -0.216354 0.489080 0.139051 0.406626 -1.064185 0.475917 0.639720 -0.392210 0.438139 -0.518286 0.459132 0.908855 0.699678 0.660521 -2.050031 -0.014315 -0.173604 -0.568649 -0.510121 0.056811 -0.415457 -0.637083 1.392149
all 0.273003 0.197443 -0.552309 0.323684 0.100624 -0.431825 0.938848 -0.746818 -0.328325 -0.534624 0.061475 0.527407 0.169525 0.472687 -0.602748 0.360040 0.345092 0.241567 0.720013 -0.637321 -0.462509 0.010478 0.310988 -0.410642 -0.629641 -0.378918 0.153156 0.015685 0.755605 -0.158995 -0.343312 -1.069159 0.278170 -0.197948 -0.871437 0.293263 0.204889 0.063513 0.072304 0.656601 0.275503 0.065480 0.035946 -0.098118 -0.473768 -0.101038 -0.513842 0.638493 -0.338802 0.086508
n't 0.444689 0.147242 -0.306175 -0.425705 -0.174786 -0.224090 1.252295 -0.196836 -0.430422 0.308353 0.894160 0.620821 0.885901 -0.490074 0.506715 0.526559 0.298542 -0.808723 1.141081 0.795740 0.703572 0.406945 -0.351291 0.029548 -0.650596 -0.576271 -0.760167 0.728755 -0.120045 0.194542 0.186617 -0.955765 0.057780 -0.169661 0.364817 -0.152709 0.222554 -0.001834 -0.074129 1.114843 1.464808 -0.423208 -1.546818 -0.187226 0.725653 -0.197882 -0.435788 0.461617 -0.173469 1.149286
as -0.796991 -0.396111 -1.188070 0.334858 -0.166349 0.035598 1.056940 -0.472960 -0.214031 0.133742 -1.012008 0.363872 0.295101 0.671036 -0.520479 0.706910 -0.352873 0.374565 0.202695 -0.153701 -0.229505 -0.051590 0.214631 -0.204617 -0.719093 -0.185502 -0.544105 -0.165969 0.623264 -0.393602 0.152543 -1.364363 0.162105 -0.600985 -0.622278 0.999740 -0.079991 -0.209996 0.057778 0.561927 -0.252961 0.124401 0.151048 0.338988 0.415346 0.045658 0.600674 -0.565866 -0.316578 -0.800702
were 0.755587 -0.258678 -0.478682 0.252118 -0.616444 -0.136571 0.297881 -0.254176 -0.340444 0.331809 -0.605533 -0.272785 0.758422 -0.041766 -0.659614 0.188480 0.020010 0.002104 0.139892 -0.835280 -0.411333 0.060598 0.488610 -0.507965 -1.228169 -0.319844 -0.631323 -0.256430 0.732357 0.075410 0.263097 -0.937724 0.747043 0.378403 0.387225 -0.786162 -0.419159 0.798683 0.658933 0.186084 0.671602 -1.770989 0.234620 0.270788 -0.539139 -0.156454 0.378640 -0.929146 -0.741027 0.829863
would -0.413953 -0.017263 -0.104597 0.295181 0.055234 0.504054 -0.291391 -0.832274 -0.879921 0.758101 0.584859 -0.076070 0.090478 -0.996261 0.424662 -0.021992 0.073415 0.013142 0.975018 0.351723 0.828330 0.254948 -0.615291 0.433788 -0.703635 -0.528687 -0.426971 0.265109 -0.121653 -0.311415 0.717738 -1.025929 0.323301 -0.231253 -0.824039 0.696414 -0.476050 -0.928199 0.456083 1.293332 0.325239 -0.637425 -0.241564 -1.132033 0.671412 -0.118404 -0.184743 0.323625 0.115967 0.191338
laptop -0.623988 -0.502191 -0.093564 1.089559 0.317861 0.477728 0.048323 -0.197523 -0.739009 -0.076104 0.300390 0.317723 -0.401432 0.451089 -0.028980 0.206050 -0.013216 0.047410 0.237206 -0.288739 0.183085 0.238260 -0.014013 0.207191 -0.447378 -0.541722 -0.070429 0.100168 0.308405 -0.337243 -0.186452 -1.107945 0.682657 -0.052052 -0.948372 0.297371 0.597636 -0.680966 -0.548699 0.555488 0.189863 0.275464 0.387539 -0.478484 0.376821 0.110731 0.281938 0.836322 0.044144 -0.086741
has -0.257237 -0.322530 0.215795 1.076226 -0.453693 -0.863380 0.159511 0.096345 -0.311490 -0.125050 0.045756 -0.005718 -0.698787 -0.521720 -0.300339 -0.121942 0.005160 0.134944 -0.085670 -0.577284 0.091244 0.608565 0.041576 0.637655 -0.228317 -0.626558 -0.256183 0.263477 0.886029 -0.611349 -0.012897 -0.865541 1.017691 -0.153177 -0.423443 -0.014397 0.172634 -0.416734 -0.488094 0.965977 -0.247571 -0.039774 1.129328 -0.451672 0.040682 0.989620 0.213914 0.414099 -0.165496 -0.052853
This -0.862697 -0.429245 0.132814 0.737520 0.470658 0.837650 -0.073697 -0.250388 -0.849955 -0.191476 0.324304 -0.299520 -0.456847 -0.157230 -0.290439 0.120444 0.230739 -0.089936 0.321450 -0.083227 0.394771 0.156398 -0.164099 0.442237 -0.138677 -0.666976 -0.360529 0.144207 0.195969 -0.685001 -0.037511 -0.524216 0.783188 0.006338 -1.372708 -0.135648 1.136413 -0.586443 -0.939713 0.991611 0.004656 0.311703 1.106350 -0.601132 0.443914 0.635611 0.747793 1.194547 0.367814 -0.237936
computer -0.691172 -0.238871 0.091895 0.828225 0.200017 0.593173 -0.021567 -0.205584 -0.664904 0.002330 0.137637 0.080435 -0.230321 -0.094566 -0.097183 0.374373 0.106065 -0.073171 0.543888 -0.031432 0.229406 0.074739 -0.204369 0.099468 -0.411269 -0.577050 -0.263098 0.151560 0.238737 -0.260661 0.153901 -1.013181 0.683610 -0.128252 -0.901383 0.300796 0.548628 -0.335075 -0.501247 0.711420 0.074599 -0.032118 0.386991 -0.344467 0.245136 0.456191 0.201456 0.761632 0.036879 -0.124877
just -0.356102 0.037855 -0.734479 0.144953 -0.297449 -0.010021 0.890125 -0.750755 -0.254556 0.045371 0.184324 0.462199 0.375396 -0.155222 -0.408372 0.159621 0.443148 0.080623 0.479159 -0.054991 0.062273 0.012371 0.065278 -0.172437 -0.473510 -0.381576 -0.725400 -0.028675 0.452748 -0.087101 0.259786 -1.054704 0.324741 -0.581768 -0.239171 0.162610 0.263450 -0.302233 0.243464 0.661475 0.427030 -0.276335 -0.139742 -0.202992 0.380724 0.084243 -0.036959 0.068518 -0.330091 0.047849
service -0.099867 -0.742509 0.147430 0.940099 0.017466 -0.316374 0.526528 0.156878 -0.813847 0.268518 -0.432391 -0.270614 0.000441 0.451036 -0.634443 0.588380 -0.007079 -0.843481 0.621566 0.076146 -0.540533 0.590992 0.205840 0.168968 -0.443996 -0.787809 -0.534511 0.460253 0.363779 -0.229723 0.285625 -0.830693 0.229935 0.282169 0.343513 -0.434721 0.070416 0.135318 -1.246044 0.179433 0.331627 -0.308349 1.014544 0.548727 -0.041893 -0.098149 0.786522 -0.102947 -0.157719 0.255871
like 0.382958 0.267430 -0.497799 -0.193397 0.478086 -0.267897 0.558117 -0.544883 -0.195206 -0.421915 0.233307 0.597964 0.658181 -0.251613 0.331698 0.334804 0.207717 -0.215752 0.861995 -0.170230 0.147569 0.738153 -0.117382 0.268925 -0.648221 -0.448212 -0.580511 0.274823 0.172785 -0.282246 0.448225 -0.791174 0.378817 -0.084794 0.055274 0.552750 0.050742 0.548881 -0.069592 0.136965 0.483793 0.289932 -0.148404 -0.123968 0.373292 0.203221 -0.467132 -0.077242 0.066812 -0.172323
or -0.241038 -0.156643 -0.420331 0.370868 0.179357 -0.074104 0.699433 -0.285780 -0.137336 0.418104 0.798136 0.756006 0.645633 0.116941 0.125724 -0.208927 -0.110632 0.682166 0.557194 -0.416685 -0.352234 -0.114085 -0.080711 0.544083 -0.100865 -0.377045 -0.153587 -0.145219 0.516639 0.142371 -0.069468 -0.807519 0.282412 -0.751734 -0.193489 -0.332807 -0.164266 0.033549 -0.499330 -0.038188 0.030858 -0.160224 -0.306881 0.575860 0.528039 -0.238143 -0.900083 0.528399 -0.713492 0.215257
one -0.489537 -0.399635 -0.471485 0.532605 0.420942 0.582824 -0.123306 -0.729291 -0.298178 0.138453 0.376328 0.761552 0.404500 -0.094862 0.069339 -0.441246 -0.397995 0.235737 0.486456 -0.656685 -0.250764 -0.161232 -0.447002 0.456540 -0.141516 -0.409537 -0.253598 0.008800 0.273323 -0.198798 0.341834 -0.749405 0.188743 -0.055577 -1.233306 0.749596 0.221326 -0.327690 -0.287656 0.909255 -0.076184 -0.156851 0.523461 -0.502647 0.027029 0.218809 -0.491927 0.582035 -0.360326 0.020377
's -0.192651 0.491531 -0.219857 0.382399 0.373509 -0.414214 1.143679 -0.395852 -0.186782 -0.343648 -0.006327 -0.387602 -0.051288 -0.266653 -0.600793 0.180331 0.288443 -0.121921 0.108399 -0.109052 0.322928 0.257749 0.288061 -0.151141 -0.160738 -0.542992 -0.740895 0.229984 0.813187 -0.896828 0.004111 -0.865987 0.448503 -0.435963 -0.216260 0.137489 0.540337 0.395253 -0.505089 0.794239 0.130997 -0.500464 0.818534 -0.111175 0.369894 0.226614 0.487750 0.751550 0.062626 -0.088386
get -0.024446 0.064898 -0.159832 0.314125 0.112703 -0.059964 0.558077 -0.522563 -0.025294 0.191583 0.602502 0.653107 0.840646 0.103714 -0.204638 0.067321 0.210523 0.618229 1.054449 -0.103632 0.009217 -0.188016 -0.539277 0.378467 -0.422744 -0.392326 -0.403005 0.455372 0.245927 0.123444 0.649371 -0.706331 0.121583 -0.416228 -0.639411 0.549780 -0.006267 0.056033 -0.342947 0.408279 0.064538 -0.079935 -0.484317 -0.113487 0.404794 -0.003259 -0.919121 0.544632 -0.531571 0.172603
can -0.156330 -0.268446 -0.046986 0.098958 0.219259 -0.069441 0.149362 -0.917944 -0.024715 -0.554807 0.524481 0.574915 1.114704 -0.177239 -0.208844 0.257451 -0.043071 0.184393 1.177508 0.433210 -0.099791 0.043165 -0.760346 -0.037186 -1.027931 -0.308768 -0.318074 0.917121 -0.421216 -0.394421 0.622926 -0.655808 0.265996 -0.169322 -0.902911 0.979553 0.021515 -0.366015 0.169081 0.884108 0.111301 0.050084 -0.707931 -0.144919 0.328760 0.146384 -0.979882 0.759126 -0.331793 -0.160364
me -0.162015 0.071038 -0.593781 0.254119 0.054441 -0.269019 0.402612 -1.073159 0.242641 0.059088 0.362670 0.664916 0.273905 -0.335993 -0.032574 0.677064 -0.087574 0.606233 -0.074957 0.005362 0.074779 -0.543577 -0.175574 0.227087 -0.842230 -0.402826 -0.800449 0.298515 0.458944 -0.265641 0.020025 -0.795839 0.782994 -0.001236 -0.471836 0.416933 0.343950 0.165604 0.552484 0.965183 0.027325 -0.374829 -0.545428 -0.648780 -0.348613 0.762353 -0.511969 -0.030851 0.018610 -0.458140
from -0.427203 -0.128788 0.006917 0.645405 0.196564 0.208509 -0.382884 -0.244119 -0.296607 0.273321 0.211813 0.423884 -0.068282 -0.028994 -0.027644 -0.116799 0.404525 0.419727 0.857836 -0.054586 0.041237 -0.141223 -0.249550 0.338105 -0.183175 -0.342451 0.053411 0.146574 0.129382 0.115436 0.526488 -0.640767 0.198113 -0.205979 -0.543696 0.121339 0.306414 -0.096380 -0.066771 0.286264 -0.119062 -0.068140 0.458800 -0.418887 0.059552 0.141948 -0.407267 0.423678 -0.007773 0.134640
there -0.108364 -0.528666 -0.051824 0.786571 -0.496047 -0.119086 0.416924 -0.785278 0.153667 0.481476 0.138386 0.140993 0.572343 -0.162088 -0.363634 -0.279047 0.115528 0.504186 0.326095 -0.093893 -0.251159 -0.244634 -0.157544 -0.395777 -0.629916 -0.344412 0.146526 0.771884 0.505134 -0.085549 0.380524 -0.626915 0.609632 -0.173645 -0.185197 0.373715 -0.043660 0.075737 0.270486 0.816915 0.208131 -0.818418 -0.232672 -0.232872 -0.133850 -0.497871 -0.508838 0.481799 -0.370076 0.675423
an -0.078081 -0.084182 0.013960 0.093902 0.167272 -0.090766 0.269174 -0.289116 -0.275019 0.206449 0.361469 0.081152 0.090064 -0.200162 -0.390797 0.107507 -0.107797 0.184955 -0.054116 -0.056653 -0.172698 0.195619 -0.335024 0.815754 -0.496383 -0.347830 -0.628642 0.113672 0.434118 -0.246436 0.196296 -0.389700 0.460182 -0.079516 -0.385629 0.081731 -0.255323 0.076692 -0.696199 0.338431 -0.251339 -0.226403 0.497976 0.066916 0.215182 0.460143 0.274360 0.101198 -0.575905 -0.351739
about -0.096250 -0.286276 -0.431214 0.091194 -0.152174 0.023284 0.444885 -0.562799 -0.609683 -0.141966 0.840088 0.356375 0.820068 0.163263 0.343393 -0.005280 -0.301917 -0.175864 0.436896 -0.111658 -0.138463 0.633209 -0.344560 0.315581 -0.025926 -0.321689 -0.353232 0.280650 0.065474 -0.157307 -0.177377 -0.623276 0.155903 0.084555 -0.416484 0.315492 0.190168 -0.560847 -0.502409 0.868884 0.614443 0.228327 -0.134790 -0.202336 0.140402 0.354293 -0.064910 0.762133 -0.291227 -0.028829
if -0.122512 -0.225294 -0.654789 0.089358 0.418557 0.403578 0.362756 -0.525354 -0.199245 -0.022062 0.433141 0.530142 1.099914 -0.186097 -0.163758 -0.008310 0.028315 0.551827 0.786692 0.425962 0.162134 0.401412 -0.172781 0.237321 -0.991187 -0.544473 -0.636938 0.331008 -0.054500 -0.223337 0.377759 -0.771063 0.359731 -0.428157 -0.596206 0.547114 -0.307579 0.634877 0.097995 0.407544 0.534806 -0.364451 -0.925248 0.470561 0.691520 -0.285414 -0.490206 0.604378 -0.415350 0.075020
do 0.288522 -0.089514 -0.443711 -0.240468 0.042907 -0.215237 1.009737 -0.568779 -0.241441 -0.289600 0.555688 0.795533 0.966155 -0.125194 0.188864 0.535677 0.115231 -0.253261 0.928384 0.348731 0.010181 0.359729 -0.311647 0.091802 -0.523967 -0.332327 -0.414676 0.594590 0.082102 -0.049721 0.024417 -0.908834 0.209898 -0.246396 -0.319380 0.177557 -0.054045 -0.078036 -0.019498 0.791210 0.871918 0.001876 -1.055853 -0.005047 0.510982 -0.072504 -0.784097 0.510201 -0.338265 0.503518
restaurant -0.006317 -0.259310 -0.125880 0.488474 0.250115 0.504172 0.135868 -0.118066 -0.737664 0.259814 0.087127 -0.154702 0.082667 0.356199 -0.381988 -0.044153 0.020664 -0.113624 0.629390 -0.450948 -0.178833 0.361452 0.412178 0.121731 0.088484 -0.606878 -0.143031 -0.020035 0.486003 -0.184170 -0.062423 -0.886766 0.219741 -0.176969 -0.539775 -0.265671 0.361943 0.146069 -0.755670 0.560178 0.296101 0.058219 0.682324 -0.122468 -0.081841 -0.125734 0.065651 0.466648 0.012460 0.366535
only -0.621981 -0.279047 -0.444366 0.921312 -0.002546 0.537212 -1.025883 -0.277930 -0.372110 -0.653182 0.480399 0.607070 0.516144 0.046249 0.465281 -0.758561 -1.149009 -0.261877 0.250990 -0.804702 0.025925 -0.003802 -0.444521 -0.094357 -0.752655 -0.301527 -0.046889 0.343302 0.184883 -0.266742 0.881418 -0.188590 0.799347 0.811888 -0.797261 0.655897 0.420229 -0.291358 -0.482372 0.851653 0.440572 -0.452891 0.567896 -0.000491 -0.145443 0.723524 -0.169565 0.437482 0.083121 -0.168386
no -0.012240 -1.055951 -0.078797 0.712836 -0.308926 -0.468062 0.501600 -0.522912 0.590408 0.299375 -0.099745 0.487802 0.373560 -0.458763 0.071629 -0.750362 -1.137435 -0.209127 -0.221270 -0.541954 -0.915828 0.177898 -0.420295 0.508314 0.242747 -0.443855 -0.246230 0.048277 0.574673 -0.437227 -0.520939 -0.389117 0.502024 -0.533406 -0.298233 0.468000 -0.155218 -0.392659 -0.421222 1.014679 -0.528156 -0.411120 0.336980 0.198871 0.215488 0.228440 -0.616714 0.394285 -1.146908 -0.229666
... 0.310278 0.159783 -0.298402 0.341476 0.509608 0.451873 0.544080 -0.465309 -0.410181 0.459430 -0.252370 -0.478797 0.623195 0.358261 -0.631997 0.344778 -0.061840 -0.242032 0.678366 -0.094205 0.047782 0.037747 0.344405 -0.373441 -0.485646 -0.596163 -0.632640 0.155351 0.442024 -0.134436 0.208303 -0.882058 0.011954 -0.232351 -0.174463 0.351071 0.107520 0.576467 -0.651810 0.418222 0.637938 -0.429459 0.109524 0.017292 -0.125159 -0.639753 0.340128 0.150251 -0.112913 0.204993
out -0.115859 0.192140 0.015462 -0.076737 0.409463 0.267812 0.506100 -0.846260 -0.258371 0.220452 0.367213 0.316679 0.201132 -0.374047 -0.301755 0.107622 0.547588 0.291976 0.759936 -0.136224 -0.299291 -0.498408 -0.112043 0.111207 -0.059334 -0.570097 -0.259279 0.175231 0.173416 0.062739 0.399787 -0.449265 -0.366888 -0.155294 -0.810997 0.247462 0.557592 0.070678 0.093074 0.960312 -0.129617 -0.112619 0.137995 -0.575550 -0.378112 -0.089599 -0.719238 0.461588 -0.016341 0.284170
- -0.015270 -0.277960 -0.336784 0.221951 0.014941 0.126303 0.479682 -0.139835 -0.521435 0.093971 -0.169922 0.046944 0.212870 -0.213579 -0.296541 0.111460 0.008156 -0.498399 0.472624 -0.480449 -0.493750 0.508890 0.298191 0.132986 -0.159304 -0.658285 -0.546983 -0.010753 0.400128 -0.149882 0.138074 -0.778293 0.265805 -0.152804 -0.262789 -0.193677 0.209623 0.259234 -0.469978 0.832305 0.196838 -0.189511 0.605420 0.157750 0.062480 0.472220 0.112757 0.074055 -0.305530 0.039304
which -0.286064 -0.186533 -0.698468 0.420380 0.008988 0.122278 0.308022 -0.304668 -0.355581 0.130467 -0.009373 0.203933 -0.033656 -0.091926 -0.139256 -0.076629 0.026411 -0.043966 0.601440 -0.369291 -0.077344 0.170804 0.154386 0.008714 -0.204967 -0.532552 0.139346 -0.161297 0.421277 -0.306701 0.156326 -0.432407 0.565790 -0.306940 -0.435261 -0.273476 -0.063700 0.362204 0.054409 0.312451 0.199676 -0.686562 0.486499 0.358786 0.215382 -0.064348 -0.129972 0.134451 0.060940 0.121847
i -0.049263 -0.093271 -0.929143 0.221190 -0.597288 0.093062 -0.256556 -0.707351 -0.443083 0.360308 0.331697 0.655136 0.209097 -0.070054 0.595069 -0.047255 -0.030441 -0.696127 1.041121 0.217471 0.542592 0.154248 -0.409406 -0.017679 -0.147196 -0.112361 -0.278225 -0.121468 0.074798 -0.235778 -0.188890 -1.142935 0.048026 0.011677 -0.583305 0.894205 -0.120842 -1.003464 0.461738 1.032487 0.628883 -0.399078 -0.218288 -0.760176 0.183657 0.095602 -0.199376 0.045692 0.316917 0.005978
time -0.407111 0.759036 -0.207228 0.643439 -0.615567 -0.273752 0.032108 -0.181791 0.164152 0.594340 0.132871 0.011366 0.262867 0.632618 -0.314632 -0.112337 0.383279 0.914868 0.360078 -0.565872 0.372436 -0.750845 -0.076237 -0.077678 -0.594240 -0.357148 0.104978 0.127160 0.749230 0.032169 0.532849 -0.572991 0.027790 -0.058692 -0.285322 0.353521 0.087121 0.116856 -0.302552 0.241189 -0.396056 -0.249698 0.176051 -0.199389 -0.629972 -0.089583 -0.214319 0.030289 -0.332661 0.018228
will -0.268492 0.016666 0.342265 0.302742 0.387871 0.562517 -0.537459 -0.306902 -0.148858 0.265752 0.244754 0.269883 0.272863 -0.536150 -0.134260 -0.047429 -0.003323 0.275225 0.784478 0.345405 0.309183 -0.110957 -0.354522 -0.077143 -0.896141 -0.333479 -0.204971 0.408559 -0.187860 0.041832 0.628952 -0.921665 0.412666 -0.450826 -0.727670 0.648477 -0.281505 -0.419290 0.024218 0.483778 0.249983 -0.114634 -0.827946 -0.593991 0.582500 -0.556666 -0.732311 0.431251 -0.338489 0.234259
go -0.250024 -0.063012 0.725309 0.481900 0.259538 0.487763 0.286183 -0.583665 -0.164382 0.944085 0.435846 -0.380655 0.256740 -0.431966 -0.265454 0.158863 0.507095 0.348549 0.726003 0.748566 0.481428 -0.107152 -0.048485 -0.298948 -0.683547 -0.450054 -0.085932 0.960962 -0.032263 0.260450 0.483486 -0.750020 0.104468 -0.172543 -0.216848 0.618668 -0.009580 -0.419014 0.148104 0.767033 0.426976 -0.341141 -0.955973 -0.831108 0.504592 -1.133736 -0.289004 0.512612 -0.134297 0.719695
up -0.338504 0.077387 0.118902 0.142283 -0.268831 -0.457113 0.636444 -0.547705 0.176739 -0.164166 0.135517 0.175491 -0.184192 -0.073871 -0.369286 0.844301 0.176155 0.436735 0.418869 -0.156079 -0.362715 -0.243115 0.067769 -0.147152 -0.612441 -0.412362 -0.114063 0.630027 0.123060 0.098405 0.571832 -0.361454 0.118331 -0.213375 -0.246699 0.381353 0.331076 -0.016455 0.285363 0.588739 -0.379907 0.233499 -0.371023 0.064546 0.137906 0.475357 -0.651441 0.006651 -0.117804 -0.509192
really -0.264441 -0.158597 -0.242296 0.144050 -0.314689 -0.247537 0.509254 -0.407222 -0.343501 -0.271008 -0.243871 0.329269 0.024171 -0.264319 -0.165094 0.701179 0.384187 -0.590180 0.717341 0.516858 -0.150269 0.548764 0.140078 -0.083544 -0.420161 -0.409682 -0.412378 0.379846 0.145720 -0.356812 0.306137 -0.797234 0.490033 -0.423423 0.058701 0.226935 0.232359 -0.409730 -0.137159 0.456677 0.180139 0.413234 -0.046858 -0.223001 0.656399 0.386663 0.022933 -0.167945 0.480413 -0.502812
more -0.323840 0.130137 -0.580168 0.200589 0.093255 -0.052570 0.395468 -0.555650 -0.527402 0.232261 0.539477 0.305553 0.713809 -0.294908 0.417717 -0.465427 0.133947 0.446626 0.700560 -0.556436 0.085940 0.035081 -0.806363 0.484011 -0.032526 -0.350029 -0.251218 -0.241585 -0.155352 0.019469 0.992672 -0.651747 0.298367 -0.864435 0.090447 -0.071544 -0.241826 -0.050239 -0.096533 -0.336113 -0.077392 -0.413488 0.592709 0.071590 0.641406 0.178939 -0.411663 0.099552 -0.507833 -0.268808
-RRB- -0.193937 0.058117 -0.637727 0.663603 0.402047 0.125806 0.666790 -0.239283 -0.429705 0.541430 0.325851 0.084668 0.485827 0.316448 0.040956 -0.241488 -0.176494 0.439844 0.359165 -0.912212 -0.215817 0.119796 0.409615 0.160625 0.023615 -0.604174 0.181036 -0.343189 0.489882 -0.091798 0.327240 -0.549719 0.281504 -0.763381 0.279619 -0.573054 -0.121627 0.678075 -0.485610 -0.308719 0.108849 -0.299172 0.466570 0.728861 0.385234 -0.592705 -0.319598 0.044253 -0.286691 0.053723
We 0.493758 0.084648 -0.060301 0.387231 -0.771018 0.120692 -0.633425 0.011713 -0.318406 0.621049 0.277078 0.050654 0.224609 -0.068181 0.337857 -0.475429 0.098642 0.111818 0.442953 -0.424197 0.539987 0.158911 0.025968 -0.468318 -1.143976 -0.066694 0.120927 0.024097 0.478999 0.299910 0.121567 -0.861839 0.595319 0.512805 0.145537 0.111932 -0.282515 0.043071 0.875820 0.330448 0.699097 -1.123205 -0.440789 -0.502538 -0.349903 -0.545795 -0.310382 -0.291406 -0.500056 1.136725
when -0.406155 0.202297 -0.806901 0.311503 -0.267343 -0.151341 -0.003062 -0.520646 -0.094746 -0.045591 0.042445 0.529815 0.182292 0.153376 -0.056975 0.070997 0.161945 0.081592 0.647739 -0.309071 0.092504 -0.215745 -0.156388 -0.168846 -0.672971 -0.285771 -0.185409 -0.018404 0.304341 -0.097468 0.416472 -0.768660 0.171692 0.106383 -0.444449 0.477478 0.139567 0.315265 0.395915 0.345084 0.216504 -0.688820 -0.022098 0.029814 -0.141389 0.126017 -0.173958 0.044733 -0.016186 0.077762
been 0.306949 -0.428002 -0.000998 1.066781 -1.313554 -1.115163 -0.257895 0.170268 0.054216 0.225805 0.163233 0.213664 -0.661865 -0.414829 -0.139103 -0.604463 0.361420 0.352899 -0.018006 -0.329977 0.250520 0.549362 0.327382 -0.009777 -0.383689 -0.408278 0.339145 0.440443 1.094494 -0.357659 -0.178539 -1.117782 1.034043 -0.250777 0.014901 0.106400 -0.409963 -0.710936 0.317789 0.661326 0.395887 -0.517567 0.089062 -0.645315 -0.193685 0.124865 -0.112638 -0.092218 -0.352307 0.674440
-LRB- -0.280611 -0.186061 -0.901678 0.706717 0.279001 0.035486 0.575730 -0.173521 -0.453333 0.369554 0.248500 0.431981 0.309797 0.307386 0.179075 -0.118885 -0.308391 0.076114 0.381598 -0.774860 -0.280304 0.281476 0.365381 0.086617 -0.093429 -0.493476 0.290422 -0.383965 0.409073 -0.170754 0.221543 -0.465811 0.356124 -0.437601 0.212046 -0.523227 -0.169884 0.665438 -0.338405 -0.304751 0.211413 -0.598546 0.674136 0.869181 0.329716 -0.418608 -0.176264 -0.093850 -0.081174 0.146400
use -0.350116 0.115481 -0.117836 0.191782 -0.416575 -0.345071 0.349326 -0.678865 0.028996 -0.469006 0.365773 0.684863 0.007452 0.186563 -0.252867 0.540499 0.473715 0.529170 0.599141 -0.025560 -0.057506 -0.117799 0.028298 -0.084092 -0.612418 -0.169551 0.086703 0.390458 0.222636 -0.127601 0.303766 -0.493453 0.202828 -0.025840 -0.836747 0.366341 0.245757 -0.651430 0.450607 0.473745 -0.293510 0.428847 -0.363727 -0.610147 0.245099 0.299107 -0.615442 0.440930 -0.039032 -0.211026
your -0.045464 0.646658 0.157437 -0.090855 0.946981 0.381321 0.631719 -0.309047 -0.162622 -0.136691 0.587114 0.311511 0.560694 0.244979 -0.379204 0.512949 0.581321 0.852586 0.674528 -0.310953 0.191804 -0.200361 -0.051388 0.169299 -0.331561 -0.350954 -0.465235 0.054615 0.203768 0.259482 0.290595 -0.477047 -0.135582 -0.516053 -0.591134 0.242026 -0.015003 1.108173 -0.490171 -0.262714 0.069795 0.438606 -0.418852 0.267775 0.221505 -0.281037 -0.753749 0.677237 -0.571365 0.056994
back -0.398278 0.005953 0.838846 0.580840 -0.192991 0.320523 0.115722 -0.630910 0.129464 1.436820 0.451571 -0.608931 -0.070855 -0.131219 -0.410535 0.359867 0.250841 0.994851 0.500910 0.664365 0.254129 -0.772600 0.153744 -0.356924 -0.629634 -0.360343 0.352475 1.026085 -0.020273 0.506996 0.749521 -0.756304 -0.051010 -0.331274 -0.097310 0.412594 0.100129 -0.558911 0.625264 0.648468 -0.285492 -0.253173 -1.068969 -1.078937 0.017208 -1.228009 -0.552601 0.130553 -0.171984 0.407722
by -0.396965 -0.191940 -0.475724 0.234030 -0.216860 0.291326 -0.094956 -0.320774 -0.424376 0.262535 -0.069406 0.102346 0.167480 -0.412613 -0.203632 -0.493873 0.420837 0.147988 0.618757 -0.386511 -0.301422 -0.088376 0.108480 -0.018417 -0.123143 -0.530527 0.115867 -0.191470 0.142540 -0.029316 0.183098 -0.808224 0.260455 -0.492994 -0.318157 -0.630197 0.312429 -0.162810 0.351482 0.334139 -0.008187 -0.353570 0.445834 -0.039907 -0.364537 0.002332 -0.350088 0.066072 -0.177648 0.340098
it. -0.350360 0.131558 -0.366196 -0.059601 -0.633212 0.028839 0.165671 -0.477976 -0.285215 0.112453 0.604749 0.832589 -0.035806 0.149405 0.427650 0.211709 0.436891 -0.054955 0.904711 0.163529 0.073202 -0.055539 0.021875 -0.308888 -0.128214 -0.342726 0.429099 0.146586 0.061057 0.193361 0.077145 -0.610679 -0.143371 -0.432524 -0.503385 0.240962 0.203268 -0.585289 0.628522 0.750977 -0.037186 0.260991 -0.786778 -0.765711 0.213165 -0.081474 -0.970651 0.305178 0.033691 0.173696
than -0.207044 0.276111 -0.456002 0.179408 0.062401 -0.009309 0.685420 -0.675963 -0.527973 -0.011353 0.875346 0.176071 0.797018 -0.022990 0.370595 -0.697407 -0.168216 0.543030 0.144409 -0.873147 -0.044117 0.125081 -0.795409 0.487308 0.367376 -0.047396 -0.146713 -0.614798 -0.199854 0.141151 0.514186 -0.160825 0.211313 -0.763440 0.079213 0.054367 -0.226190 -0.189425 -0.395208 -0.594964 -0.030339 -0.359339 0.779311 0.297973 0.613362 -0.018603 -0.238072 0.201266 -0.767633 -0.586132
what -0.196310 0.166193 -0.505102 -0.115182 -0.089270 0.127050 0.558738 -0.746798 -0.135475 -0.031150 0.657067 0.600406 0.602524 -0.426586 0.010029 -0.040390 0.186068 0.098075 0.715118 0.268347 0.186658 0.146311 -0.476391 0.263538 -0.658122 -0.428166 -0.654374 0.107860 0.118462 -0.160925 0.589066 -0.185188 0.212448 -0.204411 -0.494626 0.393966 -0.288772 -0.102119 0.165668 0.620868 0.432924 -0.606721 -0.498320 -0.121531 0.599336 0.175118 -0.276369 0.349478 -0.304620 0.135081
love -0.161491 -0.433604 -0.406615 0.193278 -0.256528 0.301806 -0.187024 -0.487352 -0.397845 0.326716 0.283860 0.581501 -0.246936 0.460015 0.386633 0.095763 0.239029 -0.571481 0.625976 0.318983 -0.052121 0.285431 0.194010 -0.135092 0.523000 -0.032669 0.386503 0.035482 -0.034668 -0.017245 -0.621258 -0.769034 -0.235774 0.017345 -0.440642 0.418775 0.438239 -0.857597 0.133004 0.456502 0.304912 0.473086 -0.170953 -0.787617 0.181762 -0.273125 -0.088443 0.415287 0.439379 0.097379
-- 0.150707 -0.268055 -0.176431 0.430273 0.081676 0.129776 0.072868 -0.044520 -0.375848 0.071453 0.134550 0.027344 0.134841 0.251552 -0.080155 -0.010110 -0.030222 -0.429115 0.418598 0.097964 0.221287 0.374687 0.116840 0.092992 -0.124641 -0.257060 -0.255714 0.389634 0.415465 -0.452300 -0.132475 -0.440226 0.283021 0.334951 -0.350491 -0.032268 0.391069 0.125250 -0.414508 0.518192 0.639346 -0.245637 0.395263 -0.277134 -0.030600 -0.004198 0.414432 0.382960 0.358623 0.438721
am -0.377003 -0.734846 -0.523266 0.265411 -1.186612 -0.293158 -0.267647 -0.239916 -0.076997 -0.050457 -0.136883 0.693679 -0.151296 0.276545 -0.252092 0.314812 0.365517 -0.203423 0.716737 0.428808 -0.733532 -0.102276 0.453076 -0.700841 -0.273897 -0.286442 0.823949 0.312302 0.124722 -0.234954 0.006062 -1.122977 0.503896 -0.509675 0.148934 -0.434785 0.256258 -1.034175 0.829128 0.175338 0.005025 0.239841 -0.211853 -0.210984 0.288652 -0.223540 -0.509362 -0.389106 0.491587 -0.251365
best 0.184349 -0.453574 -0.120508 0.857345 0.485738 0.128540 -0.579205 0.119260 -0.583648 -0.016924 0.408661 -0.069795 -0.024076 0.404936 0.307357 -0.549947 -0.745799 -0.287773 0.232586 -0.812183 0.170565 0.773899 -0.024871 0.249809 0.030532 -0.435707 0.557769 0.205359 0.180003 -0.392847 -0.300413 -0.640239 0.104506 0.465476 -0.806610 0.602780 0.241710 0.146772 -0.596671 0.477109 0.409266 0.201367 0.590030 -0.173757 -0.562790 -0.438538 0.011113 0.733071 -0.200711 0.456445
their 0.042225 -0.159089 -0.170899 0.134301 0.474629 -0.066297 0.564711 -0.278225 -0.379054 0.441599 0.152561 0.014501 0.175797 0.464947 -0.075121 0.308638 -0.004732 0.039955 0.556536 -0.170998 -0.162073 0.144074 0.045898 0.175775 0.302573 -0.160592 0.006207 0.106937 0.234552 0.086752 0.077862 -0.307473 -0.384549 0.091178 -0.225290 0.161650 -0.038160 0.473940 -0.344303 0.096477 0.201986 0.021058 0.193109 0.119591 -0.327395 -0.392038 0.114598 0.245931 -0.019092 0.256131
even -0.333045 0.190530 -0.755566 0.228547 -0.022358 -0.155240 0.518246 -0.301610 -0.163958 0.018961 0.230519 0.601341 0.215410 -0.330439 0.426563 0.399572 0.086008 -0.342809 0.442591 -0.027966 0.113703 -0.081929 0.236382 -0.064817 -0.445154 -0.564750 -0.195750 0.075314 0.277124 -0.108799 0.401623 -0.577654 0.319204 -0.323423 0.218002 -0.403916 0.227937 0.061203 0.397573 0.506353 0.407630 -0.569665 -0.441462 0.066444 0.319872 0.267031 -0.394490 -0.007929 0.176093 0.384561
never 0.156960 -0.299297 0.294639 0.822014 -0.501230 -0.062411 -0.984143 0.134902 -0.044599 0.801807 0.244554 0.436030 0.117127 -0.352551 0.596533 -0.595000 -0.206362 0.187762 0.356183 0.325879 0.596473 0.142465 -0.342983 0.100622 -0.389342 -0.183847 -0.163977 0.470943 0.202127 0.099813 0.266889 -0.902590 0.762356 -0.193035 0.247629 0.601224 -0.500038 -0.723401 0.083460 0.364309 0.524244 -0.199469 -0.516613 -0.979834 0.467665 -0.185240 -0.559497 -0.068814 -0.077632 0.457044
here -0.134334 -0.143301 0.227335 0.871913 -0.239810 0.071515 0.204357 -0.244197 -0.080707 0.478258 0.482556 -0.081273 0.110855 0.550682 -0.403354 0.239130 0.251512 0.569559 0.218138 0.220095 0.283296 -0.280015 0.192647 -0.294835 -0.345861 -0.009880 0.324367 0.847325 0.568256 0.010045 0.322276 -0.197277 0.494124 0.071749 -0.152728 0.087192 0.010266 0.006064 -0.238177 0.183512 0.481881 -0.233638 -0.438354 -0.387892 0.111315 -0.582405 0.108140 0.581912 0.104521 0.667640
because -0.306786 0.102103 -0.777728 0.260290 -0.041087 0.058585 0.411783 -0.588083 -0.243447 -0.242614 0.149261 0.648490 -0.037526 0.118775 0.061463 0.120845 0.020889 -0.134890 0.285372 -0.379599 -0.110446 -0.112890 0.301693 0.055712 -0.165400 -0.278489 -0.418688 -0.147980 0.524235 -0.152908 -0.004171 -0.537754 0.220860 0.032075 -0.635501 0.196004 0.274309 -0.191020 0.158818 0.711714 0.223888 -0.173523 0.086653 -0.296144 -0.017738 0.337921 -0.106071 0.249625 0.211016 0.049741
too -0.186274 -0.198038 -0.212096 -0.194795 -0.347927 -0.247016 0.940512 -0.104227 -0.395447 0.211992 -0.361861 -0.641427 0.186711 -0.193253 -0.500766 0.719834 0.289496 -0.066905 0.042705 0.269248 -0.262374 0.171098 0.430879 -0.020093 -0.353668 -0.664378 -0.290022 0.106275 -0.061781 -0.287587 0.346324 -0.405625 0.069953 -0.557445 0.266318 -0.879776 -0.199405 -0.229229 -0.251618 0.341029 -0.046802 -0.286315 -0.047420 0.301548 0.198642 0.039108 0.531409 -0.233133 -0.320833 -0.103445
any 0.093524 -0.155197 0.017695 0.414559 -0.105597 -0.205754 0.137720 -0.040413 -0.099778 0.207358 0.868106 0.519895 0.263798 0.000915 0.406806 -0.434282 -0.645821 0.182240 0.103087 -0.546953 -0.169764 0.342052 -0.045079 0.639507 0.150379 -0.333447 0.178823 -0.186866 0.519561 -0.101778 -0.595304 -0.939621 0.479194 -0.678514 -0.240146 -0.019238 -0.299843 -0.621835 -0.335347 0.419547 0.090811 0.388342 -0.491910 -0.090535 0.403517 -0.235860 -1.023764 0.598866 -0.797607 0.063206
battery -0.754955 0.322360 0.182645 0.102795 0.196254 -0.302532 -0.171853 -0.084314 -0.119429 -0.972778 -0.379838 -0.137248 -0.023584 -0.215317 -0.474710 0.095887 -0.470358 -0.222982 -0.318658 -0.114878 -0.154967 -0.235854 -0.351188 0.213875 -0.667447 -0.038663 0.041198 -0.059795 -0.106086 -0.563450 0.508323 0.089158 0.089958 0.254455 -0.338115 -0.159907 -0.077351 0.127952 -1.072112 0.136389 -0.436549 -0.134481 0.940318 0.499038 -0.251335 0.506149 0.328129 0.257214 0.141428 -0.579865
our 0.270223 0.183696 -0.196126 0.256734 -0.308077 0.064868 0.177257 -0.081138 -0.128466 0.797764 0.381841 -0.062644 0.123976 0.653977 -0.204341 -0.014680 0.261307 0.601211 0.425899 -0.565954 0.040737 -0.460330 0.108741 0.304801 -0.191082 -0.178534 -0.230607 -0.235148 0.578613 0.449040 0.280621 -0.074838 -0.214335 0.498777 -0.096276 -0.591017 -0.098905 1.099775 0.320598 -0.112749 0.002755 -1.281670 0.505747 0.224800 -0.757829 -0.325973 -0.110827 -0.271737 -0.587856 1.084351
screen -0.521468 -0.177300 0.123756 0.587797 0.112149 -0.155150 -0.134998 0.279665 -0.265838 -0.360432 -0.177117 -0.030067 -0.348975 -0.003626 -0.073699 0.244319 -0.230704 -0.217038 0.208497 -0.457723 -0.089723 0.361245 0.011404 0.197736 -0.290426 -0.327102 0.162414 0.242526 0.165788 -0.313177 0.438092 0.036097 0.309522 0.328109 -0.393693 -0.105534 0.053791 0.206557 -0.696268 0.114086 -0.163043 -0.025040 0.776388 0.373119 -0.065723 0.432851 0.268148 0.274252 0.045217 -0.137554
My -0.555753 -0.922306 -0.330315 1.106856 -0.132255 -0.076067 -0.672138 -0.027695 -0.226679 0.134695 -0.190267 0.803302 -0.680634 0.921969 0.424188 0.179006 -0.313282 0.061920 -0.320855 -0.264320 -0.119973 -0.311191 -0.015786 0.102321 0.299140 0.226431 0.360273 0.017893 0.250050 0.024692 -0.500763 -0.134524 0.242961 0.819584 -0.270668 0.146633 0.710428 -0.719392 0.031137 0.216394 -0.163209 0.248489 0.904204 -0.630380 -0.488260 0.322320 0.392563 0.158892 0.520538 0.041073
its -0.464355 -0.236279 -0.394283 0.146813 -0.197341 -0.128320 0.535520 -0.290670 -0.223982 -0.612271 -0.292797 0.258825 -0.156940 0.002569 -0.474667 0.456909 0.249519 -0.200669 0.357613 -0.097638 -0.461606 0.218284 0.361098 -0.168510 -0.355410 -0.407645 -0.171464 0.096318 0.121983 -0.219654 0.133086 -0.629065 0.238618 -0.269271 -0.413768 -0.020993 0.211543 -0.193873 0.023613 0.332638 0.031537 0.127740 0.128785 0.280434 0.250073 0.313937 -0.017521 0.055949 -0.011572 -0.296653
after -0.283732 0.173162 -0.527893 0.190690 -0.067736 -0.030235 -0.285570 -0.105024 -0.170756 -0.415117 0.120468 0.541829 0.188871 0.056725 0.288447 -0.473340 -0.103789 0.087833 0.094051 -0.706784 0.044971 -0.180116 -0.228149 -0.243248 -0.237913 0.002787 -0.048889 -0.134869 0.021104 0.238138 0.484771 -0.006839 -0.009688 0.593562 -0.137304 0.216525 0.248900 0.096792 0.244171 0.057285 0.280321 -0.373397 0.400942 0.233794 -0.496417 0.323820 -0.177785 -0.112103 0.007016 0.068863
little -0.416938 0.170217 -0.215562 0.090268 -0.265836 0.095919 0.068099 -0.050410 -0.215095 0.146922 0.098866 0.004918 0.151275 -0.461003 -0.238700 -0.362009 0.468868 0.507039 0.731267 -0.280833 -0.076539 -0.255538 -0.178485 0.518281 0.227087 -0.273066 -0.428042 -0.198243 0.290657 -0.127998 0.868680 -0.383780 0.447509 -0.852865 -0.248117 -0.588429 0.067565 -0.073656 -0.343216 0.076676 -0.321509 -0.083645 0.749496 -0.108165 0.608937 0.781647 -0.302355 0.063183 0.017170 -0.311956
recommend -0.448501 0.161850 0.293964 0.079232 -0.127066 0.899719 -0.336752 -0.651096 -0.887454 0.948304 0.796437 -0.349173 -0.270783 -0.582935 0.745146 -0.077668 0.424679 0.077619 0.348514 0.573136 1.075042 0.223962 -0.221080 0.209985 -0.178462 -0.213819 -0.145912 0.050063 -0.218814 -0.071122 0.210927 -0.639474 0.157793 -0.290638 -0.351054 0.493096 -0.233552 -1.536828 0.640522 0.836095 0.368639 0.037140 -0.525628 -1.497669 1.043705 -0.356649 0.243564 0.306247 0.403360 0.136942
much -0.345140 -0.297531 -0.479679 -0.107348 -0.408865 -0.421816 0.956029 -0.176227 -0.486740 -0.130193 -0.123862 -0.138711 0.360940 -0.088616 -0.123785 0.657488 0.446405 -0.039948 0.266408 0.422193 0.036258 0.250841 -0.119213 0.035014 -0.312874 -0.644441 -0.282590 0.181219 -0.203792 -0.370039 0.309269 -0.744932 -0.011679 -0.594316 0.133592 -0.315533 0.003464 -0.490858 -0.156820 0.370361 -0.000554 -0.042969 -0.170710 0.157169 0.198726 0.187260 0.313436 0.014786 -0.309917 -0.149924
nice -0.165040 -0.425412 0.059541 0.476759 -0.250732 -0.335836 0.429320 0.104279 -0.309176 -0.016607 -0.505273 -0.147409 -0.010552 0.028000 -0.676682 0.515541 0.187437 -0.301688 0.511091 0.057256 -0.525713 0.434485 0.361347 -0.094146 -0.279380 -0.696751 -0.208440 0.322930 0.328352 -0.310735 0.248442 -0.771713 0.443238 -0.383995 0.136145 -0.348499 0.223953 0.158953 -0.483064 0.259119 -0.046073 -0.087418 0.647257 0.405541 0.204413 0.264234 0.141434 -0.043281 0.066352 -0.171701
did 0.195093 -0.054813 -0.442695 -0.180137 -0.319173 -0.174674 0.479477 -0.173416 -0.292359 0.226414 0.185010 0.252410 0.396320 -0.336062 0.194019 0.446437 -0.134184 -0.763356 0.537026 0.285514 0.269673 0.321509 0.033531 -0.028558 -0.787025 -0.396116 -0.468953 0.262760 0.086171 -0.045731 0.212928 -0.766599 0.265656 0.169316 0.098736 -0.067296 -0.128433 0.079049 0.232779 0.861823 0.879226 -0.838687 -0.712794 0.023828 0.154147 -0.155528 -0.073522 -0.178442 -0.159141 0.647039
price -0.186314 0.219681 -0.179778 0.260177 0.211304 0.362130 0.448231 -0.249200 -0.474098 -0.227784 0.024560 0.033422 0.185632 0.211022 -0.375473 0.140217 0.179395 -0.213259 0.554635 -0.270844 -0.135382 0.231671 0.221798 -0.123758 -0.439857 -0.463196 -0.121634 -0.181848 0.337246 -0.082812 0.385319 -0.405292 0.161552 -0.156313 -0.214401 0.012314 0.196890 0.007021 -0.469668 0.106552 0.202422 -0.023385 0.410305 0.302317 0.256794 -0.044850 0.198456 0.174148 0.016217 -0.085557
also -0.013694 -0.327146 0.002999 0.365238 -0.638897 -0.461286 0.092187 -0.112065 -0.198558 -0.493357 -0.378462 -0.158102 -0.172392 -0.266253 -0.478213 0.456710 0.302239 -0.405019 0.309697 0.254513 -0.142903 0.467252 0.245729 -0.457065 -0.771031 -0.616984 0.060778 0.546379 0.384378 -0.628047 0.237411 -0.777406 0.927797 -0.026059 0.195907 -0.070930 0.413976 -0.151457 0.202489 0.422587 0.270066 -0.106202 0.315182 -0.157796 0.148098 0.298223 0.142343 -0.158276 0.282108 -0.189556
some -0.016848 -0.118105 0.161979 0.271841 -0.008926 -0.185915 0.168566 -0.164033 0.104446 0.128340 0.259734 0.437380 0.186794 0.165588 -0.155289 0.143256 0.071058 0.303099 0.476674 -0.231634 -0.309300 -0.122917 -0.148523 0.325275 -0.150938 -0.060620 -0.051948 0.242427 0.348880 0.073978 0.142770 -0.324373 0.013397 -0.002927 -0.320382 0.234214 0.110772 -0.198011 -0.145676 0.063220 -0.282507 0.159879 0.013210 -0.102165 0.039675 0.091159 -0.499878 0.087595 -0.167842 -0.071973
well -0.687900 0.028235 -0.568734 0.064056 -0.343648 -0.068478 1.216352 -0.309613 -0.142740 0.060194 -0.778722 -0.160685 -0.282540 0.430448 -0.551280 0.936801 0.090334 -0.432401 0.131409 0.216667 -0.223285 -0.199526 0.544135 -0.677045 -0.371435 -0.502874 -0.136401 -0.176135 0.275859 -0.106259 0.083769 -0.826446 -0.169598 -0.767512 -0.006781 0.323894 0.174533 -0.195398 0.082706 0.343230 -0.324633 0.053774 -0.218273 0.396405 0.302560 -0.026389 0.435585 -0.437412 0.030599 -0.608720
worth -0.616265 0.237493 -0.266928 -0.075398 -0.446909 -0.081263 1.179695 -0.343447 -0.339185 0.223830 -0.279317 -0.311572 -0.295939 0.190663 -0.414531 0.965697 0.207438 -0.497306 0.299167 0.151015 -0.077034 -0.095061 0.572728 -0.500698 -0.305418 -0.770590 -0.022026 0.048744 0.180548 0.028072 0.166599 -0.632135 -0.277996 -0.713585 -0.225519 -0.002232 0.123026 -0.191125 -0.060371 0.658365 -0.291988 -0.062914 -0.388063 0.107833 0.223508 -0.172646 0.187879 0.018122 -0.273721 -0.188368
ever 0.310560 -0.533706 0.083830 1.060754 -0.139472 0.042017 -1.070587 0.377496 -0.246827 0.458887 0.429827 0.083060 -0.107903 0.294770 0.853963 -0.481906 -0.693960 -0.076407 -0.054741 -0.221713 0.653703 0.423008 -0.359357 -0.003551 -0.255629 -0.100451 0.450324 0.348258 0.094060 -0.237572 -0.402646 -0.827345 0.702062 0.229454 -0.197957 0.837653 -0.068753 -0.556784 -0.104536 0.367273 0.518732 0.185636 -0.303929 -0.838770 -0.061968 -0.394846 -0.202994 0.364690 -0.235879 0.455677
other 0.282735 -0.056397 -0.235320 0.304280 0.103610 -0.457698 0.337293 -0.253957 -0.264305 -0.046667 0.365525 0.201700 0.475498 0.136018 0.091331 -0.543522 -0.335618 0.326232 0.124286 -0.858022 -0.408250 0.404592 -0.033073 0.097019 0.101137 -0.232831 0.306455 -0.221304 0.217288 0.102728 -0.377380 -0.506582 0.060248 -0.368183 -0.077998 0.162770 -0.214549 0.141095 -0.189982 -0.015724 0.115373 0.036865 0.239148 0.278135 -0.289771 -0.248540 -0.603350 0.428262 -0.721928 0.009845
got -0.121851 -0.068251 -0.654491 0.258360 -0.669415 0.129147 -0.500473 -0.229779 -0.294017 0.418898 0.043322 0.376104 -0.006085 -0.056265 0.185940 -0.402382 0.124483 -0.032232 0.575896 -0.309020 0.284436 -0.063281 -0.128877 0.157828 -0.411760 -0.128897 -0.339598 -0.346026 0.473411 -0.002737 0.236657 -0.605523 0.263415 0.310636 -0.328095 0.167312 -0.022044 -0.257976 0.386814 0.613314 0.223512 -0.854952 0.377169 -0.487566 -0.152479 0.250118 0.076383 -0.371399 0.004955 0.464530
always 0.086687 -0.398936 0.189303 0.642588 -0.371635 -0.411825 0.077311 0.102185 -0.159285 0.002598 -0.298441 -0.188234 0.103587 -0.367832 -0.382763 0.265053 -0.014430 -0.061689 0.152039 -0.007551 -0.009314 0.418306 -0.028899 -0.098703 -0.701161 -0.303046 -0.244783 0.494327 0.392153 -0.234006 0.140599 -0.685115 0.771554 0.031685 -0.069933 0.026776 -0.360327 0.105674 -0.183916 0.393323 0.253318 -0.540657 0.000749 0.112015 -0.059242 0.116008 0.136801 0.088081 -0.336629 0.258157
Great 0.127206 -0.365259 0.149674 0.341923 0.195124 0.261237 0.137103 0.260261 -0.346184 0.321031 0.068389 -0.374955 -0.124629 0.670314 -0.244491 0.246652 -0.150371 -0.344181 -0.101836 0.120865 -0.041226 0.296469 0.189067 0.193884 0.121714 0.019695 -0.265894 0.020090 0.098299 -0.051738 -0.387323 0.166680 -0.041126 0.475569 0.023510 -0.294959 0.091291 0.170141 -0.764891 -0.203444 0.328103 -0.099215 0.419280 0.249984 -0.078015 -0.364729 0.858016 0.143011 0.017100 0.248540
thing -0.306342 -0.414828 -0.318748 0.435777 0.387324 0.402368 -0.428216 -0.312009 -0.581548 -0.733691 0.262744 0.168631 0.614327 0.053496 0.388186 -0.249370 -0.974888 -0.822050 0.272332 -0.460488 0.033851 0.557889 -0.557446 0.103838 -0.316752 -0.226593 -0.169415 0.324283 -0.221125 -0.506389 0.286869 -0.180990 0.270839 0.715881 -0.745623 0.759430 0.520781 -0.367881 -0.849298 0.823412 0.474384 0.210909 0.608934 0.031176 -0.233593 0.586580 0.284010 0.632242 0.247151 -0.327484
If 0.312944 0.481041 -0.105519 -0.305463 0.648315 0.312958 0.377559 -0.390242 0.080055 -0.655447 0.596233 0.306856 0.997040 -0.360340 -0.235326 -0.060231 0.200730 0.626812 0.567597 0.006492 0.420667 0.369207 -0.386788 0.188838 -1.054209 -0.284332 -0.548166 0.281231 -0.005906 -0.202611 0.536448 -0.153352 0.417605 -0.340505 -0.575478 0.656495 -0.365353 0.895660 -0.011482 0.034803 0.463501 -0.016712 -0.927713 0.398085 0.704165 -0.106345 -0.729087 0.689742 -0.489201 -0.022170
does -0.523804 0.094315 0.122362 0.121876 -0.021996 -0.130756 0.437418 -0.128059 -0.341389 -0.520477 0.293743 0.226762 -0.238350 -0.700825 0.079192 0.526467 0.122320 -0.488983 0.320825 0.310443 0.416344 0.428396 -0.144126 0.140373 -0.440731 -0.448500 -0.411374 0.370627 0.074244 -0.374798 0.225275 -0.939811 0.628229 -0.297007 -0.389394 0.153860 0.157281 -0.740344 -0.265690 0.899778 0.486548 0.258617 -0.382417 -0.358507 0.850570 0.549739 -0.021701 0.439743 0.038870 -0.093733
easy -0.454471 -0.151761 0.970919 0.132582 -0.880543 -0.746992 0.669263 -0.258077 0.072301 -0.289913 0.145979 -0.464096 -0.543670 -0.057452 -1.076432 1.388532 0.664081 0.492851 -0.145005 0.617261 -0.307821 -0.013117 0.432666 -0.119954 -0.856544 -0.543894 -0.270919 0.821921 0.066945 -0.166476 0.351558 -0.099859 0.346181 0.020309 -0.070993 -0.349996 0.510021 -0.420172 0.249635 0.618398 -0.866011 0.146801 -0.061758 -0.250970 -0.051660 0.816993 0.114190 0.048246 -0.129437 -0.616060
They 0.475927 0.032962 -0.067734 0.035756 -0.272083 -0.455429 -0.018330 -0.121602 0.274731 -0.387005 0.020357 0.194754 0.378422 -0.585686 -0.032303 0.196375 -0.243779 0.055820 -0.036522 -0.045616 0.005283 0.278012 -0.040218 -0.239398 -0.823140 -0.146505 -0.201632 0.412040 0.280631 -0.308682 0.074826 -0.687907 0.860770 -0.256866 0.179253 0.065118 -0.402574 0.234266 0.517610 0.451195 0.528622 -0.243119 -0.901773 -0.113319 -0.000031 0.231444 -0.679051 -0.114013 -0.218758 -0.023665
could 0.034408 -0.187512 -0.291208 0.160221 -0.267265 -0.117033 -0.241000 -0.302220 -0.205102 0.254757 0.324560 0.412764 0.295653 -0.301858 0.401097 0.106802 -0.130187 -0.308342 0.671976 0.451204 0.239273 0.115639 -0.431061 -0.070213 -0.556638 -0.172939 -0.016466 0.399057 -0.285351 -0.106654 0.364146 -0.803483 0.351144 -0.141152 -0.028181 0.219467 -0.259603 -0.458972 0.438874 0.455302 0.466457 -0.335185 -0.800074 -0.398559 0.266288 -0.197360 -0.578235 0.087183 -0.115506 0.308567
don't 0.217278 0.202584 -0.102343 -0.103782 0.140038 -0.144155 -0.250551 -0.139050 -0.103891 -0.408167 0.480440 0.640002 0.474684 -0.611506 0.597241 -0.130261 0.158953 -0.009618 0.709791 0.186098 0.469441 0.649258 -0.450681 0.247540 -0.470621 -0.153751 -0.238665 0.379379 -0.103194 -0.148394 0.341559 -0.467109 0.369347 -0.141177 -0.096395 0.544482 -0.293366 -0.106352 0.099216 0.225063 0.495436 0.499462 -0.692781 -0.365653 0.553474 0.238422 -0.800903 0.275260 0.022593 0.060299
make -0.080436 0.405117 0.115509 -0.138915 0.405631 0.050610 0.598151 -0.428937 -0.092161 -0.081064 0.439647 0.264045 0.394350 -0.377266 -0.139041 0.552747 0.207296 0.257176 0.602041 0.258822 0.315555 0.197895 -0.273840 0.192769 -0.848266 -0.307759 -0.569569 0.321902 -0.071693 0.178661 0.446014 -0.534388 0.271521 -0.269556 -0.458526 0.546864 -0.272083 0.272924 0.070298 0.447922 0.177972 -0.106372 -0.919176 0.036785 0.508213 0.083961 -0.517606 0.319170 -0.401806 -0.149849
over -0.043461 0.213656 -0.231495 0.244622 -0.309054 -0.267342 0.089146 -0.200186 -0.138119 0.392900 0.306227 0.385032 -0.230638 0.228858 -0.081511 -0.339700 0.270990 0.682215 0.331624 -0.501069 0.022604 -0.234490 -0.028640 0.291490 -0.055816 0.055402 -0.096602 -0.160537 0.468971 0.408927 0.289931 -0.141947 0.096165 0.001498 -0.196244 -0.028979 -0.152613 -0.070511 0.140611 -0.124100 -0.243845 -0.284788 0.311703 -0.132110 -0.079349 0.207031 -0.217911 -0.165262 -0.264282 0.083416
want 0.164360 0.116177 -0.169043 -0.070477 0.241634 0.114573 0.177119 -0.409117 -0.027798 -0.110960 0.664387 0.414647 0.728846 -0.499176 -0.015054 0.017020 0.153130 0.458184 0.701332 0.424246 0.425696 0.243740 -0.407925 0.353669 -0.773823 -0.282798 -0.664281 0.468683 0.032015 -0.223724 0.338191 -0.544801 0.457311 -0.308045 -0.473560 0.478573 -0.337856 0.226946 0.123359 0.518148 0.435522 -0.116505 -0.804803 -0.198474 0.615957 0.044477 -0.722227 0.622089 -0.169902 0.140934
first -0.494600 0.068170 -0.721846 0.670335 -0.192730 0.315314 -0.560384 -0.176650 -0.284839 0.381690 0.094520 0.328777 -0.086767 0.700353 0.327185 -0.289604 0.021606 0.179212 0.347696 -0.514699 0.325399 -0.428104 -0.074511 -0.041803 -0.133924 -0.042357 0.198031 -0.221423 0.469197 -0.125252 0.019715 -0.302270 -0.020822 0.525340 -0.597211 0.468490 0.499572 -0.262198 -0.172684 0.367536 -0.038974 -0.220082 0.738594 -0.525733 -0.596714 0.083086 0.305524 0.179358 0.383731 0.220417
've 0.570337 -0.379502 -0.323695 1.152229 -0.987164 -0.512398 -1.035379 0.360080 -0.164947 0.782508 0.462101 0.193739 -0.099457 0.098761 0.556899 -1.027558 -0.243317 -0.057514 0.209017 -0.221002 0.522446 0.659943 -0.051880 -0.068336 -0.338293 -0.080952 0.700611 0.366285 0.547850 -0.167478 -0.267415 -0.871680 0.779214 0.153490 0.240544 0.454166 -0.558876 -0.503031 0.429355 0.327000 0.700093 -0.601875 -0.209788 -0.735217 -0.324588 -0.597632 -0.270922 -0.036246 -0.226415 1.074160
I'm -0.150168 -0.314042 -0.186625 -0.237530 -0.560629 0.141153 0.236741 -0.244067 -0.202475 -0.297528 -0.034890 0.091473 0.035308 -0.213868 -0.336476 0.391313 0.401331 -0.316443 0.335653 0.449205 -0.222617 -0.074293 0.158899 -0.485119 -0.400361 -0.227225 -0.003333 0.075922 -0.089342 -0.178921 0.064980 -0.397859 0.445837 -0.296410 -0.076352 -0.319963 0.101686 -0.438891 0.400816 0.256721 0.245735 -0.173827 -0.398037 0.172511 0.297866 0.013715 0.017797 0.006844 0.069525 -0.105115
delicious 0.013553 -0.139487 -0.126597 0.590346 0.220705 -0.200711 0.656181 -0.044635 -0.342249 0.152834 -0.412555 -0.322725 0.138777 0.393987 -0.545468 0.466977 -0.102761 -0.399327 0.309845 -0.231820 -0.362934 0.357252 0.366127 -0.065343 -0.152408 -0.452263 -0.306344 0.259666 0.419052 -0.243628 0.092020 -0.461166 0.129580 0.065101 0.081287 -0.198293 0.022885 0.560360 -0.688670 0.126407 0.218482 -0.299877 0.586572 0.441822 -0.178046 -0.160136 0.535898 0.080135 -0.072493 0.054237
pizza 0.059147 -0.315184 0.044111 0.451950 0.345532 -0.072131 0.308632 0.191381 -0.387031 0.118180 -0.186132 -0.459177 -0.066232 0.477481 -0.281197 0.087265 -0.253816 -0.461027 0.020651 -0.284363 -0.152095 0.420396 0.298694 0.017512 0.264904 -0.312792 0.019888 0.232870 0.391473 -0.342903 -0.246130 -0.229263 -0.075750 0.252585 -0.041808 -0.106432 0.305941 0.474498 -0.859554 0.082603 0.244889 -0.103892 0.947815 0.198324 -0.240731 -0.293098 0.632340 0.256083 0.137256 0.285728
it's -0.190447 0.019275 -0.140906 0.155629 -0.493562 -0.278539 0.377236 0.123446 -0.195068 0.195635 -0.216434 -0.130044 -0.169734 -0.164221 -0.367836 0.218974 0.445940 -0.129976 0.382869 0.224146 0.002874 0.314813 0.258959 -0.030136 -0.288279 -0.208144 -0.278018 0.048575 0.215484 -0.104747 0.474214 -0.344733 0.282960 -0.331483 0.281426 -0.464815 -0.393476 -0.274521 -0.198429 0.028994 0.193446 -0.352787 0.080875 0.123041 0.467770 0.163469 0.422323 -0.308870 0.012321 -0.040146
still -0.156837 -0.024535 -0.388265 0.202391 -0.677784 -0.338127 0.044192 -0.135537 -0.111279 0.148763 -0.170662 0.144579 -0.310159 -0.129173 0.036803 0.191178 0.009390 -0.166807 0.174763 -0.052672 0.074768 0.078871 0.309234 -0.175342 -0.251640 -0.284905 -0.014033 0.013040 0.361103 -0.200373 0.145788 -0.702552 0.335315 -0.266073 -0.014990 0.114303 -0.004084 -0.456309 0.523936 0.651878 0.024294 -0.121075 -0.036898 -0.388070 0.030687 0.259399 -0.039028 -0.326674 0.066882 -0.133199
who -0.023779 -0.049000 -0.015728 0.202433 -0.016648 -0.107631 0.131062 -0.342720 -0.009009 -0.014796 0.602959 0.226010 0.060797 -0.077193 0.082816 -0.033888 0.036245 0.659285 0.198889 -0.009883 0.358931 -0.040746 -0.357980 0.394099 -0.495008 -0.166501 -0.126424 0.037131 0.262880 -0.097822 0.125411 0.038373 0.299719 0.033722 -0.355757 -0.049283 -0.072062 0.095817 0.195748 0.270341 0.046643 -0.177040 -0.063600 -0.073776 0.156823 0.343077 -0.293515 0.433941 -0.226817 0.117686
$ -0.246552 0.771717 -0.388648 -0.105854 0.359163 0.350363 0.483862 -0.208384 -0.488072 0.246598 0.542672 -0.128451 0.379600 0.256810 0.226469 -0.262328 0.282560 0.431336 -0.012873 -0.654897 0.327448 -0.064717 -0.055485 -0.137694 0.210069 0.070374 0.040818 -0.826851 0.118238 0.221816 0.371165 0.296585 -0.082166 -0.333302 0.171561 -0.114138 -0.109401 0.169837 -0.437361 -0.680648 0.183548 -0.050943 0.238205 0.345130 0.432456 -0.285785 0.322131 -0.042385 -0.228396 -0.248615
everything -0.441700 0.124045 -0.017449 -0.018064 -0.202984 -0.416583 0.335110 -0.225278 -0.204951 -0.296763 0.100570 0.266738 -0.232054 -0.590998 0.167807 0.441922 0.243126 -0.412392 0.264512 0.429287 0.215920 0.243003 -0.238688 -0.022120 -0.151828 -0.199030 -0.357407 0.327172 -0.037717 -0.224963 0.163376 -0.650116 0.225876 -0.084386 -0.101553 0.264917 0.166431 -0.589831 0.115650 0.709756 0.279275 0.077489 -0.362942 -0.472900 0.369105 0.653123 0.113763 0.153581 0.170499 -0.127945
us 0.235968 0.015274 -0.270814 -0.072812 -0.261275 -0.103316 0.271122 -0.327079 0.186569 0.368876 0.091407 0.278222 0.253812 0.084237 -0.128219 0.067950 0.127052 0.274756 0.295107 -0.346795 -0.210599 -0.306709 0.040740 0.004737 -0.446941 -0.028778 -0.200478 -0.025875 0.305652 0.347344 0.177512 -0.249550 -0.058405 0.267339 0.017234 -0.196329 -0.166775 0.491074 0.550775 0.168447 0.008120 -0.790358 -0.162009 0.033454 -0.385582 -0.294184 -0.319069 -0.423144 -0.413755 0.617906
A -0.019919 -0.119145 0.128620 0.011277 0.035611 0.133273 -0.233263 0.327214 -0.061595 -0.029908 -0.140668 -0.219681 -0.204190 -0.142690 -0.029960 -0.293440 -0.019805 -0.222446 0.074816 0.098103 -0.066569 0.146484 -0.038104 0.321190 0.413528 0.107395 -0.104149 -0.103760 0.065121 -0.216680 0.029022 0.312380 0.018392 -0.005858 0.067022 -0.475841 0.028637 -0.079959 -0.460549 -0.219056 -0.112987 0.021622 0.652799 0.042602 0.217224 0.275807 0.333025 0.022341 0.319577 -0.096477
fast -0.472250 -0.262866 -0.073530 0.173943 -0.204903 -0.336114 0.806527 -0.212393 -0.141918 -0.193269 -0.693740 -0.029722 -0.230888 0.240180 -0.628836 1.001970 0.115019 -0.144826 -0.008748 0.200336 -0.351562 0.098838 0.285635 -0.248412 -0.514350 -0.256006 -0.569562 0.226057 0.228040 -0.196696 0.223648 -0.565364 -0.008964 -0.127714 0.012418 0.378984 0.232231 -0.134718 -0.136393 0.282950 -0.380547 0.286488 0.160173 0.195155 0.188208 0.366708 0.554109 -0.477657 0.022674 -0.731350
staff 0.152450 -0.418965 0.349031 0.073627 0.053415 -0.144972 0.311137 0.166024 -0.368627 0.023323 -0.193784 -0.197039 0.197130 -0.051764 -0.411407 0.502212 -0.037153 -0.401355 0.195436 0.131543 -0.276925 0.499565 0.124997 0.087934 -0.562890 -0.518727 -0.059574 0.460160 -0.019067 -0.098095 0.146607 -0.136313 0.124202 0.232704 0.036229 -0.306947 0.095517 0.408913 -0.466768 0.245846 0.141069 -0.288268 0.259981 0.518418 -0.157551 -0.046616 0.150309 0.157495 -0.156249 0.273588
work -0.278050 0.055273 -0.452491 0.000741 -0.000626 -0.134309 0.681687 -0.406773 -0.069356 -0.587790 0.128359 0.616626 0.135660 0.083795 -0.104303 0.407244 0.285706 0.438872 0.255130 -0.424078 -0.113615 -0.238891 -0.037478 -0.176533 -0.489574 -0.023685 0.050209 0.079290 0.195763 0.088451 0.234888 -0.383991 0.212823 -0.052657 -0.473646 0.024353 0.150064 0.098045 0.220432 0.161550 0.236982 0.136138 -0.264891 0.133199 0.084288 0.184004 -0.443414 0.290018 -0.183223 0.068696
better -0.071348 -0.008205 -0.231116 0.267352 0.013665 0.034183 0.099813 -0.123245 -0.348810 0.361532 0.284237 -0.180905 0.341878 -0.175534 0.176268 -0.312889 -0.152902 0.210755 0.425554 -0.217106 0.126899 0.119021 -0.280563 0.159372 -0.111679 -0.352843 -0.059569 -0.078200 -0.048872 -0.039779 0.416032 -0.631055 0.245927 -0.650109 0.042676 -0.140977 -0.280043 -0.245692 -0.267994 -0.058044 0.094444 -0.192948 0.105173 0.057580 0.374376 -0.242066 -0.234842 0.161808 -0.486548 0.041924
buy -0.112007 -0.090762 0.171717 0.153597 0.362289 0.472772 -0.486837 -0.136689 -0.124925 0.086747 0.604077 0.610981 0.372704 -0.385244 0.315574 -0.335027 -0.017370 0.528496 0.368008 0.212474 0.391685 0.230375 -0.566649 0.520629 -0.310858 -0.072353 -0.384755 0.251820 -0.147261 0.051683 0.272928 -0.428587 0.397532 -0.308195 -0.564227 0.618770 -0.279251 -0.408876 -0.150014 0.254199 0.162178 0.399197 -0.568333 -0.586481 0.817952 0.079086 -0.598424 0.596482 -0.157504 0.071850
looking 0.119827 0.303714 0.128723 -0.293002 -0.000880 0.604979 0.205413 -0.356369 -0.229940 -0.262251 0.512735 -0.246952 0.483524 -0.086517 -0.550581 0.216023 0.546278 0.629164 0.204073 0.270160 0.504467 0.009571 -0.032439 -0.152030 -1.041644 -0.178898 -0.641910 -0.012531 0.143221 -0.096135 0.384687 0.175540 0.518786 -0.120428 -0.303627 -0.147466 -0.087634 0.200912 0.146633 0.016682 0.228502 -0.313494 -0.481590 0.120633 0.517834 0.093733 0.149284 0.269947 -0.196332 0.018002
new -0.562883 -0.464665 -0.405110 0.569666 0.389681 0.372892 -0.061125 -0.227047 -0.412437 -0.104923 0.201293 0.428678 -0.208660 0.618961 0.020654 -0.067648 0.064260 0.627695 0.255465 -0.561345 -0.077898 -0.208876 0.012862 0.158027 0.209337 -0.035492 0.376163 -0.129022 0.169904 -0.060220 -0.067729 -0.281903 0.233760 -0.000100 -0.812933 -0.109511 0.499616 -0.203167 -0.427982 0.085867 -0.110844 0.487042 0.607848 -0.158120 0.058257 0.255698 -0.002369 0.813205 0.263931 -0.081258
since 0.002551 -0.131511 -0.678560 0.596621 -0.426064 -0.430021 -0.088691 -0.215905 0.038842 -0.002289 -0.149069 0.603031 -0.221609 0.040817 0.206816 -0.260287 -0.118942 -0.169660 0.133755 -0.365335 -0.010003 0.058383 0.064463 -0.127878 -0.113260 -0.023066 -0.013486 -0.052445 0.568274 -0.138110 -0.178162 -0.607239 0.421220 -0.053377 -0.089668 0.377044 -0.122140 -0.339229 0.290047 0.473150 0.346545 -0.340939 -0.030536 -0.385211 -0.126613 0.185347 -0.116527 0.011421 0.140217 0.146226
way -0.100216 -0.353569 -0.176893 0.179803 0.272683 -0.106021 0.682197 -0.543971 -0.199657 0.384624 0.101795 -0.216260 0.396520 -0.219732 -0.093308 -0.002244 -0.523994 0.048487 0.299275 -0.472527 -0.401230 0.208015 0.122117 0.403650 0.010970 -0.791997 -0.285744 -0.036677 0.105730 -0.229685 -0.014865 -0.539606 -0.245443 -0.436698 -0.444715 0.058589 0.114884 0.199335 -0.275126 0.852459 -0.273979 -0.208000 0.243703 0.267630 -0.236221 -0.010888 -0.325112 0.391958 -0.625945 -0.082126
went -0.215947 -0.224374 0.214900 0.595519 -0.370419 0.109873 -0.270991 -0.166396 -0.000919 0.499233 0.041935 0.137230 -0.000414 0.278417 -0.055371 -0.275881 0.294987 0.480322 0.190560 -0.154079 0.071053 -0.380063 -0.009416 -0.338172 -0.109605 -0.026680 0.418270 0.376978 0.385419 0.231655 0.403403 -0.068321 0.256282 0.181282 0.079889 0.020946 0.057265 0.028490 0.143397 -0.057389 0.016172 -0.324280 0.131231 -0.268313 -0.245959 -0.295858 -0.132596 -0.038325 0.128525 0.528263
excellent -0.112698 -0.306756 0.079756 0.412462 0.130032 -0.271067 0.443073 -0.118846 -0.443316 0.274351 -0.150294 -0.249707 0.024083 0.240396 -0.516183 0.477027 -0.232668 -0.348265 0.155380 -0.089849 -0.401467 0.371157 0.020630 0.367234 -0.400310 -0.533587 -0.394867 0.337659 0.305167 -0.210920 0.145054 -0.285259 0.059500 0.318982 -0.071714 -0.173849 -0.006215 0.354684 -0.779434 0.319687 -0.028814 -0.431545 0.728547 0.382302 -0.375690 0.010208 0.556368 0.024769 -0.334145 0.034046
quality -0.110885 -0.146507 0.087997 0.247698 0.200887 -0.081387 0.217423 0.165306 -0.236233 -0.094920 -0.305293 -0.091980 -0.381246 0.519107 -0.399436 0.298136 -0.015679 -0.135367 0.288244 -0.442996 -0.442931 0.028862 0.263547 0.229550 0.178714 -0.126493 0.175832 -0.105338 0.240278 0.030285 0.075079 0.067314 -0.179396 0.160507 -0.129774 -0.313419 0.157967 0.101684 -0.770157 -0.284324 -0.312124 0.412966 0.794256 0.434877 -0.188566 0.134873 0.231326 -0.044565 0.099531 -0.354882
sushi -0.036512 -0.277999 -0.163990 0.463780 0.327200 0.205472 -0.081544 0.096267 -0.446105 0.094589 0.040910 -0.174563 0.030376 0.434422 -0.130669 -0.008812 -0.299555 -0.219155 0.332352 -0.278324 0.034011 0.472666 0.222301 0.002110 -0.073541 -0.341620 0.190523 0.135202 0.161334 -0.258894 -0.029902 -0.330238 -0.004573 0.177636 -0.410940 0.091025 0.213294 0.321846 -0.496154 0.202996 0.236532 -0.081642 0.496693 0.192524 -0.233776 -0.247793 0.343932 0.357491 0.082657 0.305406
bad -0.179092 -0.268012 -0.206109 0.524682 -0.054809 0.171919 -0.160534 0.041632 -0.584824 0.195945 -0.086046 0.025910 0.157573 0.137627 -0.004590 -0.161423 -0.151736 -0.397350 0.329340 -0.079380 0.030230 0.289691 0.023672 -0.040076 -0.086018 -0.321162 -0.214895 0.054911 0.176930 -0.092573 0.271625 -0.270105 0.213768 0.257502 0.110667 -0.054623 0.003578 -0.185432 -0.513716 0.062363 0.461486 -0.127964 0.451172 0.047135 0.051377 -0.018553 0.405870 -0.046502 0.139973 0.232857
made -0.136655 -0.087634 -0.389644 0.354437 -0.161338 -0.151424 0.328317 -0.425088 -0.152847 0.063480 0.055691 0.184661 0.085837 0.023228 -0.059404 0.203072 0.102133 0.064508 0.187333 -0.274949 -0.095999 -0.000610 0.004100 0.009652 -0.410418 -0.292679 -0.191927 0.105022 0.330979 -0.107415 0.148866 -0.474540 0.476248 0.053659 -0.080293 -0.167273 0.107814 0.044959 0.054202 0.238974 0.172776 -0.354606 0.200145 0.017568 -0.104266 0.193562 0.046106 -0.099825 -0.000060 -0.008241
menu -0.219878 -0.116970 0.075599 0.205147 0.364238 0.175919 0.228172 0.027573 -0.316927 0.098177 -0.005533 -0.222388 -0.066230 0.190992 -0.287715 0.237352 0.049616 0.040425 0.233866 -0.179258 -0.172229 0.089152 -0.002812 0.117472 0.064019 -0.132776 0.076304 0.112560 0.178135 -0.037859 0.244104 0.094001 0.013829 0.147753 -0.377406 -0.133658 -0.022225 0.516797 -0.579893 -0.100179 0.034385 -0.196328 0.493203 0.352541 -0.055322 -0.155341 0.376532 0.334283 -0.053521 0.159176
take -0.209512 0.002523 -0.280008 0.070958 0.048539 -0.109315 0.376656 -0.603041 0.061086 0.044735 0.307411 0.610174 0.206913 -0.013777 -0.021654 0.320354 0.286456 0.601848 0.368254 0.139131 -0.026874 -0.480416 -0.213674 0.181207 -0.104534 -0.074724 -0.252151 0.269124 0.182541 -0.034547 0.114222 -0.497174 0.182265 -0.259354 -0.490820 0.148966 0.090707 -0.163170 0.207918 0.455899 -0.026432 0.071321 -0.360734 -0.538352 0.106898 0.259323 -0.637613 0.381875 0.035874 -0.016216
then -0.151435 0.193036 -0.323063 0.029616 0.171586 0.197959 0.270348 -0.308400 -0.183017 -0.049590 0.132583 0.283367 0.184944 -0.037878 0.027598 0.047106 0.256416 0.257642 0.293231 -0.261519 0.057830 -0.064372 -0.055592 0.088450 -0.176373 -0.105278 -0.315586 -0.214738 0.024382 0.158731 0.142184 -0.286866 0.030993 -0.202661 -0.313352 0.197252 -0.051009 0.170209 0.164978 -0.036246 0.064094 -0.326396 -0.063405 0.005419 0.206414 0.035877 -0.136933 0.150282 -0.234219 0.060826
many 0.386701 -0.398400 -0.341698 0.383913 -0.398108 -0.723547 0.220800 -0.132075 -0.000901 -0.609099 -0.026446 0.193362 0.503021 -0.025887 -0.458002 -0.460743 0.225133 0.414155 -0.075588 -0.231791 -0.380374 0.566864 0.149351 -0.096622 -0.320879 -0.191779 0.058305 0.110544 0.213928 -0.294948 -0.473762 -0.471764 0.476015 -0.284370 0.122344 -0.041968 -0.302591 0.027853 0.084618 -0.037244 0.358750 0.031153 0.105733 0.315319 -0.150653 0.045108 -0.325805 0.270400 -0.394302 0.163358
most 0.199983 -0.235127 -0.342576 0.134258 0.212286 -0.210843 0.209101 -0.139943 -0.044202 -0.076256 0.002417 0.338214 0.125166 0.040207 -0.106238 -0.099195 -0.156125 0.049144 0.290710 -0.488595 -0.280074 0.196087 0.073530 0.273844 -0.024195 -0.143767 0.074436 0.139513 0.230790 -0.157228 0.029898 -0.269874 -0.090420 0.092175 -0.436478 0.105263 -0.044460 0.380836 -0.014480 0.144982 0.060897 -0.196737 0.280381 0.063386 -0.242982 -0.138759 -0.325088 0.137688 -0.067252 0.221884
wait -0.008649 -0.092670 0.420613 0.167816 -0.077624 -0.052472 0.309952 0.139947 -0.518693 0.610986 0.582663 -0.242337 0.304298 -0.084900 0.177636 0.410758 -0.029202 0.049651 0.504327 0.277211 0.434923 0.365590 -0.226219 0.281034 -0.691037 -0.631933 0.006636 0.480469 -0.121364 0.254140 0.454760 -0.124356 0.069850 0.172427 0.146964 -0.301613 0.029861 0.284176 -0.345105 0.328343 0.334097 -0.727538 -0.451361 0.442388 0.029105 -0.097991 -0.136688 0.356274 -0.438973 0.684240
It's -0.147103 -0.088142 0.284080 0.221246 -0.257721 -0.175613 0.501319 0.144914 -0.121776 -0.063792 -0.359583 -0.378542 -0.108114 -0.160362 -0.568230 0.425104 0.339977 -0.109625 -0.047526 0.269712 -0.118496 0.210010 0.275480 -0.017254 -0.291506 -0.314917 -0.583789 0.202773 0.256120 -0.206698 0.193613 -0.251842 0.386377 -0.254998 0.360157 -0.461753 0.041757 -0.053405 -0.382007 0.035758 -0.068436 -0.079150 0.401928 0.126609 0.425601 0.369668 0.561277 -0.195101 -0.008534 -0.255096
bought -0.431479 0.019547 -0.716536 0.457446 -0.454667 0.079917 -0.203345 -0.411620 -0.239879 0.058309 0.371337 0.793219 -0.267915 0.240554 0.566290 -0.287760 0.262106 0.100412 0.300036 -0.212857 0.372818 0.002994 -0.080628 -0.007157 0.011940 0.002915 0.121010 -0.178145 0.326485 -0.082439 -0.022461 -0.556315 0.243118 -0.070543 -0.371035 0.429758 0.188121 -0.862440 0.411537 0.373617 0.310400 0.062615 -0.092292 -0.780989 0.328128 0.172120 0.035110 0.194835 0.402233 0.152279
dinner 0.028754 0.143691 0.080095 0.547449 -0.079752 0.205811 0.048061 0.109613 -0.152422 0.617932 0.253824 -0.162722 0.088954 0.527588 0.020969 -0.092984 0.110781 0.702905 0.006279 -0.414898 0.263735 -0.346795 0.024368 0.151493 0.007141 0.006402 -0.064040 -0.093903 0.567950 0.183674 0.276810 -0.013822 0.312259 0.049272 0.078417 -0.392624 -0.240745 0.415738 -0.309821 -0.307873 0.141321 -0.507881 0.327488 -0.112364 0.024724 -0.194693 0.187131 0.092477 -0.196595 0.497934
times 0.322567 0.067279 -0.296165 0.682969 -0.658645 -0.977755 -0.055089 0.152110 0.189621 0.095685 0.077243 0.632074 -0.190963 0.059543 -0.056696 -0.705415 0.201825 0.499433 0.103053 -0.519074 -0.044265 0.164434 0.174261 0.015668 0.172357 0.114279 0.284603 0.046211 0.778668 -0.003024 -0.093405 -0.305396 0.372654 -0.138940 0.242942 0.106856 -0.563176 -0.208466 0.165093 -0.161301 0.150420 -0.238481 0.115016 -0.279947 -0.241785 -0.074266 -0.344057 -0.134859 -0.101614 0.355516
every -0.386608 0.331252 -0.296087 0.579120 -0.395343 -0.110311 0.138347 -0.160516 0.004576 0.529673 0.097641 -0.015944 -0.029815 0.273211 -0.058605 -0.120564 0.294894 0.376091 0.316248 -0.299565 0.314911 -0.274482 0.034817 -0.051493 -0.168992 -0.376035 0.148908 0.031149 0.435425 0.025691 0.215775 -0.599657 -0.059888 -0.249236 -0.254362 0.385166 0.012252 -0.086757 -0.113896 0.316986 -0.236717 -0.244247 0.021635 -0.302891 -0.192189 -0.146955 -0.143550 0.093003 -0.161983 0.192884
laptop. -0.251996 -0.354075 0.026161 0.187035 0.231276 0.501473 0.049812 -0.050648 -0.365037 0.000040 -0.028051 -0.003837 -0.132467 0.285660 -0.277822 -0.004402 0.210255 -0.028282 0.208819 -0.018565 -0.286704 0.048772 0.195261 0.196042 0.464204 -0.235914 -0.010429 -0.199529 0.107874 -0.148995 -0.218478 -0.186367 0.046012 -0.240876 -0.320574 -0.318259 0.381691 -0.268188 -0.658216 -0.027736 -0.135032 0.433470 0.596424 -0.032463 0.318912 0.081185 0.283894 0.389987 0.220248 -0.163647
need -0.098002 0.264333 -0.286370 -0.017152 -0.154838 -0.052267 0.225397 -0.530569 -0.083009 -0.064030 0.540218 0.552847 0.353667 -0.238822 0.161246 0.085396 0.290456 0.261791 0.594794 0.217099 0.314891 0.093192 -0.359892 0.070070 -0.426511 -0.200332 -0.275783 0.326055 0.059787 -0.086890 0.382646 -0.459007 0.213528 -0.257048 -0.392447 0.376804 -0.036037 -0.209878 0.300636 0.500491 0.263505 -0.075441 -0.610114 -0.482387 0.466619 0.152397 -0.454281 0.305910 -0.025089 0.064978
2 -0.169110 0.247075 -0.314851 0.454851 -0.132900 -0.046626 -0.346491 0.016816 -0.233939 -0.023164 0.351974 0.455924 -0.132104 0.317799 0.365021 -0.645039 -0.199015 0.424506 -0.032092 -1.012748 0.130952 -0.203872 -0.030427 0.127295 0.106378 0.065602 0.207362 -0.392178 0.446363 0.266871 0.330410 0.135641 0.175119 0.406607 -0.153809 0.036225 0.103936 -0.036119 -0.031452 -0.209864 0.058778 -0.106555 0.580027 -0.005847 -0.350097 0.245351 -0.125240 -0.037713 -0.074326 0.056664
enough -0.295471 0.114574 -0.186458 0.040542 -0.343668 -0.184365 0.630026 -0.324684 -0.281762 0.084842 0.284125 0.025368 0.184972 -0.072064 -0.238692 0.599019 0.121818 0.314226 0.174095 0.099214 0.163224 -0.012840 -0.087255 0.190978 -0.457076 -0.168300 -0.589315 0.188705 0.120565 -0.066725 0.544724 -0.085051 0.195344 -0.152385 -0.045327 -0.110929 -0.102283 -0.338875 -0.292121 0.157445 0.033867 -0.142788 -0.136539 -0.074611 0.372362 0.548590 0.182300 0.007747 -0.173002 -0.308512
hard -0.475158 0.045271 0.339635 0.189219 -0.558713 -0.717325 -0.347642 0.206686 0.131643 0.078051 -0.305419 0.272160 -0.456012 -0.173181 -0.092687 0.186253 0.032304 0.241796 0.140732 -0.395612 -0.294928 -0.275979 -0.033777 0.176274 -0.280690 -0.275405 0.295497 0.172475 0.184870 -0.118611 0.604917 -0.157926 -0.158932 0.286312 -0.072904 -0.084727 0.031645 -0.180834 -0.019674 0.136524 -0.802394 0.136294 0.546586 0.044312 -0.630260 0.561750 -0.306096 -0.608662 -0.323584 -0.546041
try 0.044103 0.114026 0.342970 0.055007 0.388361 0.097748 0.177699 -0.145269 -0.198882 0.394582 0.407223 -0.069211 0.449428 -0.238589 -0.115028 0.174778 0.088966 0.319820 0.581899 0.247623 0.198446 0.101581 -0.137025 0.268216 -0.329743 -0.426158 -0.407710 0.394989 -0.180740 0.072196 0.370600 -0.423920 -0.045571 -0.301302 -0.217385 0.283623 -0.062113 0.366956 -0.207394 0.343745 -0.008136 -0.141460 -0.415604 -0.046145 0.161806 -0.073314 -0.466331 0.530949 -0.281292 0.210650
how 0.163920 0.128710 -0.257770 -0.350146 -0.299914 -0.390454 0.365929 -0.420910 0.258274 -0.327448 0.315828 0.506377 0.512786 -0.257136 -0.029531 0.043765 0.296523 -0.005547 0.242783 0.533123 -0.101578 0.133580 -0.145268 -0.048925 -0.317178 -0.168816 -0.366856 0.297962 -0.050841 -0.199629 -0.073228 -0.116306 -0.002387 -0.140274 0.116270 0.364758 0.029201 -0.243735 0.432628 0.432952 0.155024 0.060145 -0.637162 -0.228343 0.066337 0.204278 -0.534230 0.182140 -0.045558 0.018245
life -0.849397 0.333400 -0.041102 0.145940 0.232809 -0.415337 -0.017226 -0.255186 -0.179445 -0.980810 -0.306740 0.030546 -0.251192 -0.111394 -0.287939 0.334485 -0.308413 -0.069824 -0.264718 -0.167874 -0.045979 -0.241874 -0.228907 0.145107 -0.458813 0.052856 0.052711 -0.089726 -0.017327 -0.485362 0.377010 0.077629 0.167314 0.277225 -0.511245 0.016294 0.088771 -0.072607 -0.736220 0.177835 -0.482838 0.055035 0.825175 0.297917 -0.180665 0.609689 0.329647 0.369280 0.191635 -0.732064
people 0.260276 -0.013003 -0.064452 -0.030062 0.172981 0.018462 0.312609 -0.408989 -0.000453 -0.284998 0.350136 0.046840 0.564513 -0.177007 -0.103032 -0.225160 -0.153600 0.382145 0.255699 -0.237125 0.018750 0.143425 -0.374749 0.168021 -0.604313 -0.157896 -0.088535 0.019749 0.146164 -0.053636 0.227302 0.052314 0.212080 0.042591 -0.218633 -0.031850 -0.117329 0.389772 0.028767 0.054356 0.249025 -0.352491 -0.123397 0.314872 -0.026970 -0.094080 -0.337027 0.320720 -0.383959 0.222800
say 0.155323 -0.184082 -0.299708 -0.121947 -0.206021 -0.145296 0.108871 -0.597204 -0.291514 -0.285329 0.469512 0.311279 0.649696 -0.534990 0.265883 0.166136 -0.125777 -0.473615 0.640040 0.600740 0.217398 0.469112 -0.554237 -0.041074 -0.490416 -0.230871 -0.300668 0.519687 -0.344618 -0.390358 0.202772 -0.548985 0.127962 -0.073387 -0.163989 0.476680 -0.021610 -0.648741 0.231534 0.775187 0.590494 -0.160886 -0.776854 -0.331509 0.275738 0.279198 -0.407556 0.329905 0.091969 -0.025789
though -0.138627 0.042403 -0.740007 0.226820 0.065612 -0.222597 0.551999 -0.142418 -0.146061 0.042755 -0.164968 0.320368 0.237202 -0.158715 0.287627 0.083218 0.014092 -0.542706 0.505795 -0.114851 -0.088927 0.120261 0.280632 -0.101350 -0.223887 -0.535771 -0.114097 0.022493 0.226485 -0.225258 0.262991 -0.427642 0.054037 -0.244892 0.262852 -0.143390 0.124422 0.220020 0.008764 0.310365 0.457631 -0.524573 -0.072205 0.258651 0.181322 0.051775 0.003185 -0.048004 0.195039 0.309232
I've 0.019150 -0.591724 -0.056755 1.236115 -0.440256 0.188730 -1.003236 0.248925 -0.331043 0.512921 0.458964 0.308260 -0.255401 0.206210 0.634835 -0.701340 -0.592188 -0.027102 -0.072034 -0.376837 0.404080 0.242246 -0.167943 0.205160 -0.211402 -0.082901 0.104405 0.021881 0.408115 0.008737 -0.373946 -0.665070 0.868870 0.258847 -0.227174 0.463101 -0.035090 -0.744185 -0.065182 0.520362 0.280538 -0.184811 0.108423 -0.718646 0.070011 0.005043 -0.064926 0.224316 -0.247324 0.378861
another -0.145611 -0.211940 0.105907 0.274888 0.443349 0.312348 -0.302901 -0.286177 -0.049186 0.201061 0.537518 0.368937 0.418287 -0.193046 0.210206 -0.375969 -0.187619 0.785313 0.171377 -0.262349 0.094950 -0.096113 -0.461373 0.600476 0.031017 -0.023436 -0.233558 0.100186 -0.006417 0.050246 0.188918 -0.239909 0.151647 -0.180726 -0.642848 0.418338 -0.070759 -0.111162 -0.178778 0.235526 -0.204524 0.069647 -0.114413 -0.346916 0.278447 0.114418 -0.617010 0.542311 -0.303982 0.023414
going -0.150389 -0.251092 0.343601 0.316145 -0.423597 0.018101 0.135871 -0.483217 0.135457 0.431092 0.387792 -0.197611 0.150117 -0.174155 -0.304343 0.282663 0.118653 0.341570 0.311814 0.529333 -0.037151 -0.182155 0.049184 -0.384436 -0.710800 -0.437068 0.384425 0.812433 -0.032031 -0.037565 0.294132 -0.616192 0.343212 -0.405970 -0.108107 0.134684 0.064279 -0.441859 0.479943 0.641057 0.011105 -0.160066 -0.783603 -0.469706 0.113349 -0.576180 -0.508188 0.247875 -0.146917 0.239739
keyboard -0.308024 -0.205020 0.195572 0.287244 0.177660 0.024562 0.140121 0.166618 -0.288136 -0.240739 -0.291426 -0.156080 -0.193023 -0.000304 -0.272423 0.389682 -0.036771 -0.195966 0.354973 -0.157847 -0.175280 0.232467 0.159895 -0.041345 -0.172931 -0.288944 0.146767 0.118465 -0.031870 -0.066764 0.255727 -0.078988 0.121613 0.110572 -0.297819 -0.095059 0.103485 0.321876 -0.365334 0.041048 -0.186703 0.016750 0.425989 0.485085 -0.132360 0.166833 0.125207 0.176070 0.010445 -0.111399
last -0.391106 0.422260 0.000419 0.279385 0.035824 0.226958 -0.263538 -0.145648 -0.163652 0.136278 -0.119931 -0.022368 0.168091 0.221019 -0.021940 -0.268142 0.138404 0.444547 0.097289 -0.333789 0.184677 -0.561551 -0.112325 -0.386720 -0.256181 -0.065252 0.405420 -0.286589 0.158136 0.232550 0.605160 -0.083409 0.038147 -0.103464 -0.105952 0.081821 0.023813 0.087761 -0.225264 -0.189298 -0.012544 -0.106112 0.239163 0.018631 -0.210863 -0.199649 0.007252 0.011953 -0.040517 0.139692
long -0.701596 0.590744 -0.203412 0.211793 -0.313524 -0.358908 -0.002282 -0.036700 0.105576 -0.402528 -0.199882 -0.184310 0.097021 0.243194 -0.417970 -0.008425 0.227528 0.736062 0.016810 -0.484475 0.104312 -0.599754 -0.053745 -0.231189 -0.501575 -0.214718 0.237464 -0.116142 0.264078 -0.155913 0.765518 -0.036705 0.064010 -0.183207 -0.127889 -0.022762 0.009145 0.206445 -0.355340 -0.140282 -0.458062 -0.014409 0.449313 0.422505 -0.295212 0.460009 -0.063814 -0.021863 -0.065027 -0.502522
few -0.051227 0.320164 -0.366038 0.456045 -0.289358 -0.388394 -0.274348 0.179251 0.093508 -0.092938 0.032402 0.548691 -0.135861 0.021002 0.151850 -0.760617 -0.066717 0.533878 0.140021 -0.762483 0.050097 -0.149152 -0.007604 -0.021262 0.163571 0.106913 0.160267 -0.232484 0.576120 0.205941 0.282690 -0.046852 0.293646 -0.078082 0.117448 0.014232 -0.275511 0.021157 0.203177 -0.288953 0.094796 -0.197597 0.226172 0.040991 -0.039127 0.270161 -0.346042 -0.162736 0.032785 -0.027830
small -0.275783 -0.000266 -0.305958 0.036565 0.225677 -0.105623 0.465863 0.044711 -0.058763 -0.099051 -0.223964 0.071795 -0.086187 -0.155921 -0.319273 0.083541 0.073266 0.178779 0.300205 -0.307919 -0.156767 0.120349 0.099161 0.270969 0.112736 -0.270848 -0.202722 -0.088044 0.136420 -0.172646 0.390315 -0.057746 -0.003378 -0.470151 -0.267712 -0.285135 -0.210635 0.327031 -0.315411 -0.131270 -0.253681 -0.104718 0.425295 0.407971 0.362262 0.246562 0.005399 0.058385 -0.059647 -0.189344
two -0.203790 -0.092235 -0.322425 0.299884 -0.269597 0.122113 -0.243745 -0.121682 -0.058968 0.135289 0.218535 0.521249 -0.176417 0.341202 0.238596 -0.456634 -0.059459 0.217082 0.067766 -0.635574 -0.224060 -0.333926 0.083332 0.104872 0.021361 0.112891 0.352245 -0.370080 0.361691 0.334591 0.101884 0.197318 0.030485 0.368521 -0.190424 -0.215575 0.198468 -0.115849 0.191415 -0.164725 -0.005780 -0.241604 0.415426 -0.017269 -0.261935 -0.003415 -0.177356 -0.154172 -0.003645 0.283610
used -0.051335 0.142982 0.296901 -0.173532 -0.474672 0.028487 -0.500805 0.156283 0.108587 0.178705 0.359078 0.118098 0.159535 -0.622754 0.083671 -0.192217 0.190264 0.473085 0.488701 0.093661 0.216112 -0.176307 -0.318921 0.379068 0.040035 -0.108154 -0.412278 0.185284 0.152296 0.105806 0.607234 -0.120595 0.359033 -0.305765 -0.315081 -0.096281 -0.046217 -0.145931 0.051345 0.400977 -0.303822 -0.058473 -0.151641 -0.441183 0.204032 0.778704 -0.692489 0.060214 -0.104224 -0.034011
around 0.137710 0.267881 0.066952 -0.023213 0.315401 -0.023684 0.151037 -0.266434 0.101551 -0.056039 0.246999 0.100854 0.198850 0.157532 -0.205407 -0.062996 0.077618 0.700062 0.204533 -0.492681 -0.036350 -0.122368 0.040675 -0.045607 -0.190087 -0.011318 0.254471 0.091599 0.045109 0.186986 0.073524 -0.120819 -0.173825 -0.116193 -0.359394 0.250673 -0.027909 0.357349 0.259595 -0.055266 -0.156142 0.209755 -0.168022 0.035156 -0.235001 -0.127969 -0.580835 0.276244 -0.274010 0.185010
far -0.517826 -0.319607 -0.545748 0.055136 -0.316782 0.018505 -0.325767 -0.065964 -0.350957 -0.213860 -0.218424 -0.049836 0.068955 -0.421603 0.157070 -0.366030 0.364263 -0.007635 0.180276 0.059622 0.044262 0.018016 -0.049785 -0.177073 -0.125284 -0.389611 0.265450 -0.149539 -0.396417 -0.271151 -0.133296 -0.498962 0.168682 -0.278347 -0.282101 -0.445489 0.352381 -0.607494 0.402959 0.311660 0.210573 0.009145 0.164459 0.049503 -0.281053 0.200049 0.204575 0.235283 -0.030339 0.018766
night -0.167084 0.273717 -0.040485 0.257903 0.096562 0.227569 -0.149765 -0.045309 -0.165634 0.358858 -0.059073 0.027292 0.232773 0.457455 0.023872 -0.426164 0.159754 0.451538 0.107855 -0.495285 0.021737 -0.510203 -0.045518 -0.335015 0.225829 -0.060990 0.313904 -0.286051 0.324276 0.231058 0.344400 0.052735 0.051281 -0.243815 0.027880 -0.129716 0.007032 0.232536 -0.300237 -0.177577 0.099152 -0.042124 0.407156 -0.028569 -0.208474 -0.192166 0.000238 0.144819 0.011485 0.251115
perfect -0.459820 0.114855 -0.048302 0.306963 0.160206 0.271071 0.273463 0.068898 -0.361849 0.139670 0.103421 -0.316047 -0.376636 0.091001 -0.095307 0.080213 0.259726 0.187593 0.077142 -0.200893 0.334468 0.037850 0.017493 0.147663 -0.034423 -0.182961 -0.136733 -0.278327 0.129975 0.020142 0.163874 0.087839 0.093563 0.045290 -0.423264 -0.256344 0.176585 -0.005544 -0.405107 -0.095987 -0.071479 -0.254881 0.483024 0.220012 0.101309 0.180656 0.618985 0.313239 -0.028940 -0.006411
them 0.289392 0.344868 0.062882 -0.269540 0.143831 -0.213592 0.247871 -0.571408 0.265284 0.220219 0.429794 0.299841 0.445886 -0.194821 -0.005416 0.190451 0.187583 0.740004 0.332424 -0.127890 0.063555 -0.272293 -0.268805 0.262203 -0.364362 -0.077929 -0.331410 0.331568 0.089696 0.226582 0.440456 -0.158765 -0.164245 -0.020987 -0.155823 0.439755 -0.047237 0.282526 0.443059 0.180761 -0.053771 -0.025363 -0.602639 -0.385587 -0.174488 0.102236 -0.837947 -0.034239 -0.182971 0.019842
MacBook -0.818492 -0.987111 -0.470036 1.032213 0.075311 -0.027598 -0.183107 -0.131488 -0.481073 0.003346 -0.124202 0.396170 -0.776966 0.864749 0.351480 0.253945 -0.368692 -0.089609 -0.205097 -0.478671 -0.055627 0.071914 0.046968 0.033802 0.338969 0.196019 0.857499 0.043470 0.210985 -0.344373 -0.408272 0.066655 0.260982 0.839786 -0.548120 -0.084428 0.489883 -0.693914 -0.454023 0.023740 -0.087375 0.201151 1.050448 -0.171107 -0.189642 0.074427 0.950449 0.535474 0.750736 0.045066
day -0.296152 0.143241 -0.366172 0.299777 -0.033633 0.027337 0.116519 -0.270945 -0.173934 0.254325 -0.065471 0.372349 -0.096144 0.254569 0.025900 -0.127605 0.131253 0.329022 0.396611 -0.582803 -0.083380 -0.322421 -0.028555 0.039913 0.067715 -0.184504 0.003063 -0.232679 0.352103 0.154494 0.265359 -0.315824 -0.129290 -0.068415 -0.370857 0.240065 0.164499 0.022424 0.007610 0.150690 -0.220515 -0.048389 0.441153 -0.139053 -0.277756 0.153724 -0.159406 -0.033718 -0.090953 -0.008135
experience 0.083243 0.035287 0.082406 0.307207 -0.068950 0.171069 0.130096 0.189208 -0.322228 0.508913 -0.012066 -0.513932 0.055757 0.432929 -0.253872 -0.141326 0.106081 0.049071 0.017477 -0.152775 -0.096097 -0.067852 0.317829 0.032763 0.141353 -0.225360 -0.019219 -0.134533 0.415852 -0.073135 -0.124484 -0.117064 0.148062 -0.068512 0.306953 -0.594407 0.074054 0.101355 -0.633211 -0.135877 0.033182 -0.059414 0.625713 -0.002963 -0.109719 -0.198341 0.473806 0.044833 -0.007315 0.172593
happy -0.450469 -0.752660 -0.155119 0.275033 -1.169496 -0.050003 -0.126966 -0.195490 -0.147250 0.047768 0.036199 0.598382 -0.333335 0.377275 -0.363527 0.419253 0.408674 -0.231722 0.596488 0.451997 -0.883067 -0.230275 0.529332 -0.693816 -0.221482 -0.414451 0.816897 0.208771 0.219369 -0.094486 -0.179301 -0.927272 0.540799 -0.465936 0.200272 -0.703307 0.524237 -1.151767 0.533248 0.208256 -0.107690 0.365128 -0.172026 -0.130049 0.190963 -0.131171 -0.440294 -0.231918 0.389258 -0.179953
again -0.216204 0.079652 0.564281 0.387321 0.152215 0.329305 -0.019539 -0.229802 -0.101604 1.104790 0.271196 -0.519061 0.172452 0.010712 -0.114020 0.211557 0.418196 0.644719 0.384148 0.645353 0.491465 -0.205931 0.000638 -0.175254 -0.384864 -0.211684 0.022874 0.681306 -0.107790 0.312956 0.469144 -0.499546 -0.157344 -0.165696 0.097928 0.465957 -0.119953 -0.225660 0.263438 0.259102 0.110855 -0.049016 -0.719755 -0.768781 0.154297 -0.939222 -0.026863 0.111706 0.029507 0.424074
being -0.131957 0.206000 -0.269400 -0.088007 0.039932 0.004165 0.102893 -0.280572 -0.018582 0.002933 0.153662 0.118254 0.218243 -0.144031 -0.042897 0.025400 0.153422 0.251262 0.370287 -0.131989 -0.021950 -0.171672 -0.033126 -0.058417 -0.111675 -0.254824 -0.086780 0.092548 -0.020585 0.023501 0.475897 -0.123190 0.030989 -0.187295 -0.143630 -0.113639 0.061279 0.221585 0.203416 0.159614 -0.054098 -0.222765 0.082246 0.009849 -0.124812 0.121616 -0.375536 -0.004758 0.039223 0.022481
bit -0.251688 0.177808 -0.455461 -0.019562 -0.216350 -0.089141 0.219070 0.006379 0.035734 -0.053006 -0.217885 0.139181 0.159652 -0.509921 -0.165672 -0.380074 0.205518 -0.010214 0.463760 -0.119023 -0.163743 -0.143432 -0.174778 0.371576 0.291454 -0.213907 -0.467021 -0.171008 0.231374 -0.298329 0.684122 -0.094277 0.333844 -0.750171 0.053723 -0.564155 -0.204386 -0.055216 -0.260949 -0.026690 -0.147295 -0.304643 0.581227 0.069674 0.592290 0.565958 -0.073247 -0.238574 0.107114 -0.190992
feel 0.334640 0.406601 -0.372390 -0.107307 0.605584 -0.102221 0.083538 -0.328576 -0.116047 -0.333868 0.179199 0.561821 0.597302 -0.377881 0.338178 -0.024329 0.102770 -0.081115 0.831425 -0.183761 0.246236 0.563617 -0.452490 0.222216 -0.614685 -0.235671 -0.469891 0.224949 -0.051793 -0.131690 0.569879 -0.490564 0.256480 -0.011109 -0.047405 0.666553 -0.173797 0.472677 -0.043526 0.044883 0.359099 0.164950 -0.218916 -0.148968 0.321669 0.129538 -0.520878 0.021816 0.053139 -0.124792
friendly -0.048067 -0.542019 0.303400 0.466258 0.158252 -0.193549 0.573198 0.165640 -0.392229 0.024652 -0.743314 -0.397704 0.041712 0.284167 -0.777106 0.739136 0.084127 -0.304025 0.168361 0.128912 -0.565830 0.381315 0.315267 -0.205120 -0.378944 -0.479513 -0.153640 0.296220 0.044296 -0.056062 0.065463 -0.378180 0.165633 0.029603 0.289757 -0.312131 0.058251 0.421647 -0.653881 -0.247296 -0.049142 -0.094183 0.477029 0.678101 0.035484 -0.234713 0.575939 -0.122324 -0.139955 -0.071096
now -0.279089 -0.103112 -0.312923 0.634050 -0.393911 -0.589567 -0.173270 0.004586 -0.011128 -0.021887 -0.044493 0.623236 -0.416259 -0.059218 0.127284 -0.157808 0.220603 0.294906 0.266786 -0.304914 -0.062771 0.113860 -0.167054 0.085044 -0.217039 0.061438 0.126552 0.135648 0.340515 -0.026538 0.349250 -0.430772 0.356520 0.033830 -0.066658 0.194301 -0.333748 -0.412413 0.161209 -0.062155 -0.040685 -0.242024 0.250234 -0.161926 0.187266 0.269102 -0.058224 -0.071792 0.008280 0.013955
order 0.377828 0.108809 0.096602 0.011234 -0.087944 -0.026638 0.458515 -0.290733 -0.010736 0.613246 0.311461 -0.152570 0.479979 0.387174 -0.316275 0.274423 0.280396 0.578932 0.335310 -0.090755 -0.036241 -0.283766 0.063591 0.235009 -0.239260 -0.223722 -0.338538 0.231355 0.217722 0.210312 0.285327 -0.273355 -0.146817 0.059618 -0.005869 -0.194693 -0.059586 0.660672 0.141291 0.039222 0.004037 -0.491519 -0.057274 -0.100674 -0.232401 -0.393484 -0.241371 -0.006562 -0.464233 0.608892
table -0.031024 0.311166 -0.063227 0.191801 0.018168 0.238320 0.258852 -0.058980 -0.201629 0.422598 0.224624 -0.131894 0.335822 0.207505 -0.214770 -0.104106 0.395416 0.668992 0.483223 -0.381992 0.166250 -0.270032 -0.001431 0.099229 -0.346608 -0.271296 -0.214814 -0.249618 0.379804 0.313346 0.521766 -0.113332 0.239716 -0.241649 0.013279 -0.384955 -0.144400 0.652760 -0.117852 -0.252701 0.061151 -0.633532 0.159700 0.335062 0.035985 -0.119366 -0.124073 0.023842 -0.379767 0.400410
years -0.058554 0.074509 -0.214517 0.683618 -0.328097 -0.586103 -0.334474 0.032778 -0.012671 0.189409 0.232670 0.817715 -0.649094 0.341291 0.440059 -0.509595 0.109128 0.844210 -0.015194 -0.844102 0.093010 -0.027639 -0.117905 0.355963 0.132618 0.316956 0.399334 -0.208485 0.453635 0.410530 0.071182 -0.084151 0.062340 0.298509 -0.094835 0.269132 -0.397786 -0.380276 0.307785 -0.436588 -0.190714 0.005928 0.292942 -0.362126 -0.135697 0.142106 -0.261586 -0.187132 -0.119790 0.152750
You 0.294630 0.132863 0.234587 -0.368356 0.224253 0.305433 -0.222960 -0.241299 0.233777 -0.180036 0.230102 0.186901 0.673218 -0.571718 0.217706 -0.057193 -0.024409 -0.028296 0.390846 0.653262 0.475273 0.021190 -0.498977 -0.256771 -0.615888 0.072006 -0.139634 0.406741 -0.536214 0.016816 0.280980 -0.374102 0.220880 -0.370595 -0.094286 0.615619 -0.301845 -0.325064 0.397376 0.208083 0.529541 0.094503 -1.386006 -0.341123 0.652545 -0.336067 -0.736783 0.209681 -0.134616 0.077948
amazing -0.229280 -0.162426 0.123798 0.291518 0.165914 -0.003571 0.522955 -0.134306 -0.331892 0.142957 -0.211442 -0.353692 -0.051095 0.130190 -0.422389 0.548878 -0.081095 -0.391823 0.001655 0.149204 -0.184533 0.292491 0.137147 0.119338 -0.214564 -0.358004 -0.419616 0.169392 0.051633 -0.195463 -0.004273 -0.145643 -0.013306 0.120150 -0.043845 -0.019197 0.068839 0.120498 -0.639063 0.249039 -0.102026 -0.211851 0.405169 0.335463 0.013973 -0.003426 0.700745 0.109178 -0.109912 -0.242787
